FANN_FLO_2.1
num_layers=3
learning_rate=0.700000
connection_rate=1.000000
network_type=0
learning_momentum=0.000000
training_algorithm=0
train_error_function=1
train_stop_function=0
cascade_output_change_fraction=0.010000
quickprop_decay=-0.000100
quickprop_mu=1.750000
rprop_increase_factor=1.200000
rprop_decrease_factor=0.500000
rprop_delta_min=0.000000
rprop_delta_max=50.000000
rprop_delta_zero=0.100000
cascade_output_stagnation_epochs=12
cascade_candidate_change_fraction=0.010000
cascade_candidate_stagnation_epochs=12
cascade_max_out_epochs=150
cascade_max_cand_epochs=150
cascade_num_candidate_groups=2
bit_fail_limit=3.49999999999999977796e-01
cascade_candidate_limit=1.00000000000000000000e+03
cascade_weight_multiplier=4.00000000000000022204e-01
cascade_activation_functions_count=10
cascade_activation_functions=3 5 7 8 10 11 14 15 16 17 
cascade_activation_steepnesses_count=4
cascade_activation_steepnesses=2.50000000000000000000e-01 5.00000000000000000000e-01 7.50000000000000000000e-01 1.00000000000000000000e+00 
layer_sizes=126 33 3 
scale_included=0
neurons (num_inputs, activation_function, activation_steepness)=(0, 0, 0.00000000000000000000e+00) (0, 0, 0.00000000000000000000e+00) (0, 0, 0.00000000000000000000e+00) (0, 0, 0.00000000000000000000e+00) (0, 0, 0.00000000000000000000e+00) (0, 0, 0.00000000000000000000e+00) (0, 0, 0.00000000000000000000e+00) (0, 0, 0.00000000000000000000e+00) (0, 0, 0.00000000000000000000e+00) (0, 0, 0.00000000000000000000e+00) (0, 0, 0.00000000000000000000e+00) (0, 0, 0.00000000000000000000e+00) (0, 0, 0.00000000000000000000e+00) (0, 0, 0.00000000000000000000e+00) (0, 0, 0.00000000000000000000e+00) (0, 0, 0.00000000000000000000e+00) (0, 0, 0.00000000000000000000e+00) (0, 0, 0.00000000000000000000e+00) (0, 0, 0.00000000000000000000e+00) (0, 0, 0.00000000000000000000e+00) (0, 0, 0.00000000000000000000e+00) (0, 0, 0.00000000000000000000e+00) (0, 0, 0.00000000000000000000e+00) (0, 0, 0.00000000000000000000e+00) (0, 0, 0.00000000000000000000e+00) (0, 0, 0.00000000000000000000e+00) (0, 0, 0.00000000000000000000e+00) (0, 0, 0.00000000000000000000e+00) (0, 0, 0.00000000000000000000e+00) (0, 0, 0.00000000000000000000e+00) (0, 0, 0.00000000000000000000e+00) (0, 0, 0.00000000000000000000e+00) (0, 0, 0.00000000000000000000e+00) (0, 0, 0.00000000000000000000e+00) (0, 0, 0.00000000000000000000e+00) (0, 0, 0.00000000000000000000e+00) (0, 0, 0.00000000000000000000e+00) (0, 0, 0.00000000000000000000e+00) (0, 0, 0.00000000000000000000e+00) (0, 0, 0.00000000000000000000e+00) (0, 0, 0.00000000000000000000e+00) (0, 0, 0.00000000000000000000e+00) (0, 0, 0.00000000000000000000e+00) (0, 0, 0.00000000000000000000e+00) (0, 0, 0.00000000000000000000e+00) (0, 0, 0.00000000000000000000e+00) (0, 0, 0.00000000000000000000e+00) (0, 0, 0.00000000000000000000e+00) (0, 0, 0.00000000000000000000e+00) (0, 0, 0.00000000000000000000e+00) (0, 0, 0.00000000000000000000e+00) (0, 0, 0.00000000000000000000e+00) (0, 0, 0.00000000000000000000e+00) (0, 0, 0.00000000000000000000e+00) (0, 0, 0.00000000000000000000e+00) (0, 0, 0.00000000000000000000e+00) (0, 0, 0.00000000000000000000e+00) (0, 0, 0.00000000000000000000e+00) (0, 0, 0.00000000000000000000e+00) (0, 0, 0.00000000000000000000e+00) (0, 0, 0.00000000000000000000e+00) (0, 0, 0.00000000000000000000e+00) (0, 0, 0.00000000000000000000e+00) (0, 0, 0.00000000000000000000e+00) (0, 0, 0.00000000000000000000e+00) (0, 0, 0.00000000000000000000e+00) (0, 0, 0.00000000000000000000e+00) (0, 0, 0.00000000000000000000e+00) (0, 0, 0.00000000000000000000e+00) (0, 0, 0.00000000000000000000e+00) (0, 0, 0.00000000000000000000e+00) (0, 0, 0.00000000000000000000e+00) (0, 0, 0.00000000000000000000e+00) (0, 0, 0.00000000000000000000e+00) (0, 0, 0.00000000000000000000e+00) (0, 0, 0.00000000000000000000e+00) (0, 0, 0.00000000000000000000e+00) (0, 0, 0.00000000000000000000e+00) (0, 0, 0.00000000000000000000e+00) (0, 0, 0.00000000000000000000e+00) (0, 0, 0.00000000000000000000e+00) (0, 0, 0.00000000000000000000e+00) (0, 0, 0.00000000000000000000e+00) (0, 0, 0.00000000000000000000e+00) (0, 0, 0.00000000000000000000e+00) (0, 0, 0.00000000000000000000e+00) (0, 0, 0.00000000000000000000e+00) (0, 0, 0.00000000000000000000e+00) (0, 0, 0.00000000000000000000e+00) (0, 0, 0.00000000000000000000e+00) (0, 0, 0.00000000000000000000e+00) (0, 0, 0.00000000000000000000e+00) (0, 0, 0.00000000000000000000e+00) (0, 0, 0.00000000000000000000e+00) (0, 0, 0.00000000000000000000e+00) (0, 0, 0.00000000000000000000e+00) (0, 0, 0.00000000000000000000e+00) (0, 0, 0.00000000000000000000e+00) (0, 0, 0.00000000000000000000e+00) (0, 0, 0.00000000000000000000e+00) (0, 0, 0.00000000000000000000e+00) (0, 0, 0.00000000000000000000e+00) (0, 0, 0.00000000000000000000e+00) (0, 0, 0.00000000000000000000e+00) (0, 0, 0.00000000000000000000e+00) (0, 0, 0.00000000000000000000e+00) (0, 0, 0.00000000000000000000e+00) (0, 0, 0.00000000000000000000e+00) (0, 0, 0.00000000000000000000e+00) (0, 0, 0.00000000000000000000e+00) (0, 0, 0.00000000000000000000e+00) (0, 0, 0.00000000000000000000e+00) (0, 0, 0.00000000000000000000e+00) (0, 0, 0.00000000000000000000e+00) (0, 0, 0.00000000000000000000e+00) (0, 0, 0.00000000000000000000e+00) (0, 0, 0.00000000000000000000e+00) (0, 0, 0.00000000000000000000e+00) (0, 0, 0.00000000000000000000e+00) (0, 0, 0.00000000000000000000e+00) (0, 0, 0.00000000000000000000e+00) (0, 0, 0.00000000000000000000e+00) (0, 0, 0.00000000000000000000e+00) (0, 0, 0.00000000000000000000e+00) (0, 0, 0.00000000000000000000e+00) (0, 0, 0.00000000000000000000e+00) (126, 4, 5.00000000000000000000e-01) (126, 4, 5.00000000000000000000e-01) (126, 4, 5.00000000000000000000e-01) (126, 4, 5.00000000000000000000e-01) (126, 4, 5.00000000000000000000e-01) (126, 4, 5.00000000000000000000e-01) (126, 4, 5.00000000000000000000e-01) (126, 4, 5.00000000000000000000e-01) (126, 4, 5.00000000000000000000e-01) (126, 4, 5.00000000000000000000e-01) (126, 4, 5.00000000000000000000e-01) (126, 4, 5.00000000000000000000e-01) (126, 4, 5.00000000000000000000e-01) (126, 4, 5.00000000000000000000e-01) (126, 4, 5.00000000000000000000e-01) (126, 4, 5.00000000000000000000e-01) (126, 4, 5.00000000000000000000e-01) (126, 4, 5.00000000000000000000e-01) (126, 4, 5.00000000000000000000e-01) (126, 4, 5.00000000000000000000e-01) (126, 4, 5.00000000000000000000e-01) (126, 4, 5.00000000000000000000e-01) (126, 4, 5.00000000000000000000e-01) (126, 4, 5.00000000000000000000e-01) (126, 4, 5.00000000000000000000e-01) (126, 4, 5.00000000000000000000e-01) (126, 4, 5.00000000000000000000e-01) (126, 4, 5.00000000000000000000e-01) (126, 4, 5.00000000000000000000e-01) (126, 4, 5.00000000000000000000e-01) (126, 4, 5.00000000000000000000e-01) (126, 4, 5.00000000000000000000e-01) (0, 0, 0.00000000000000000000e+00) (33, 4, 5.00000000000000000000e-01) (33, 4, 5.00000000000000000000e-01) (0, 4, 0.00000000000000000000e+00) 
connections (connected_to_neuron, weight)=(0, 8.23665131946815370911e-02) (1, 9.91098539118730470499e-02) (2, -1.81568323329132919053e-01) (3, 3.91347567232116153035e-02) (4, 1.44845867083973518785e-02) (5, 1.91379436366876723441e-02) (6, -1.33375879730450563887e-01) (7, -3.52703574400191552374e-02) (8, -1.10829442512976897306e-01) (9, -1.21342154615504557724e-01) (10, -1.74494373355584209140e-01) (11, -2.75622297344350723758e-02) (12, -1.24995847208955318530e-01) (13, 4.46505702409954075439e-04) (14, 2.37081329964419808276e-02) (15, -4.28329368141637661926e-02) (16, -1.04278289226266432377e-01) (17, 9.52967168319551471978e-02) (18, -1.52806584347045890798e-02) (19, -6.66433517394633516406e-03) (20, -4.33173271953267366441e-02) (21, -7.92686893853006696586e-02) (22, -8.16701052279014960700e-02) (23, -9.47223639160778840829e-02) (24, 4.94630066710478530356e-02) (25, -2.96219045208726558874e-03) (26, 1.66594163731473676737e-01) (27, 7.31207821379911138138e-02) (28, -1.51445797401245252356e-01) (29, 7.05393797538533678937e-02) (30, 2.53609678370922062007e-02) (31, 6.37651705792367535369e-03) (32, 2.18909088058905076934e-03) (33, -9.81042774421972130217e-02) (34, 6.89599673295016035723e-05) (35, -1.44788232372809938520e-01) (36, -1.00633563645029441846e-01) (37, 5.27520939186527301756e-02) (38, -2.49038154193256616731e-01) (39, 4.75822586817339771015e-02) (40, -1.16164634771211111586e-01) (41, -5.75894523301287430961e-02) (42, 7.18059686641245864536e-02) (43, -7.50339536390233902141e-02) (44, -6.14238217471893971355e-02) (45, 1.23630984611826678921e-02) (46, -5.00276574666602066865e-02) (47, -9.80961168539070532679e-02) (48, -2.42647411700428854153e-02) (49, -1.94061875624639487703e-02) (50, 1.19479598060554421946e-02) (51, 9.86195093334734096402e-02) (52, -9.73057491556768711094e-02) (53, -1.85362344810168083731e-01) (54, 4.44725695915173385719e-03) (55, -2.35606164144391908022e-02) (56, 3.95709219697255101811e-02) (57, -3.84557325250492049173e-02) (58, -6.08520507566936291743e-02) (59, -4.79954908868918880827e-02) (60, -1.39819707240607077336e-01) (61, 7.50238626789482693225e-02) (62, -5.06186521314201248734e-02) (63, -1.41241955934126528494e-01) (64, -7.71853608707559479818e-02) (65, 8.22048831826106690679e-02) (66, 2.53266672727861866243e-02) (67, -8.13673500448478387304e-02) (68, -5.64601987870310684237e-02) (69, -7.98325573943691746415e-02) (70, -4.38877961477116343425e-02) (71, -7.17576428323031256795e-02) (72, -1.53676364255262778991e-02) (73, 5.91136630668606805061e-02) (74, -1.88733469349835723816e-02) (75, -4.19383159623479759293e-02) (76, 4.51078871118920296523e-03) (77, -5.70674549116184821884e-03) (78, -7.43488907852052072212e-02) (79, 5.26641435528611284722e-02) (80, -8.98987058880419132034e-02) (81, 4.56003522587701340396e-02) (82, 1.48177427958084643317e-02) (83, -5.11420163011779213558e-02) (84, -1.36558926923908613427e-01) (85, -1.55719058477509324223e-02) (86, -1.13795228581432483761e-01) (87, 6.85953151411609896027e-02) (88, 7.37445856653566687161e-03) (89, 6.18823942687678832386e-02) (90, -2.13896631176746565561e-01) (91, 7.74746725017698700810e-02) (92, 3.55638730192953944620e-02) (93, -1.49903046384001092939e-01) (94, -9.66111260379984709834e-02) (95, -9.08402461124993010344e-02) (96, 4.07529481624804429396e-02) (97, -1.58909130538897241935e-01) (98, 8.22390852427147961423e-02) (99, -6.35674069652872181235e-02) (100, -1.75279180504416071118e-01) (101, -9.17000517874963644305e-02) (102, -1.15689627687478452378e-02) (103, -6.55676835454290368732e-02) (104, -1.49200397818528614907e-02) (105, 7.59677965425516604769e-02) (106, -1.54830922421403029826e-02) (107, 8.62953529785568107524e-02) (108, 4.30305553672612958738e-02) (109, -5.69056827950611826550e-02) (110, 7.92591358548535435125e-02) (111, 8.42658577793069935025e-02) (112, -3.80915495637803580564e-02) (113, 1.34016996738332255790e-01) (114, -8.17003228560816974202e-02) (115, -3.97111614002986362815e-02) (116, -4.21439090290993481625e-02) (117, 9.31900402753931857147e-03) (118, -4.70739355557522887175e-02) (119, 1.24034254840096076072e-02) (120, 9.88384420055121032389e-02) (121, -2.63705258525782880452e-02) (122, -9.01169718929855922962e-02) (123, -6.31034663829979775018e-02) (124, -3.61836804859909932919e-02) (125, -1.83558754637597187909e-01) (0, -5.82526062021261267776e-02) (1, 1.35875980821927792690e-03) (2, 2.55345290451790309094e-02) (3, -1.06144223895673864289e-01) (4, 1.65506870108043969980e-02) (5, 4.73236885225587766701e-02) (6, 9.08912751109352823331e-02) (7, -1.23032684687063242901e-01) (8, -2.21128700049266962990e-01) (9, -5.40855391472033070199e-02) (10, 3.01318366256831428329e-02) (11, -1.72640646878440051637e-01) (12, 1.15941545154048725186e-01) (13, 7.75080543925480286438e-02) (14, 1.45115189491381579856e-01) (15, -1.36141578207250812937e-01) (16, 1.26346574147243539965e-01) (17, -7.19643144035223177035e-03) (18, -1.98444060851187986660e-01) (19, -5.44735281298336232458e-02) (20, -4.70156601355512793194e-02) (21, 8.97322729619916964472e-02) (22, 2.32256561009716616661e-01) (23, 2.24258400353214565337e-01) (24, -3.47909499610548123005e-01) (25, 1.24206529979489985194e-02) (26, -3.28906747253237985440e-01) (27, -6.93506976426917637335e-02) (28, 4.18792747327604131247e-01) (29, -2.54232938191365887004e-01) (30, -5.79453770634972345488e-02) (31, 7.76872673600352281476e-02) (32, -4.31471055283711088513e-02) (33, -1.95441412229936800626e-01) (34, -7.27389938792436241410e-02) (35, -3.33266180124268562857e-01) (36, 1.56637511296184445131e-01) (37, -5.79895823521849734794e-03) (38, 2.61460354473056710845e-01) (39, -3.74735393133094785156e-01) (40, 1.37983361484284611231e-01) (41, 1.07026033270795947749e-01) (42, -1.14214916510351816026e-01) (43, -2.94636964309465364253e-02) (44, 3.75059080401435387953e-02) (45, -6.53058943157578675187e-02) (46, 6.69110554321746403561e-02) (47, 3.80214587067093101602e-02) (48, -7.33831623562429952168e-02) (49, 1.34049249891901395282e-01) (50, 2.94285687323613785737e-02) (51, 3.27606551399499193455e-02) (52, -1.93144164633820530907e-01) (53, 2.40603650152799081186e-01) (54, -3.11174912088443833547e-01) (55, 1.74643036455056945011e-02) (56, 4.83514546171047374101e-02) (57, 3.09550594957302173393e-02) (58, 1.56148343811159454053e-02) (59, 2.00013991027169803216e-02) (60, 5.80525778979289544535e-03) (61, -9.71703327447214076917e-02) (62, -1.23517964504046881546e-01) (63, 9.95296943724049143487e-02) (64, 9.96961126172033751391e-02) (65, -2.28167130093496955956e-01) (66, -6.09240161793634868448e-02) (67, 4.96297419496062250377e-02) (68, -1.79476722727874970359e-03) (69, -1.13464724766783514598e-01) (70, -9.04535426014865528987e-02) (71, 1.51376401636798378625e-02) (72, 7.37277225952545633980e-02) (73, -1.07651687537192161659e-01) (74, 7.47870319379930897918e-02) (75, -7.70632568844563797805e-02) (76, -1.93250791435885610481e-01) (77, 1.01854351408928248124e-01) (78, -5.15032105509063975468e-03) (79, -1.13882065187243960991e-01) (80, 3.55540150001963581317e-02) (81, 2.26055023454494428969e-02) (82, -1.06759691210327384292e-01) (83, -7.90621730301383981998e-03) (84, -1.58595823058273854844e-01) (85, -3.97376671062783445865e-02) (86, -8.92082583526465772161e-02) (87, 9.01699131752537463846e-02) (88, 2.53255822676026094709e-02) (89, -4.33387454850013703611e-02) (90, -1.26024018687977440445e-01) (91, -4.04300790658965319979e-02) (92, -6.79355450532342364234e-02) (93, -1.35154779329077073813e-01) (94, -6.05070486577648711246e-02) (95, 3.59056290001515815424e-02) (96, -1.13101733586668834475e-01) (97, 2.44400295686352880820e-01) (98, -1.08826225630800632604e-01) (99, -1.09877140715053823322e-02) (100, -7.19899809401844305995e-03) (101, 4.14363274005998191707e-02) (102, 9.41298139338167388912e-02) (103, 1.88505528108106473750e-01) (104, 2.82869301633088710002e-01) (105, 4.47942203480359429912e-02) (106, -1.08744223514058435676e-01) (107, -3.69415476021027977538e-01) (108, -8.83755036157532897212e-02) (109, 1.65434520216189012709e-01) (110, -1.42908095163896575741e-01) (111, -7.50460414702501868445e-03) (112, 1.41548308881999762576e-01) (113, -3.23692326215120340649e-01) (114, 1.59279729491960925225e-01) (115, -1.12376962386009165984e-01) (116, -2.16048605262203319288e-01) (117, 9.31752091682688382557e-02) (118, -1.84968348259770959396e-01) (119, -8.90733521377623377324e-02) (120, -1.32229986520677855744e-01) (121, 4.43104622907266182397e-02) (122, -8.50420118737415520194e-02) (123, 1.63740081333302173183e-01) (124, 7.05719896574018420651e-04) (125, -5.61919807560493853038e-02) (0, -6.84206423255990930921e-02) (1, -9.04274395791308110981e-02) (2, 7.55426030242077606314e-02) (3, -6.94921892022368724307e-03) (4, 6.47904927087534186769e-03) (5, 5.48454305339973330335e-02) (6, 9.71636794169469381055e-02) (7, -5.14744011227044433177e-03) (8, -2.18820660085976392839e-01) (9, -9.81516419133083260762e-03) (10, 3.44642952751733622208e-02) (11, -9.09260214648151404715e-02) (12, 6.43809773381564531824e-02) (13, -2.78006249753857542784e-02) (14, 3.03851801014750622087e-02) (15, -1.34688126527568646784e-01) (16, 1.30390527967192165759e-01) (17, 8.74075098702451576058e-04) (18, -1.05864539313238678608e-01) (19, 4.99062571659258172319e-02) (20, -9.98614756238891260187e-02) (21, -3.92766223467947012127e-02) (22, 4.33030359510268081369e-01) (23, 3.38241811551314275341e-01) (24, -3.46843257877856414595e-01) (25, -1.07131893888657903080e-01) (26, -3.40609676076620737639e-01) (27, -2.50348438204432387211e-02) (28, 2.43758617053032117239e-01) (29, -2.08593041403283219193e-01) (30, -1.41372060596505394470e-01) (31, -1.60283375203184252043e-03) (32, -8.70748920302821804995e-02) (33, -5.86159023491175865117e-02) (34, -2.18458470418430375504e-02) (35, -2.01925847523952317619e-01) (36, 1.30717081313069555248e-01) (37, 9.53995817586717059777e-02) (38, 3.07807783397634870948e-01) (39, -3.92976701004616291169e-01) (40, 7.54272619679902112111e-02) (41, 3.92776121018477142322e-02) (42, -2.49929159428401631571e-01) (43, 8.27261595034866348275e-02) (44, 8.95796316939403841628e-02) (45, -1.04169603916861766568e-01) (46, -4.44628261100510138726e-02) (47, 8.66922675338409609580e-02) (48, 9.68217369883312417578e-02) (49, 1.02872041520823770400e-01) (50, -7.06080883822810395634e-02) (51, -8.30194147941191035178e-02) (52, -3.18798598536056299046e-01) (53, 1.26479764028381402863e-01) (54, -3.60396610763107860809e-01) (55, 8.51511750968044489607e-02) (56, 3.81384400745993779047e-02) (57, -1.50628364128030049068e-02) (58, -7.60757003139808651859e-02) (59, 1.70345054502452047940e-01) (60, 7.79714629605282334018e-03) (61, -8.19056660197030189652e-02) (62, -2.68052402101596032313e-01) (63, 9.00180496193017515294e-02) (64, 7.86354488021595576797e-02) (65, -1.12815295022988162921e-01) (66, -1.12051192780848712927e-01) (67, -4.78211953291440578645e-03) (68, 1.31954978106353232326e-02) (69, -7.01846143165035379896e-02) (70, -1.42518066844948970706e-01) (71, -3.99746909938229061376e-02) (72, 3.64904812049926807749e-02) (73, -1.08214629933456762956e-01) (74, 1.43410615180116857159e-01) (75, -4.41076119949857931024e-02) (76, -3.69554874234263724952e-02) (77, 2.48081819007198063620e-02) (78, -1.30812129154081274729e-01) (79, 1.25846331329958326800e-02) (80, -5.61190097371284321581e-02) (81, 2.84459547316414755602e-02) (82, -9.29100271048101944427e-02) (83, 6.00104430761652738596e-03) (84, 2.26535852742911006374e-02) (85, -5.29907525092166500902e-02) (86, -5.28686945537314781363e-02) (87, 1.00030930340750945362e-02) (88, 1.28284971794357977211e-03) (89, -6.64353395576249422527e-02) (90, -8.85620746538080816368e-02) (91, -4.45722737300279295281e-02) (92, -5.69582235795370317444e-02) (93, -4.07352871916616607328e-02) (94, -8.41795575230026016378e-02) (95, 4.01503009185239720380e-02) (96, -1.24991115218603357495e-01) (97, 1.99596539039654324865e-01) (98, -1.32228615017952327859e-01) (99, 4.20433932970594032019e-02) (100, -3.42979741843786462008e-02) (101, -3.63476998000994214189e-02) (102, -9.37159651885325351017e-02) (103, 1.32021101934205437045e-01) (104, 2.46567542754835916652e-01) (105, 1.15956597221429813516e-01) (106, -1.24033185621567565438e-01) (107, -4.73626221361969634849e-01) (108, -5.36248140171909012941e-02) (109, 2.36583372889505427761e-01) (110, -1.65933198700459333397e-01) (111, -5.25936051225637385409e-02) (112, 1.00538015595928280355e-02) (113, -2.77100171067034717343e-01) (114, 1.35689663403988469703e-01) (115, -8.51034228444842999473e-02) (116, -1.91621908632423482155e-01) (117, 1.24139334404251427957e-01) (118, -8.02547124525172933529e-02) (119, -9.88128386654649748522e-02) (120, -8.59075695935025002159e-02) (121, 2.72687502062033890193e-02) (122, -5.41338898710724200636e-02) (123, 2.19601638726406533930e-01) (124, 1.11744699374804426495e-01) (125, -5.71379487318270859464e-02) (0, -1.79195669527794018694e-02) (1, 6.00479073376307889709e-02) (2, 5.88848682286136591857e-03) (3, -2.00372852541092105749e-01) (4, 1.15086127396901039682e-02) (5, -1.14211764061163331685e-02) (6, -1.68213266169140868156e-02) (7, 3.62543613684785936968e-02) (8, -9.43398855456860779833e-02) (9, 2.71914372072266687097e-02) (10, 3.54554696527402402051e-02) (11, -1.21763097535719774789e-01) (12, 2.03763327908711433523e-02) (13, -1.12840754935783049717e-01) (14, -3.93830297016173266900e-02) (15, -6.03630227670786390082e-02) (16, -2.10489838933272215005e-02) (17, 6.06804821724649546405e-04) (18, -2.01081693132398042767e-02) (19, 6.79944922764198905751e-02) (20, -1.33388272993872236682e-01) (21, -1.01300886799242872982e-01) (22, 1.46225366056944722226e-01) (23, 1.06860681174842125918e-01) (24, -2.20813476725686991253e-01) (25, 5.15972122387571840996e-02) (26, -2.49758517385143485878e-01) (27, 1.26723802027909025758e-02) (28, 2.36611293808909939340e-01) (29, -1.01526268900081068081e-01) (30, -3.98654688545998711624e-02) (31, 1.93046441564897613974e-02) (32, 5.43929659484768679434e-02) (33, -2.57410905689204327906e-01) (34, 3.54492153666796511180e-02) (35, -2.61769177067335379050e-01) (36, 6.75223216312490909230e-02) (37, -9.97120672793994217153e-02) (38, 7.08311170813584883854e-02) (39, -3.65037099190475389232e-01) (40, 1.26281460530411310250e-01) (41, -4.39173770514228248296e-02) (42, -1.49064708339846724305e-01) (43, -5.17495005474986544125e-02) (44, -1.77765782271181692342e-02) (45, -7.66482293495674843475e-02) (46, 4.69695092248860260331e-02) (47, 2.25070616486796569455e-02) (48, 8.58245437477897221701e-02) (49, 6.04496667683176447383e-02) (50, -4.34444619278120461314e-02) (51, -4.47572463545408555374e-02) (52, -1.08494417458078085126e-01) (53, 8.36471802028254107775e-02) (54, -2.14112383160615010746e-01) (55, 1.21463729861403094135e-01) (56, 7.96020905241681536735e-02) (57, 4.10765972230266659948e-02) (58, 4.20506938107415018102e-02) (59, 1.38474309132328665672e-01) (60, 1.06850159972800590191e-01) (61, -7.43240515332795059766e-02) (62, -1.39740075333310509453e-01) (63, -2.13956221390525398729e-02) (64, 6.36785412852079180102e-02) (65, -1.51355581175218217860e-01) (66, -1.13924105133847999860e-01) (67, -5.81079747818408834381e-02) (68, -6.33114816831738119740e-02) (69, 2.73546313107317189128e-02) (70, 3.51916361541247807443e-02) (71, -6.81164599355830457927e-02) (72, 9.97401170677484072424e-02) (73, -1.22511406380666709737e-01) (74, 3.83864694339627443142e-04) (75, -1.07579175848511107705e-01) (76, -2.47446414464636554875e-02) (77, -1.41830909804604495678e-02) (78, 4.05779631938017401604e-02) (79, -8.96827495925527420906e-03) (80, 6.78197342052977159010e-02) (81, -1.84161591010193366469e-02) (82, -1.08191256453339240684e-01) (83, 6.39888840501431077623e-02) (84, -1.49085450756137771755e-01) (85, -3.09715635546854127502e-02) (86, -1.46981093106751919963e-01) (87, -6.60039495267562281722e-02) (88, 4.01682389775330703219e-02) (89, 4.77863733004924105124e-03) (90, -2.25657631689867910207e-01) (91, -5.15487229170437794012e-02) (92, 1.88568462918676897633e-02) (93, -1.14506064220120357122e-01) (94, -8.91088017150133970823e-02) (95, -6.42094168135436682565e-02) (96, 1.60218413979908887168e-02) (97, 7.14339541912230174825e-02) (98, 4.51608409970641333508e-02) (99, -1.24763923385752956152e-01) (100, -2.42710364244192039473e-01) (101, 6.55359337558736321228e-02) (102, -6.78243785027321799408e-02) (103, 1.54223463809167848915e-01) (104, -7.60721856677059899560e-03) (105, 1.57892318983259213883e-02) (106, -1.38102701222688417637e-01) (107, -1.91054857452590265421e-01) (108, 3.28794287137848112446e-02) (109, -1.38894680560307476162e-03) (110, -1.03007965922585167928e-01) (111, -1.51841590118524504688e-02) (112, 3.38558681750579792968e-02) (113, -1.58046708776697658605e-01) (114, 2.21334039616623003089e-04) (115, 3.13921554729822416263e-02) (116, -2.23005634703281691023e-01) (117, 1.38816459388927671004e-01) (118, 4.51478481532940586259e-04) (119, 2.72807676402770475643e-02) (120, -7.58895457134486917106e-02) (121, 1.54508147837056769580e-01) (122, -5.68158677261764027966e-02) (123, -1.62289276825271291949e-02) (124, -2.66081450229768978755e-02) (125, -1.45097250096328705959e-01) (0, -4.04307258323787943599e-01) (1, -8.00645823795360228603e-02) (2, 8.04965041157233995861e-02) (3, 1.13928513553151089521e-01) (4, -1.38575457892057107845e-01) (5, 2.41914950041591025887e-01) (6, 1.34883232717597001393e-01) (7, -1.58593139519631026735e-01) (8, 4.26360626708718465361e-02) (9, -1.38880639703580860411e-01) (10, 8.80403934049127645523e-02) (11, -6.68493155236291936028e-01) (12, 5.39156548297239912593e-01) (13, 1.98656441019048682350e-02) (14, 3.54086147452510713318e-01) (15, -5.36695657994861852202e-01) (16, 1.63360629775584825785e-01) (17, 3.39042071832984029389e-02) (18, -4.13494238343562414695e-01) (19, 3.88971236753307914036e-01) (20, -6.37563521408043981653e-02) (21, 2.96510606923045150207e-01) (22, 1.32691493029941209869e+00) (23, 1.61157078904054418267e+00) (24, -1.52380266979219669565e+00) (25, -2.99790391352033225303e-01) (26, -1.42532814313244204918e+00) (27, -2.16180946792522893363e-01) (28, 2.47797275783403048166e+00) (29, -1.25776062237744490346e+00) (30, -4.50055745237084414700e-01) (31, -8.94745248182270136450e-02) (32, 4.38673050160304361933e-02) (33, 5.40244024826498220326e-02) (34, -1.73682085963816693064e-02) (35, -1.14196987779668446272e+00) (36, 1.14506149593509065632e+00) (37, 5.43884987665489011421e-03) (38, 1.22396371392578484638e+00) (39, -1.06888587481310515237e+00) (40, 3.88441672358197209736e-01) (41, 1.87187060712205810553e-01) (42, -9.06432651497277475094e-01) (43, 1.47264934446450029837e-01) (44, 2.66198894913444450427e-01) (45, -4.73637585648837011743e-01) (46, 8.74522830862545647035e-02) (47, 2.27312718596088370049e-01) (48, 5.93115527308185688793e-02) (49, 1.82365497005009230547e-01) (50, 2.03829717375814400970e-01) (51, -3.71707978699105032194e-02) (52, -5.27941343115540084874e-01) (53, 6.21292945989492029213e-01) (54, -1.51894373090316636699e+00) (55, 6.95588219454048917179e-01) (56, -4.59342754771452366214e-02) (57, -4.70599583861995643397e-02) (58, 8.50288276192371073048e-02) (59, 4.24577492254132604632e-01) (60, 2.64427508679824063709e-01) (61, 1.14872655789147626315e-01) (62, -1.10952927259472966526e+00) (63, 6.05392659501206353845e-01) (64, 6.93162863839687060086e-01) (65, -5.61739287302217338294e-01) (66, -1.21042348587218767664e-01) (67, 1.37676424704339439575e-01) (68, 2.14600846511393203442e-02) (69, -1.39862860638396063750e-01) (70, -1.87573815849922942434e-01) (71, 2.39770282355066588487e-01) (72, 2.16022057983462051345e-01) (73, -1.08972382452809421483e-01) (74, 1.91432570970511389818e-01) (75, -6.55076865551839360169e-02) (76, -6.29663261845284233376e-02) (77, 1.97000230034326900830e-01) (78, -1.72211635078527214304e-01) (79, -2.76793887832069207544e-01) (80, 2.82160776664489632015e-01) (81, 1.34261810085952698612e-01) (82, -2.65750677170649395042e-02) (83, 5.24196907160048783392e-02) (84, -9.60916113484240478129e-04) (85, -3.18383108877023757177e-01) (86, 1.46738360540372980712e-01) (87, -3.44680877881957184461e-02) (88, -2.32767850122419656111e-02) (89, 1.71003463833193147803e-01) (90, -3.08752387119247892477e-02) (91, 4.07906858694901622991e-03) (92, -1.27492138188359832585e-01) (93, 2.62036058403149640927e-01) (94, 1.38540715369758954401e-01) (95, -2.72006021209150808393e-02) (96, -3.07337886183209452184e-01) (97, 9.41945555185084715255e-01) (98, -2.90517528961880100447e-01) (99, -2.18897323372319790868e-01) (100, -2.21566177823437099326e-01) (101, 8.46560954623832434551e-02) (102, -3.93454013667315360969e-02) (103, 5.81378168862988986554e-01) (104, 7.53394042309175948624e-01) (105, 1.45879791698212163409e-01) (106, -3.46999378189816021223e-01) (107, -2.11287893022034234392e+00) (108, -8.26851247086194535152e-02) (109, 7.15846609322083993199e-01) (110, 1.26462915358050820291e-01) (111, 1.00746527208610880955e-01) (112, 1.61983513910171877948e-01) (113, -3.79919724756937027266e-01) (114, 3.96301239729864862582e-01) (115, -1.91026360434163294810e-01) (116, -6.04780554518167257072e-01) (117, 6.19994392946725647597e-01) (118, -6.63281428268022943406e-01) (119, 1.62788163072654618047e-01) (120, -2.68894728182464237687e-01) (121, 6.50417736111179256575e-01) (122, -2.34287757956391534675e-01) (123, 5.23389243663279546404e-01) (124, 1.09734251985925318484e-01) (125, -1.06001804769282510776e-02) (0, -3.21289112903693552248e-01) (1, -2.32732226423837423868e-01) (2, 2.75613566686312705389e-01) (3, 8.68437640006885819451e-04) (4, 1.36417515161817905905e-02) (5, 2.55598947409975962852e-01) (6, 1.79860569018779004047e-01) (7, -4.53646460139829788005e-01) (8, 4.76494680938813267024e-02) (9, 1.68061287516414470389e-01) (10, 3.33991833337511534463e-01) (11, -4.78062558311803442734e-01) (12, 4.05057156198940282454e-01) (13, 7.08379162918675447935e-02) (14, 2.40343615828205348084e-01) (15, -3.38871920539951632101e-01) (16, 2.13935555179069147869e-01) (17, 8.02206761906142373775e-02) (18, -6.10164062231333237385e-01) (19, 2.15062353842837450379e-01) (20, -2.75134195535235326346e-01) (21, 3.53394995730171579407e-01) (22, 1.02869247913636652214e+00) (23, 1.17131598319769025807e+00) (24, -1.02954438242947454718e+00) (25, -3.45746763551877889231e-01) (26, -9.43307141582805042113e-01) (27, -2.16617382878235981147e-01) (28, 1.51908485257087422227e+00) (29, -7.66716779113079338615e-01) (30, -3.66397954106984169442e-01) (31, -6.28074922230367344023e-02) (32, -8.44531668827409320865e-02) (33, 3.92627782007208825377e-02) (34, 4.89153944725601932952e-02) (35, -5.32189894040829392097e-01) (36, 5.57905442407406471084e-01) (37, -5.80559601345056186528e-02) (38, 1.11730400206409141717e+00) (39, -1.11004088486149288251e+00) (40, 2.26795897477042290857e-01) (41, 1.86838781831797806632e-01) (42, -5.94383375676126202158e-01) (43, 8.96418052255975733589e-02) (44, 1.41208929221293300049e-01) (45, -4.30993442743875021517e-01) (46, 8.14244102033153532849e-02) (47, 3.29562361872493270187e-01) (48, 2.64017077445087913756e-02) (49, 9.26677206392004237934e-02) (50, 7.89788948560256470754e-02) (51, -1.85078772574770150650e-01) (52, -5.16577104666836928182e-01) (53, 5.30230125428079013261e-01) (54, -1.12781917772471285133e+00) (55, 3.71916822647654243816e-01) (56, -5.43365407449981560606e-02) (57, 4.45942232163589399874e-02) (58, 3.10988188698711753855e-02) (59, 3.09125156026992031766e-01) (60, 3.93470552645842575057e-01) (61, -3.28113933202792348864e-02) (62, -7.28717256959078296674e-01) (63, 3.76255124173097699192e-01) (64, 5.08889898986067734654e-01) (65, -7.24392868308276982603e-01) (66, -9.03051810622594181011e-02) (67, 1.22629608264069614454e-01) (68, 4.11083740943881462138e-02) (69, 4.86661907814438174369e-02) (70, -1.54856707075250066286e-01) (71, 1.74629521852570940288e-01) (72, 8.44368718893359765376e-02) (73, -9.18811122491463650244e-04) (74, 1.07154014319082710460e-01) (75, 1.60414101534852415742e-01) (76, -3.19433517337909311795e-01) (77, 3.98157235481379268016e-01) (78, -3.94975120537610011051e-02) (79, -1.07512656651537835684e-01) (80, 1.05741548601441900934e-01) (81, 1.42181706856216699686e-01) (82, -2.10587584846356791479e-02) (83, 1.73465387711100121892e-01) (84, 6.51604825196693340783e-03) (85, -4.90448333241628620094e-01) (86, 5.90350598482376268117e-02) (87, -7.43491182006763978718e-02) (88, 5.05363423111855128433e-02) (89, 1.48574675052615800402e-02) (90, 1.88450741553617601154e-01) (91, -1.74983159026071977138e-01) (92, -2.59482118776783732272e-02) (93, 1.12231405894952215863e-01) (94, 6.56789224628137741080e-02) (95, -5.56188552546330455817e-02) (96, 4.81444977236976448531e-02) (97, 7.42175742303812446821e-01) (98, -1.79232664490238030597e-01) (99, -1.78663934762150339308e-01) (100, -3.84152284653318076835e-01) (101, 8.28932744695733969564e-02) (102, 8.16931118323372396084e-02) (103, 6.25327407800073786781e-01) (104, 7.64057631517688906619e-01) (105, -3.55219671354866997626e-02) (106, -1.63786383234921034679e-01) (107, -1.72369415709962270356e+00) (108, -6.82915694747036200463e-02) (109, 6.14550902232245288559e-01) (110, 8.74399557622685535963e-04) (111, -2.19586572369363519641e-02) (112, 6.99115025780693705171e-02) (113, -9.40504058683516497297e-01) (114, 3.09671157550762188304e-01) (115, -6.33963717156808548303e-02) (116, -2.38967978285590035292e-02) (117, 5.75875893918173065167e-01) (118, -4.85004015012513112204e-01) (119, -3.37710769587280135173e-01) (120, -4.16390258253314216041e-01) (121, 5.39630826748235148393e-01) (122, -1.85629627202116814777e-01) (123, 3.68244085029841350387e-01) (124, 2.11789717544261901772e-01) (125, 3.90153750973581611716e-02) (0, -2.37414239996372705699e-01) (1, -1.29473604528807569730e-02) (2, 5.37651662509386674138e-01) (3, -9.36083156864606774628e-02) (4, 1.35716628523324944755e-01) (5, -3.07727545318141115782e-01) (6, -1.59266990040466321910e-01) (7, 5.65089184205540065453e-02) (8, -2.73514371732647809665e-01) (9, 3.84699217336260501643e-01) (10, 4.01823930417719715757e-02) (11, 3.51691629117718285169e-01) (12, -4.01592227760232955980e-01) (13, 2.38914304272444699695e-01) (14, -4.42040888096590589562e-01) (15, 5.24035285137068207462e-01) (16, -1.21498580049036450368e-01) (17, 7.66042691713909318363e-02) (18, 1.34801442332990156769e-01) (19, -2.31990038099087109158e-01) (20, -2.81137961304762151737e-01) (21, 3.23063273979992571228e-01) (22, -1.10613790729385619294e+00) (23, -1.35257831070797984729e+00) (24, 1.70903713179537786182e+00) (25, 1.74539935627113257377e-01) (26, 1.72813574633190314422e+00) (27, 2.55260647271818075232e-01) (28, -3.12653446578884697260e+00) (29, 1.21119212339555115676e+00) (30, 2.78005577798186520599e-01) (31, -6.12467700412351861300e-03) (32, -5.25528825268578789198e-02) (33, -8.37819831891211536101e-02) (34, -6.03347889756379734960e-02) (35, 1.11844391142564014707e+00) (36, -1.07864049153974694839e+00) (37, 9.18308765341471905375e-02) (38, -1.16011012973113003532e+00) (39, 1.10990934257212003899e+00) (40, -1.44410050892596120153e-01) (41, 5.34431449179472231603e-02) (42, 7.10767333225011288533e-01) (43, -1.37698459736357137206e-01) (44, -2.84173759570107820061e-01) (45, 1.90564503514674798978e-01) (46, 4.49633647370905539797e-02) (47, -4.45477477015429473850e-02) (48, 1.64065410450843579548e-01) (49, -6.25186014706608783609e-02) (50, -1.89965118559054096936e-01) (51, 6.95531262547729040024e-02) (52, 1.91518262048004817011e-01) (53, -1.96683309479162404809e-01) (54, 4.59548775847086865554e-01) (55, -1.58756203328546646736e-01) (56, 7.07738927867098410740e-02) (57, 2.61957517087113622711e-01) (58, -2.77054214321884664796e-02) (59, -3.65045360924256323543e-01) (60, -1.38664359929003055960e-01) (61, 1.22478691537960912572e-01) (62, 1.20534925928760650038e+00) (63, -1.16661274007521043039e+00) (64, -5.24394028061994421641e-01) (65, 9.40009076177807156860e-01) (66, 2.86890704764545423355e-01) (67, -6.49723505406518686556e-01) (68, -3.35965907660965498738e-02) (69, 1.71003786720506728569e-01) (70, 2.55908936641584316973e-01) (71, -2.32926657138137094272e-01) (72, -1.38331974456341405544e-01) (73, 1.21996995363418764269e-01) (74, -1.38456625352311762933e-01) (75, -3.27983069162135487673e-01) (76, 1.94416938141951323171e-01) (77, -2.65135339737069541943e-01) (78, 8.28039360998699403016e-02) (79, 2.15676843154916225709e-01) (80, -1.06635361637042097582e-01) (81, -1.98406093224379576068e-01) (82, 1.42757400378299509347e-01) (83, -1.27660488941352234793e-01) (84, -2.41282388645359863188e-01) (85, 4.28486703775171895447e-01) (86, 4.94919525689774125743e-02) (87, 6.80640458027131078911e-02) (88, -1.28084969319995217729e-01) (89, -1.86719183725484294545e-01) (90, -8.48772682571537900875e-02) (91, 1.79550553429100506753e-01) (92, 2.27613874016994732763e-01) (93, 3.90914500887887594871e-01) (94, -7.32170333854413657448e-01) (95, -4.27892419366425469374e-02) (96, 6.53252049638478715643e-01) (97, -1.07576101352361619412e+00) (98, 2.65023971500750077368e-01) (99, 2.95948505353246127392e-01) (100, -2.08801785824054980667e-01) (101, -7.08961912750630113278e-02) (102, 9.70899183800804088662e-02) (103, -3.59399337457361189863e-01) (104, -1.87004584678884172577e-01) (105, -9.95446594063654627282e-02) (106, 6.80457081207641145681e-01) (107, 3.05655528308380941560e-01) (108, 3.83542304252425664268e-02) (109, -8.25737233937696935016e-01) (110, 6.23214587942378273056e-01) (111, 1.12350069457701727538e-02) (112, -1.63651848167086472197e-01) (113, 5.27800591399062102305e-01) (114, -2.19295685922664906897e-01) (115, 7.00984373737172705709e-01) (116, -1.12399594154913101685e-01) (117, -6.32082858793459267943e-01) (118, -2.00193061680718382978e-02) (119, -3.37224829331620734596e-01) (120, -8.48712220454914817447e-02) (121, -2.78588097528972046535e-02) (122, 5.52353873007285334218e-01) (123, -2.74970198882197203183e-01) (124, 3.58829066266593998957e-01) (125, -6.98066542707779097432e-02) (0, -2.62826594363847421132e-01) (1, -1.52190367184646208054e-01) (2, 1.85551934321449618626e-01) (3, 1.42953904704052406349e-02) (4, 5.00346247893823301012e-03) (5, 1.46844382519157795608e-01) (6, 2.44375421348975802038e-01) (7, -3.21654666697908098172e-01) (8, 2.80848758857168978587e-02) (9, 1.71567969105504897209e-01) (10, 3.34983662016520911120e-01) (11, -3.86509887157964526772e-01) (12, 4.71788469363066786944e-01) (13, 1.32109560629341312582e-02) (14, 2.56803784178934513260e-01) (15, -2.28202993007276144777e-01) (16, 9.22010258581226760377e-02) (17, 1.02353719530166170637e-01) (18, -4.70430528551262994164e-01) (19, -2.65468273428378885581e-02) (20, -1.95879527433041406015e-01) (21, 2.21047364551833880331e-01) (22, 9.83708683045273146739e-01) (23, 1.11255020010387251084e+00) (24, -1.03806902243223952986e+00) (25, -1.67240306453109499607e-01) (26, -8.63750044999391120015e-01) (27, -1.91920499257623722311e-01) (28, 1.09000116200853036652e+00) (29, -6.95971078326675152148e-01) (30, -3.49932679082852471364e-01) (31, -1.26896374758453389653e-02) (32, -9.04483472436420077312e-02) (33, -1.00645723226225926317e-02) (34, -7.44455532088212912356e-02) (35, -5.23930755254124691511e-01) (36, 5.75422654162642488451e-01) (37, -9.26777821805742502148e-02) (38, 1.05182277841317617373e+00) (39, -9.60024076158138894854e-01) (40, 1.99965006023219510345e-01) (41, 1.91315741035100322920e-01) (42, -6.34862032918344421084e-01) (43, 1.98198322745653590649e-02) (44, 7.30456603397265508137e-02) (45, -4.01393876763011581144e-01) (46, 7.09400479571964254211e-02) (47, 2.00714124445655200946e-01) (48, 3.73587570299859089706e-02) (49, 9.56722101309890327059e-02) (50, -3.83361510280051734356e-02) (51, -1.98438122368956859631e-01) (52, -4.63022769939222367253e-01) (53, 6.08668535491253659409e-01) (54, -9.06230396504114632528e-01) (55, 3.16795252594527787515e-01) (56, 6.50850543206193121737e-02) (57, 4.50915535307756451533e-02) (58, 6.50789559271775924776e-02) (59, 3.96558916029674579651e-01) (60, 5.18026016513395748397e-01) (61, -5.88012865864935910243e-02) (62, -6.61988053137625542810e-01) (63, 2.72103717127267774600e-01) (64, 4.14459574961050125630e-01) (65, -6.72716527655526697060e-01) (66, 1.28816862399276400863e-02) (67, 2.60887562806691897244e-01) (68, 4.77306644440550348341e-02) (69, -7.07966248797547992311e-02) (70, -1.47229790800083609748e-01) (71, 1.55411037498691478875e-01) (72, 1.69096941519631865924e-01) (73, -9.96482946177483092098e-02) (74, 2.13186276218799070081e-01) (75, 3.59913995215508306091e-02) (76, -2.87891499312145415779e-01) (77, 4.66758798076370828856e-01) (78, -7.83014550928749081260e-02) (79, -1.95295708710211207704e-01) (80, 2.00697587339917243865e-01) (81, 1.66677155235218144025e-01) (82, -1.38128480307188855614e-01) (83, 8.01607986456619181492e-02) (84, 1.33274957211683611064e-02) (85, -4.06054005987400656874e-01) (86, -4.25944424864783434403e-03) (87, 2.46821118471341055534e-02) (88, -5.16010317789896907903e-02) (89, -1.59017441634369122161e-02) (90, 2.54801089384494194867e-01) (91, -3.80017599891438462301e-01) (92, -1.94236895603066200833e-01) (93, 4.96103364488858639136e-02) (94, 5.25471271790234686905e-02) (95, -4.98074352712546963851e-02) (96, 1.08791141017029226179e-02) (97, 6.63308729076891312459e-01) (98, -2.33308197417425838838e-01) (99, -1.29892831615571746617e-01) (100, -1.79106807819735147635e-01) (101, -3.29212785016190709331e-02) (102, -9.56024232596519862870e-02) (103, 5.71349561894624269343e-01) (104, 6.86800326398992688759e-01) (105, 1.02365438771429076437e-01) (106, -1.23429421161522404060e-01) (107, -1.49534766559532572572e+00) (108, -2.18866299804367364645e-02) (109, 5.60985856990610876061e-01) (110, -1.03035909190866734053e-01) (111, -5.23708129260701607532e-02) (112, 6.68308556641383916253e-02) (113, -8.65587284970368853187e-01) (114, 3.44608727371920831040e-01) (115, -1.09761795241646392673e-01) (116, -2.51599588841755865409e-02) (117, 5.26047170847393052995e-01) (118, -3.04119111632397964851e-01) (119, -3.32514038364718655938e-01) (120, -2.31531031210027438139e-01) (121, 3.90575828851622397497e-01) (122, -1.23935104474395998975e-01) (123, 5.24057287634439372681e-01) (124, 3.09642986447044521459e-01) (125, 6.11695939768995070041e-02) (0, -9.55706203435951612279e-02) (1, 5.78674206131039106649e-02) (2, -1.24680514149728333129e-01) (3, -1.21867357981582491444e-01) (4, -1.17480120122496034529e-01) (5, -5.90759420233423065971e-02) (6, -1.49046808902329047664e-02) (7, -7.46383205277992012316e-02) (8, -2.90349271031666803650e-03) (9, -9.43939025237502948862e-02) (10, -6.02425793176964612455e-04) (11, 3.24028315517708720428e-02) (12, 7.81728991111444171391e-02) (13, -9.19019949509085054551e-02) (14, -2.61373773623780926434e-02) (15, -9.77654102668446683966e-02) (16, -5.61810404153847975373e-03) (17, 2.11553193312872846177e-02) (18, -4.16410250547687016409e-02) (19, -1.11081251290731861103e-01) (20, -9.75336817320072713144e-02) (21, -5.34190994683145375932e-02) (22, 1.47166462787994944961e-01) (23, 3.22178135034150020521e-02) (24, -1.52329404486361646986e-01) (25, 5.40957891993094977523e-02) (26, -8.61703087206362322581e-02) (27, -2.15349846153965289453e-02) (28, 6.96566187872507125434e-02) (29, -1.08950812762074966678e-01) (30, -1.24444310168505753444e-01) (31, -9.54840858021965971369e-02) (32, -5.41821180534678287222e-02) (33, -2.56450596346885995036e-01) (34, -8.37346355801021208221e-03) (35, -2.76745844980712696337e-01) (36, 7.42525280730048755154e-04) (37, -7.59886947607799345672e-02) (38, -6.35178933596983463783e-02) (39, -1.83718144140912531537e-01) (40, 2.55903219869436995837e-02) (41, -3.68907210233627574913e-02) (42, -1.19078358297097300356e-01) (43, -2.47316571101927479281e-02) (44, 3.45788098665823426248e-02) (45, -2.06529789624767014244e-02) (46, -2.63813682373784498883e-03) (47, -8.97512242633387163915e-02) (48, -6.73535232502903841167e-02) (49, -6.53788934922181486087e-02) (50, -1.12576650286778018328e-01) (51, 4.45074414456441344590e-02) (52, -9.60286727196850986576e-02) (53, -1.44472800990894545414e-01) (54, -2.22158573125238401058e-01) (55, 7.99975178525807045782e-02) (56, -9.94400638072202025519e-02) (57, 1.98529626573726927785e-02) (58, -1.95027345903625234924e-02) (59, 1.02606348329821961407e-01) (60, -4.03937467470756317311e-02) (61, -2.13981708109222609759e-02) (62, -2.04332978849432828072e-01) (63, -1.22542813370953879160e-01) (64, 9.48746555047804140948e-02) (65, -5.32826089338295227904e-02) (66, 7.71782507550888580844e-03) (67, -2.26623752497657177107e-01) (68, -5.92593788559731088679e-07) (69, -1.79950668996915787157e-02) (70, -1.15792447208878089039e-03) (71, -7.64357657621347191812e-02) (72, 7.06261439283937392242e-02) (73, 1.45812308483627729727e-02) (74, 1.81825738906833019037e-02) (75, -8.26968692061944149474e-02) (76, -3.89712781494847421149e-02) (77, -7.56890371047502508173e-02) (78, 3.17592932979738548638e-02) (79, 1.85555952397028139445e-04) (80, -7.78007259237039755506e-02) (81, 8.48952387758209747748e-02) (82, -4.10643126921922119177e-02) (83, -7.80849889789210493962e-02) (84, -2.04695442405565947164e-01) (85, -1.14315358104149144766e-03) (86, -1.36072832239630070461e-01) (87, -8.58600948692872234513e-02) (88, -9.93857421889338468746e-03) (89, -1.51770794003780670756e-02) (90, -1.09214059980148853191e-01) (91, 2.60599929435748750572e-02) (92, 5.73826809431750572976e-02) (93, -8.15660284892286008285e-02) (94, -8.96302779439418217944e-02) (95, 2.84592895352734492898e-02) (96, -6.48620946429652039944e-02) (97, -3.28191517658736747753e-02) (98, 2.99989768511316375055e-02) (99, -1.04550570984368387806e-01) (100, -1.66657257428909438834e-01) (101, -1.69854687263886403037e-02) (102, -5.41074230016383855846e-02) (103, -3.57065414539242051428e-02) (104, -5.09860549089950210178e-02) (105, 5.40147544820856403969e-02) (106, -1.39705936084518755891e-01) (107, -5.98509428104732135734e-02) (108, 6.82453315119170983438e-02) (109, 9.08884665124650298340e-02) (110, -1.17574386036079295281e-01) (111, -1.03461950054001869392e-01) (112, 7.10716960346241960478e-02) (113, -1.71745382613041272513e-02) (114, -5.83673806268768038952e-02) (115, 3.18704202295692837210e-02) (116, -1.75068578308866601434e-01) (117, -8.27268533455356169792e-02) (118, 1.09851611947451850530e-03) (119, 4.74993642876525706820e-02) (120, -1.68853578439818012569e-02) (121, 9.03325803245327851876e-02) (122, 2.98892450054520381758e-03) (123, 1.05760415098152369025e-03) (124, -2.21301442806791960616e-02) (125, -1.47174782923849167826e-01) (0, 6.80515045966690983181e-03) (1, 5.21207920461111140487e-02) (2, -2.55669689259170163087e-01) (3, 4.34231768622888036901e-02) (4, -1.29382652832480508909e-02) (5, -5.32951053703555541197e-02) (6, -1.84610472761828126043e-01) (7, 1.87476680366257558719e-01) (8, 9.92075454313170734810e-02) (9, -8.11302968357051346171e-02) (10, -2.46074848528202910769e-01) (11, 3.79728612559172493124e-02) (12, -2.21870702810329278876e-01) (13, -9.88179785470418570181e-02) (14, -1.84292182586822984869e-02) (15, 1.36152528867021199721e-01) (16, -1.08062825987027391617e-01) (17, 2.46879024235130244136e-02) (18, 2.42629233981775604967e-01) (19, -3.62599702019823708077e-02) (20, 1.19525926631876389106e-01) (21, -1.47906583831729249168e-01) (22, -3.73065379398622831708e-01) (23, -4.14291344302526676202e-01) (24, 3.69711479468204040622e-01) (25, -1.49302098557791486670e-04) (26, 2.56130042721141371054e-01) (27, 2.16382787110416321963e-02) (28, -4.24972452814657120079e-01) (29, 1.34413686482665467592e-01) (30, 7.38298953414465303213e-02) (31, -3.40579183522618234026e-02) (32, -2.12979068427966017341e-02) (33, -5.91904703460369857604e-02) (34, -2.98325811301556331756e-02) (35, 1.47948729203799533849e-01) (36, -6.60494991740041698103e-02) (37, 2.81418099536271323902e-02) (38, -4.09781776322188429074e-01) (39, 4.10004660188887815053e-01) (40, -1.17999596682315549545e-01) (41, -6.48737312102647123435e-02) (42, 3.10933716654195613227e-01) (43, -4.98910020241126878071e-02) (44, -9.54080499907962176209e-02) (45, 1.80987583476868052479e-01) (46, -9.63326224223238769540e-02) (47, -1.72355760675686503491e-01) (48, -3.80374857105981248329e-02) (49, -4.13154010894540013599e-02) (50, 1.18703845047389480033e-03) (51, 8.72897659900723210669e-02) (52, 1.48415543571825098157e-01) (53, -3.32220938317149994123e-01) (54, 2.95577351305623958755e-01) (55, -1.36461503613953510916e-01) (56, -6.46437784976330032105e-02) (57, -8.89579715117506109046e-02) (58, -1.61506165362986370271e-02) (59, -1.10629452281237966593e-01) (60, -2.25968692026531386974e-01) (61, 1.29856786448468430883e-01) (62, 1.39442053288572676006e-01) (63, -1.12417955618608830792e-01) (64, -3.02663877692244176476e-01) (65, 2.14435129345310643290e-01) (66, 2.59477425483127174810e-04) (67, -1.13861660834536429499e-01) (68, -1.10398689034384295260e-01) (69, 1.23795457235607461732e-01) (70, -4.01320614264450981068e-02) (71, -1.08172966700736922219e-01) (72, -4.91984402068709834183e-03) (73, -6.20177709027901966077e-02) (74, 8.10326033160744911565e-03) (75, -4.35015226054439943515e-02) (76, 1.92365658223624308443e-01) (77, -1.37465635258301271948e-01) (78, -6.42044378431014528541e-02) (79, -3.25045855854373400007e-02) (80, -8.33020709617462856711e-02) (81, -2.22962734015574037816e-02) (82, 1.04138477656368966251e-01) (83, 1.82306331953391402567e-02) (84, 1.11695311424058488226e-01) (85, 7.39349849063481029399e-02) (86, -2.39568467785679709015e-02) (87, 9.92675728055472939015e-02) (88, -6.31666540510993079760e-02) (89, -1.00054001424998581515e-01) (90, -1.24381851040201371617e-01) (91, 1.69357074860350814705e-01) (92, 1.24685298279082881767e-01) (93, -2.50248857002987913634e-02) (94, -5.45417716121640236415e-02) (95, -7.61763605464452486782e-02) (96, -9.29503768811949793172e-02) (97, -3.69006926719093519829e-01) (98, 3.65402126127257129151e-02) (99, -2.16754038274331976843e-02) (100, 1.97287178792507761349e-01) (101, -2.22315812070903312536e-02) (102, -1.86271260474193955936e-03) (103, -1.70380427387012756135e-01) (104, -2.73997872940473619074e-01) (105, -6.45159354842752691406e-02) (106, 1.71768747122569356844e-02) (107, 5.61509589561563604576e-01) (108, -5.60906584638313013280e-02) (109, -2.20295814212647739216e-01) (110, 4.07326108564579972282e-02) (111, 1.21232446279239385739e-02) (112, -8.60186631107132948504e-02) (113, 4.10552227334440633655e-01) (114, -1.25555444113891967461e-01) (115, -1.48820453162500060396e-01) (116, -1.79036553834770711946e-01) (117, -2.62943418195052680542e-01) (118, 4.01321966861040435592e-02) (119, 2.41459516032580923106e-01) (120, 1.30653162020503005314e-01) (121, -1.79237168083013265196e-01) (122, -2.86170368940670133417e-02) (123, -2.24152925740509739727e-01) (124, -2.67527582580253331379e-01) (125, -1.68845652082485128687e-02) (0, 4.61558167094548461168e-03) (1, 8.76930818875133466506e-02) (2, 1.52587715666273326942e-01) (3, -6.83030196289278052069e-02) (4, 8.78089978003142868079e-02) (5, -1.19671996775363595478e-01) (6, -1.96847058059374274697e-01) (7, 7.77506969206900183655e-02) (8, -1.20913232496242931124e-01) (9, 8.71277153365099116256e-02) (10, -1.47697115941576390119e-01) (11, 1.71894352237744435508e-01) (12, -2.91581873822168824439e-01) (13, 1.43231853316380330909e-01) (14, -2.38502497905538096701e-01) (15, 2.46040338800700669752e-01) (16, -1.83624447478102026388e-01) (17, 8.07548692344643714858e-02) (18, 1.62680439438543378294e-01) (19, 2.60151579403248116307e-02) (20, -4.20104679272054054584e-02) (21, 1.59458681683841890786e-01) (22, -7.07408218655143583575e-01) (23, -8.04800449505994830446e-01) (24, 9.33518464176098849983e-01) (25, 1.90313816681671077458e-01) (26, 1.01977660700837713392e+00) (27, 1.53840849075718461014e-01) (28, -1.68956508879668576562e+00) (29, 7.62408569159514937219e-01) (30, 2.39543888255820236477e-01) (31, 3.58137835806353194146e-02) (32, -6.69812879261566240796e-02) (33, -1.58583185649513458415e-02) (34, -1.18936804032874141046e-02) (35, 7.31775691687100104943e-01) (36, -5.59923534482635765208e-01) (37, -7.43252506379075278398e-03) (38, -7.14592471375250948284e-01) (39, 8.13186858868283457547e-01) (40, -2.82787746853561880456e-02) (41, -8.93080565332051851124e-02) (42, 5.75417104835604487079e-01) (43, -5.57160865478339845103e-02) (44, -2.88525686502112077569e-01) (45, 7.35960019736732612428e-02) (46, 9.80274414027750180811e-03) (47, -2.43966849755443887515e-01) (48, 1.01999297165221811112e-01) (49, -1.62377471918501048442e-01) (50, -1.60415197899389683212e-01) (51, 1.03455223358632636410e-01) (52, 2.35006878961247861470e-01) (53, -2.35029005988808048500e-01) (54, 3.71101463147958166022e-01) (55, -9.42459618669617832376e-02) (56, -4.10026251860354032375e-02) (57, 9.64139955648554425327e-02) (58, 4.92815372427036837988e-02) (59, -2.90671355385109908553e-01) (60, -2.50099650320318500629e-01) (61, 8.97025179178722598117e-02) (62, 7.92759622365296623414e-01) (63, -6.45604773823496458363e-01) (64, -4.83435346099129137354e-01) (65, 7.71022630783036344582e-01) (66, 1.03172714934737230763e-01) (67, -3.66138343752728856462e-01) (68, -5.90455548755138212580e-02) (69, 3.72987119254973645277e-02) (70, 1.70252740527373630508e-01) (71, -1.41266064606376556823e-01) (72, -7.29948055194504091814e-02) (73, 9.12793695722549786042e-02) (74, -1.99283126440434915638e-01) (75, -1.93191177524749096994e-01) (76, 2.36520876637143051546e-01) (77, -2.79172334425676738068e-01) (78, 9.51150298542338679120e-03) (79, 2.18404598371396418965e-01) (80, -7.85091470693997928176e-02) (81, -1.65034900134076817357e-01) (82, 9.37126598216184714119e-02) (83, -1.04874490719750988743e-02) (84, -1.51489032922865168862e-01) (85, 5.23882236934569478493e-01) (86, 8.18706559905334058103e-02) (87, 2.38994250841353048087e-02) (88, -2.78335237660484041688e-02) (89, -6.83950356355084859716e-02) (90, -1.86568192072880362220e-01) (91, 2.07748336190436339033e-01) (92, 1.64258155747267931002e-01) (93, 3.35577363463869127180e-01) (94, -3.19398246263465912520e-01) (95, 9.70615402357509482467e-02) (96, 5.30011152662862472518e-01) (97, -7.49844485303433061496e-01) (98, 1.45415482260400935610e-01) (99, 1.07214266663645696465e-01) (100, -7.58835156865931836911e-02) (101, 8.85120758937608387296e-02) (102, 5.49294086907715778390e-02) (103, -3.90744915391929348303e-01) (104, -3.55945818299611360658e-01) (105, -6.76307936557058678867e-03) (106, 3.73268797482409486754e-01) (107, 5.26644192186463078187e-01) (108, -3.86394448084222043999e-03) (109, -5.99037308866809725671e-01) (110, 3.46576551072836414047e-01) (111, -6.07887844786791503582e-02) (112, -1.17876486671458835520e-01) (113, 6.22868960613259026182e-01) (114, -2.77647337240167269012e-01) (115, 2.45212343893102951986e-01) (116, -6.24217913774998481302e-02) (117, -3.73925908527182271346e-01) (118, 2.80025480568459744779e-02) (119, -1.53973453145715283297e-01) (120, 7.15656468021972774762e-02) (121, -1.36859756241126173659e-01) (122, 1.72187353138093773852e-01) (123, -2.90476521186095182347e-01) (124, 4.22422293892116204606e-02) (125, 8.61632615924196182400e-02) (0, -1.28130255934246095606e-01) (1, -9.57278117666841323052e-03) (2, 1.50841325019250988015e-02) (3, -9.43200682252567368380e-02) (4, 3.53795726718186265281e-02) (5, -7.91324750295739100248e-03) (6, -9.37507802496536091219e-02) (7, 2.00940442632171339943e-02) (8, -5.04518492405151702807e-02) (9, -1.02774171740985686974e-01) (10, -9.01722539879704076959e-02) (11, -1.52718893180658673442e-02) (12, 3.20065750192509435035e-02) (13, 5.24746616478631855429e-02) (14, 2.96743422575132566321e-02) (15, 5.97322483075721499812e-02) (16, -2.64126972554798965243e-02) (17, 8.30966508821088523096e-02) (18, -2.90203362623648250529e-02) (19, -3.94781227707974302632e-02) (20, -1.11142877796335567964e-01) (21, -1.51133080234328476266e-01) (22, -2.19409653723913189438e-02) (23, 7.36488239215095513712e-02) (24, -8.97157836697815569416e-02) (25, 6.05300455199625671299e-03) (26, -9.74123913481222264421e-02) (27, -3.94178043692177265678e-02) (28, -3.88157695462780028342e-03) (29, 2.50254473485158543400e-02) (30, -9.39031272881212242254e-02) (31, 2.62116358719186211268e-02) (32, -2.80333962743490316960e-02) (33, -2.54403243989668015335e-01) (34, 9.78305569526635998567e-02) (35, -2.49615771580385614747e-01) (36, 6.94037286779588830782e-03) (37, -5.77751795057233966113e-02) (38, -8.03393237714597127641e-03) (39, -1.83706046952015589202e-01) (40, 1.67675729720892820185e-02) (41, -6.83374158995538882877e-02) (42, -1.07601823481796744081e-02) (43, -6.58090585362181013096e-02) (44, -7.07852522872609024596e-02) (45, -5.75799230057511685077e-02) (46, -1.03536400130971595335e-01) (47, -4.04744882326192427502e-03) (48, -6.03645163238400103700e-02) (49, 3.23175742226452997197e-02) (50, 2.59845388262540423485e-02) (51, 2.82740580118756336392e-02) (52, -7.30264852224761368271e-02) (53, -1.33501951147002029252e-01) (54, -1.23282965978204692159e-01) (55, 8.15309275127700655572e-02) (56, 5.49575225257504240695e-02) (57, 3.38930939672517708705e-02) (58, -3.75593018726900415571e-02) (59, -4.71978902724647054676e-04) (60, 3.87202029203311884342e-02) (61, -1.92094846417167446073e-02) (62, -1.28951016682069596886e-01) (63, -1.96006611297928984294e-01) (64, 3.34259284907842332824e-02) (65, -1.08095921338653977450e-01) (66, -8.43885630880153170263e-02) (67, -2.13494538942559375361e-01) (68, -3.63591332417770862762e-02) (69, -7.22428834052797341769e-02) (70, -6.27874746316985643535e-02) (71, 6.80733473943901656877e-02) (72, -3.10592766666869558867e-02) (73, 4.38982361137293247699e-02) (74, -7.86659327054942680846e-02) (75, -7.81981431822613010096e-02) (76, -7.11655060341373074673e-02) (77, -7.02969818127659185070e-02) (78, -8.57681404089056104167e-02) (79, -2.02149681320727171718e-02) (80, 3.46861119758911165545e-02) (81, -9.48615934709516328560e-02) (82, -9.56605398642666610032e-02) (83, 3.43914895841764814075e-03) (84, -1.54074543533154112440e-01) (85, -3.54577493976341922774e-03) (86, -1.97133698523897754606e-01) (87, -9.83369966721086979922e-02) (88, -2.34143806582078756184e-02) (89, 5.65560728709966348271e-02) (90, -1.69922793926625931293e-01) (91, -8.81646022451698097022e-02) (92, -6.01097281021529677991e-02) (93, -1.31054625511626166023e-01) (94, -8.15543940302319303459e-02) (95, 6.17507100924955185106e-02) (96, 1.04277583507732056999e-03) (97, 3.00467679157378937671e-02) (98, 6.29216142466097194674e-02) (99, -8.84934985513706889870e-02) (100, -1.10591589165644516024e-01) (101, -7.54535007358118903209e-02) (102, 9.99837268141467172544e-02) (103, -1.15454753717855337913e-01) (104, -9.95000030684449338070e-02) (105, -8.43157924615536846780e-02) (106, -5.19055747906590949498e-03) (107, -1.05070938019658832729e-01) (108, -6.20768055018472708628e-02) (109, 7.48374674855521587746e-02) (110, -1.38546013021245313646e-02) (111, 7.43516559345455546604e-02) (112, 8.23077323448607733880e-02) (113, 3.27640491150420973265e-02) (114, -7.61926525927103612951e-03) (115, -1.19292395382373309087e-01) (116, -1.12471401304117799014e-01) (117, 6.89844892329127684638e-02) (118, -1.40888359028800952411e-01) (119, 5.92994166945145506631e-02) (120, 1.41194978147908545285e-02) (121, 1.89409831962003560868e-02) (122, -1.10078725048142755938e-01) (123, 9.05891432471399721260e-02) (124, -1.35292146759616094265e-01) (125, -2.19645182401966204688e-01) (0, 1.77370158661011551038e-01) (1, 1.85076671883407373187e-01) (2, -2.43902505709371081322e-01) (3, 1.52667904869105783977e-02) (4, -1.02123678625066480197e-01) (5, -3.52763145436683009382e-02) (6, -1.07362271978073520184e-01) (7, 1.03982692289530068153e-01) (8, 5.54734413440892155239e-03) (9, -1.12216444871177503662e-01) (10, -3.59500794962043901393e-01) (11, 8.55877563057864526597e-02) (12, -2.47768996985747003148e-01) (13, -1.04334301113937488736e-01) (14, -1.46648165366950772315e-01) (15, 1.09515548934170980910e-01) (16, -1.08365949955925980341e-01) (17, 4.03091711158441723395e-02) (18, 3.92298277034197118152e-01) (19, -1.74528059517472557138e-02) (20, 3.18435491999590480905e-01) (21, -4.06560810472697209406e-01) (22, -3.72086820574212051582e-01) (23, -4.46567453332054498105e-01) (24, 1.61512222999680654656e-01) (25, -1.51341248030224320709e-02) (26, 2.38537351205410114163e-01) (27, -1.52077851190624540462e-02) (28, -1.96623881934229111090e-01) (29, 1.89941613713917850648e-01) (30, 8.21173188264999603936e-02) (31, 2.28915638939391138940e-02) (32, 3.22394022865504295550e-02) (33, -9.25570170136415515394e-02) (34, -2.92974033102006148344e-02) (35, -4.34660624688625041312e-02) (36, -1.38818647905280839749e-01) (37, -8.49541833244887301113e-02) (38, -3.29506126078360161991e-01) (39, 2.62346854686844987992e-01) (40, 1.32738979896846777395e-02) (41, -8.44935097576012678067e-02) (42, 1.84708257106701079220e-01) (43, 3.92499186116404413793e-02) (44, -8.25135027267133447371e-02) (45, 2.08510029485739462052e-01) (46, 3.15772881146389114426e-02) (47, -1.85991254793529126044e-01) (48, 1.00215159268965264827e-02) (49, -5.39459810457795577165e-02) (50, 1.00812688398518854327e-01) (51, 5.76843632643208939492e-02) (52, 2.12935189181851447504e-01) (53, -3.31974152213352635687e-01) (54, 5.20765190219660056847e-01) (55, 1.35630439990355872171e-02) (56, -6.27415273374546528240e-03) (57, -9.64255677992071208449e-02) (58, -5.67764832716656092648e-02) (59, -1.04789360167527947909e-01) (60, -2.79598667995150818033e-01) (61, 1.55767605942892906068e-01) (62, 1.12431108605448113608e-02) (63, -3.15361499049335719524e-02) (64, -1.76832917127071831409e-01) (65, 2.00968676677575924794e-01) (66, -1.10743646718744329083e-01) (67, -7.00349255961927597003e-02) (68, -1.10390250170262476520e-02) (69, -7.33843473370631854680e-02) (70, -6.36128619380512960735e-02) (71, -3.65706623179217205077e-02) (72, 1.65917289639044319982e-02) (73, 6.54864234206892076307e-02) (74, -6.01620629727960543054e-02) (75, -2.60429202081278107772e-02) (76, 1.85392089443564278550e-01) (77, -3.10947028547617521088e-01) (78, -8.84309633524804211691e-02) (79, 9.66897501171192462477e-03) (80, -1.47025405755017123111e-02) (81, 2.38306259148183367802e-02) (82, -9.60448114075130449097e-02) (83, -4.33932142966991299393e-02) (84, 1.08641795501138727076e-02) (85, 2.23380559449119275861e-01) (86, -1.55333555092314029578e-01) (87, 2.42329332863231439177e-02) (88, -1.09296181009055692890e-01) (89, -7.64991721388998385106e-03) (90, -2.92584495463240279456e-01) (91, 6.13251557473400432663e-02) (92, 1.08085047300145575128e-02) (93, -1.51994205832941986500e-01) (94, 5.10734178081995587872e-02) (95, 6.64392328476791360625e-02) (96, -2.55050725299100000676e-01) (97, -2.77129711989370197678e-01) (98, -1.29051337037374407729e-02) (99, 7.06014590712317480214e-02) (100, 1.52316899179000431186e-01) (101, -3.15846282107327541722e-02) (102, -4.16128851154876425178e-02) (103, -3.20762323442974839338e-01) (104, -3.45553971694560313477e-01) (105, 4.07966930388166046373e-02) (106, 6.17167557239679046011e-02) (107, 8.45223176119897057212e-01) (108, -9.83120459555706371901e-02) (109, -1.31286515391648067608e-01) (110, -1.03478075194645302570e-01) (111, 2.99482890831263177944e-02) (112, 3.29536596125973718641e-02) (113, 4.98281749801951556744e-01) (114, -1.65590370465119235410e-01) (115, -6.82205044613333894121e-02) (116, -2.44179323505333695232e-01) (117, -1.60830269538933506857e-01) (118, 1.85140293654983550953e-01) (119, 3.14838314890739601193e-01) (120, 1.21310348208831714212e-01) (121, -2.83893853080456559645e-01) (122, 3.32742029794847002811e-04) (123, -2.03152672091472558114e-01) (124, -4.39203395360762582911e-01) (125, -1.71995843797756925442e-01) (0, -2.05338443287586519537e-01) (1, -2.04101292461066008421e-01) (2, 1.94419648719645371537e-01) (3, 1.05768159983074122588e-02) (4, 4.52496396830653208054e-02) (5, 2.02512566358265561073e-01) (6, 6.71509396457286994453e-02) (7, -3.46828864990949836677e-01) (8, -2.81450011481800769358e-03) (9, 1.25524767643877294132e-01) (10, 2.81916186184604122822e-01) (11, -3.10249428828045015205e-01) (12, 2.90142136407783968188e-01) (13, 1.18993297153812099820e-01) (14, 1.43492730006113539121e-01) (15, -1.86182381093139975858e-01) (16, 1.53630050924193017892e-01) (17, 6.30134039923676975148e-02) (18, -4.79437668675767036941e-01) (19, 1.06008323452512556728e-01) (20, -2.59350492698168844097e-01) (21, 1.76688494497340115030e-01) (22, 7.82374444347489705898e-01) (23, 8.67272275448790930241e-01) (24, -7.15908368935867511773e-01) (25, -1.94657219795032199183e-01) (26, -7.38943741825779265575e-01) (27, -1.58498817784556739197e-01) (28, 8.57449388616684626818e-01) (29, -6.26931014502526862131e-01) (30, -2.46970005005418907773e-01) (31, -1.37006978647658309543e-03) (32, -2.07788712647389017807e-02) (33, 8.83560965045016716291e-02) (34, -6.93427209830689422754e-02) (35, -4.56772967146474972999e-01) (36, 4.35311315817115573878e-01) (37, -6.81352272538129355439e-02) (38, 7.98870126357555165875e-01) (39, -8.40048058027562993821e-01) (40, 1.76007201382063910300e-01) (41, 1.25631346339576205340e-01) (42, -5.68918076130615180119e-01) (43, 1.11280396660295918809e-01) (44, 1.09503254799995491248e-02) (45, -2.48261964130511714188e-01) (46, -3.85646021322817167398e-02) (47, 2.34624913334452622760e-01) (48, 1.22563505132262620667e-01) (49, 8.56309016277599227562e-02) (50, 3.58438404321036740985e-02) (51, -1.92201864207598827061e-01) (52, -3.96355487319168642291e-01) (53, 3.88837360763133410568e-01) (54, -7.09402932768204430580e-01) (55, 1.87762117024379920904e-01) (56, 3.34273079734639447236e-02) (57, 1.41286835101172986162e-01) (58, 2.62339780291017538039e-02) (59, 3.21457159774329481738e-01) (60, 3.15913075646221785941e-01) (61, -2.22879418561669623289e-01) (62, -5.70357523778478259224e-01) (63, 3.38038819220901787244e-01) (64, 5.09916966658624737363e-01) (65, -5.46996597096348846634e-01) (66, 3.48283132410965798331e-02) (67, 1.68448127425469551532e-01) (68, 5.90881984579005037350e-02) (69, -8.97752111053032458843e-02) (70, 6.09653603629401255604e-03) (71, 2.02016040741915592349e-01) (72, 4.65133280025945075598e-02) (73, -1.58960671301097422603e-01) (74, 1.50350864873167733293e-01) (75, 1.18680306742302191236e-01) (76, -2.21185090463484473888e-01) (77, 4.61926784936181944463e-01) (78, -9.83887500535960135561e-02) (79, -7.21185848375315019521e-02) (80, 7.50286829381659331473e-02) (81, -2.72110015431168729416e-02) (82, -1.90191287575331956228e-02) (83, -1.26721644445920555294e-02) (84, -1.25508527092727029117e-01) (85, -4.08487506238195796637e-01) (86, 2.43603307648692854470e-02) (87, 6.57479736506636769366e-02) (88, -3.47063907209769137441e-02) (89, -9.90404266022667893743e-03) (90, 2.23163964227657218853e-01) (91, -2.49096128086041090910e-01) (92, -1.39981285588399562148e-01) (93, 9.01980432749416166649e-02) (94, 2.11200129674970274452e-02) (95, -6.73101027281597513729e-02) (96, -1.06654608463029196286e-01) (97, 4.32444498106164920692e-01) (98, -9.53745371559648474902e-02) (99, -1.89928919800918388772e-02) (100, -2.60001055856930951560e-01) (101, 3.58430324806724778797e-02) (102, 6.39343708967323592907e-02) (103, 4.61633970868777387953e-01) (104, 5.82752686769812178191e-01) (105, 2.31975542068980633559e-02) (106, -1.78802364425604376486e-01) (107, -1.21663942424720494806e+00) (108, -2.17396605112595633913e-02) (109, 4.65348196326732188588e-01) (110, -3.62982385330014103997e-02) (111, 3.33693363897755446157e-02) (112, 1.16987249083785035952e-01) (113, -7.31567493121517808952e-01) (114, 2.95718174128287880631e-01) (115, 7.47963244844651875542e-02) (116, 1.04370866662589489859e-01) (117, 3.24279993845240532835e-01) (118, -2.45628525385504781209e-01) (119, -3.63625143861440569548e-01) (120, -2.68124912370033552378e-01) (121, 3.04464436093728474386e-01) (122, -3.96442668251758972842e-02) (123, 3.82000571495945795419e-01) (124, 1.23933063882774169295e-01) (125, 9.15316335516560136698e-02) (0, 1.77736529002070098304e-01) (1, 4.78627355899213652313e-02) (2, -6.10580628484434229097e-02) (3, 1.68486388219249959286e-02) (4, -6.41666702888930712279e-02) (5, -1.07203322309481610675e-01) (6, -1.40555690568304914034e-01) (7, 4.86395033926558806314e-02) (8, 9.40663039310497550716e-02) (9, 3.93922457727564727381e-03) (10, -2.06374189728894180673e-01) (11, 1.07360675850472611637e-01) (12, -2.05290216597117131103e-01) (13, 4.29495132694171014021e-02) (14, -3.69709219088503598938e-02) (15, 9.71831826954321770229e-02) (16, -9.50480041247870888199e-02) (17, -2.10881432724970771520e-02) (18, 3.09426795546114685731e-01) (19, -7.10906676273947435440e-02) (20, 8.80405233590353386575e-02) (21, -1.05910837325540227449e-01) (22, -4.14508909539767045338e-01) (23, -3.34846213372202161640e-01) (24, 4.71083982841803083907e-01) (25, 1.58277263844570692530e-01) (26, 2.86343056111813432096e-01) (27, 8.96390873662142040335e-02) (28, -4.57141835435676158195e-01) (29, 1.38909618619719454902e-01) (30, 1.12752817960007661879e-01) (31, -6.21610783562719995676e-02) (32, 2.44922026916176427402e-03) (33, 4.56061745671593101598e-03) (34, 7.20610295915756898788e-02) (35, 2.04726215699169239448e-01) (36, -1.27542041575926273778e-01) (37, -8.03111675055498824838e-02) (38, -3.04188040667277947993e-01) (39, 3.77662430212587718614e-01) (40, -1.60485314743084223066e-01) (41, -1.84748401696679859230e-01) (42, 1.26122421424132186152e-01) (43, -6.52963381915256380061e-02) (44, 9.33994068288389739374e-02) (45, 2.08529513402868210692e-01) (46, 2.70451180043875284709e-02) (47, -1.67966113446702841605e-01) (48, -5.12865106163675546491e-02) (49, -8.88944713118006504815e-03) (50, -2.85733851726681746530e-02) (51, 4.53746913440546614793e-02) (52, 2.24593469104189119578e-01) (53, -2.10073161656053164492e-01) (54, 4.26211955953226695470e-01) (55, -3.22139761959026882376e-02) (56, -3.47772664916107948629e-03) (57, -7.53734002559025562107e-02) (58, -6.42064095729054373773e-02) (59, -3.97039595195549446793e-02) (60, -1.65993073012048242276e-01) (61, 1.26750572707729686206e-01) (62, 1.93348896351185295384e-01) (63, -2.38705802022426749609e-01) (64, -2.93330882649712076926e-01) (65, 2.02121065173464231624e-01) (66, 4.47928308535465308227e-02) (67, -1.04468228352482025989e-01) (68, -9.35817913027203601706e-02) (69, 3.96538665894011765900e-02) (70, 1.46737265944355321778e-01) (71, -1.04496942533631897998e-01) (72, -2.20814770981914570980e-02) (73, 1.21471900883716718567e-01) (74, -1.93718585632052936463e-02) (75, -5.47944023821637302141e-02) (76, 2.03792976656297170068e-01) (77, -2.27141508543550668664e-01) (78, 1.20582100451652199369e-01) (79, -2.99923750048588337591e-02) (80, -1.53797875611306672505e-01) (81, -9.97506905707844504505e-02) (82, 4.33943516176344204482e-02) (83, -1.72703255361955041207e-04) (84, -5.20398601694985404875e-02) (85, 2.80398989360575945362e-01) (86, -1.00778778586892672764e-01) (87, -1.66852644337008026998e-03) (88, -4.86979883966572324461e-02) (89, -6.69514298503807031571e-02) (90, -1.25752113768707929342e-01) (91, 4.20470466701193257286e-02) (92, -2.94504680998051680818e-02) (93, -1.44502624974344583836e-02) (94, -1.10518012151317387981e-01) (95, -1.97615081595109085000e-02) (96, 5.95497392008667858487e-02) (97, -2.22290347808619059844e-01) (98, 1.03211053773163335956e-01) (99, 1.47744847368436377222e-01) (100, 1.27765333575923401010e-01) (101, 3.94618414634740483082e-03) (102, -5.42700698304186615606e-02) (103, -2.96442403720454217275e-01) (104, -2.48625387963189115048e-01) (105, 5.57612706809570146671e-02) (106, 9.34063177231889835150e-02) (107, 6.06543600789133718898e-01) (108, -3.42130495054202912741e-02) (109, -1.93507874548062341891e-01) (110, 4.36769437483801245548e-02) (111, -2.92048656532023810650e-02) (112, -1.30039536870307059768e-01) (113, 5.44620779979505087454e-01) (114, -1.90756085109973078096e-01) (115, -1.70740263405722292323e-01) (116, 1.84087049012877958243e-02) (117, -2.33312210853102885988e-01) (118, 1.29408892126225499863e-01) (119, 1.38944095698252945148e-01) (120, 1.99383211154471273741e-01) (121, -9.29563384011088955639e-02) (122, 1.84447487969192610094e-03) (123, -1.30988545326726796292e-01) (124, -1.77204505417267427214e-01) (125, -3.97354543802228357685e-02) (0, 2.66181526785370069221e-02) (1, 6.35809261008898202183e-02) (2, -1.50693904847851084527e-01) (3, 2.60587761156881488056e-02) (4, -1.52718221765815141688e-02) (5, -1.22037563017603754335e-03) (6, -1.87500296382216102842e-01) (7, 1.81474551429369052036e-01) (8, -8.46810970594758100072e-02) (9, -1.54833314334987537375e-02) (10, -1.82020052199621668043e-01) (11, 2.46978261972912865874e-01) (12, -1.07365295940946917086e-01) (13, 6.04061328519224713385e-02) (14, -9.41850281151794810341e-02) (15, 1.18501029988165196283e-01) (16, -1.12478122953144188401e-01) (17, 1.61729322222222242356e-02) (18, 2.31713051223050636729e-01) (19, -1.44782445811710343969e-02) (20, 1.29772615794445822512e-01) (21, -1.57201701826225087588e-01) (22, -4.04494248644390486103e-01) (23, -5.36293080054054738248e-01) (24, 4.58637000336307554260e-01) (25, 9.58422604386056364856e-02) (26, 3.55682016668981471064e-01) (27, 1.51203208462317856275e-01) (28, -6.67289877203778969417e-01) (29, 2.99614616493815877352e-01) (30, 1.07334901855912767665e-01) (31, -8.81459818800540556571e-02) (32, 9.89115133719371542043e-02) (33, 7.37982587935832184955e-02) (34, 5.61138152124556061073e-02) (35, 1.99813795744622407780e-01) (36, -1.94770923955420172113e-01) (37, 8.97380200548174855602e-02) (38, -3.40600808305892177597e-01) (39, 4.73146537094771557630e-01) (40, -5.37237670610829984308e-02) (41, -1.33404737041890569804e-01) (42, 3.07417488333887156671e-01) (43, -2.85323192042818037095e-02) (44, -7.07555600866338063604e-02) (45, 8.00216566937323597886e-02) (46, -1.19538883388667124819e-01) (47, -1.30705176646879694946e-01) (48, 3.80220053221480211447e-02) (49, -7.84380371627503292231e-02) (50, -9.91491283879727680617e-02) (51, 1.29022482732320479398e-02) (52, 2.71734587092280654996e-01) (53, -1.86294083529017634460e-01) (54, 4.42660836609881203074e-01) (55, -9.31790859137446997318e-02) (56, -7.81900540469594729220e-02) (57, -7.06716960359954349258e-02) (58, -5.04936680271277915644e-02) (59, -2.15977736709397932779e-01) (60, -3.01636347379940772395e-01) (61, 1.15468514543573083642e-01) (62, 2.62790934664477671134e-01) (63, -2.90657159005803411578e-01) (64, -2.69607574608847599951e-01) (65, 2.29845285479895300451e-01) (66, -2.73064981463933577344e-02) (67, -1.32964423900083006380e-01) (68, -1.23595320198564298519e-01) (69, -1.37382670367723405680e-02) (70, 1.44013509837860459450e-01) (71, -4.63311644614042422718e-02) (72, -2.66711785336054968409e-02) (73, 5.50231209255458916796e-02) (74, -1.14805686010463300906e-01) (75, -6.62810888311974894666e-03) (76, 1.91513359040735353656e-01) (77, -2.87029806486224114970e-01) (78, 3.55019932639360144555e-02) (79, 4.41514462569292595595e-02) (80, -6.09777657474092835144e-02) (81, -6.29874173253429925357e-02) (82, 7.87445938714061571817e-02) (83, -7.14397959120128128729e-02) (84, 2.59771921145869762702e-04) (85, 1.29444266861983986461e-01) (86, 1.86756031320049267763e-02) (87, -3.23606472627914962259e-02) (88, -2.85843513310802856131e-02) (89, 3.69195161473837296651e-02) (90, -1.01663150067021021417e-01) (91, 1.50108294090521565689e-01) (92, 6.15641188013888382424e-02) (93, 7.80595443728411136908e-02) (94, -9.12100301340146302209e-02) (95, 9.11555827208695018671e-02) (96, 9.27265003950087790541e-02) (97, -2.66465516492125242820e-01) (98, 2.88812197600997709601e-02) (99, 1.29460638576280567813e-01) (100, 4.93981150676438898750e-02) (101, -9.59743360388924937610e-02) (102, -5.55132617132851613473e-03) (103, -2.08022941839556940735e-01) (104, -2.60546745724936912314e-01) (105, 1.73601622241674885538e-02) (106, 1.12393982758384594622e-01) (107, 6.04296405927867152919e-01) (108, 8.79093400517444445441e-02) (109, -3.57865576849728028730e-01) (110, 1.28104747515236039312e-01) (111, -2.76321535954927562442e-03) (112, -3.23988870935905740045e-02) (113, 4.48238712147744300385e-01) (114, -5.09434403659835416400e-02) (115, 2.94277876494234008620e-02) (116, -8.98711046599002805202e-02) (117, -2.06889627386981217461e-01) (118, 4.35523384132563487481e-02) (119, 2.80417668526661834072e-01) (120, 1.46301594672795631791e-01) (121, -1.64690279677086132137e-01) (122, 4.18834582198143803855e-02) (123, -1.26299881353217957614e-01) (124, -2.09946113352408786357e-01) (125, 7.42684868730094371880e-02) (0, 3.66922164707421810670e-02) (1, -5.94178209461974429773e-02) (2, -6.39240640563313727851e-02) (3, 2.36532146407494696383e-02) (4, -1.22014045851623953443e-01) (5, 6.02959208671805038660e-02) (6, 2.38199151336426287462e-02) (7, 6.08487811013367230900e-03) (8, -6.91431728193424716133e-02) (9, -8.50892913888088575636e-02) (10, -1.47996410933522726250e-01) (11, -9.26603897000416593110e-02) (12, 3.62044514116088705924e-02) (13, -1.07488995034833181852e-01) (14, -5.65432211356013195158e-02) (15, -4.09004968422627748770e-02) (16, 5.92536793813385476160e-02) (17, 4.84880015235103975502e-02) (18, 8.07547519419065870649e-03) (19, 2.33240198085967812003e-02) (20, -1.16434564211988444971e-01) (21, -1.65830943703967559344e-01) (22, -5.03834981248446889257e-02) (23, 1.62584878456274936620e-02) (24, -1.06757283068250621860e-01) (25, -2.26008786482543829258e-03) (26, -1.18461273146405351997e-01) (27, -1.24583501924094511987e-02) (28, -7.71632894628429544248e-02) (29, -4.46314524477969126748e-02) (30, -5.16735644803002353020e-02) (31, -7.18289337853452031224e-02) (32, 4.13915416805675784317e-02) (33, -2.83797742256048590725e-01) (34, -7.27845627484405288676e-02) (35, -1.65855925148527844071e-01) (36, 7.00752495340811742963e-02) (37, -8.47111289905179698501e-02) (38, -1.69892698181941859126e-01) (39, -1.24134917631743502131e-01) (40, 1.59525600444155382651e-02) (41, -4.91119739963613161082e-02) (42, -4.26853905788498397267e-02) (43, -4.97198061809059482785e-02) (44, 7.10931348573761497794e-03) (45, 2.34267886695634051930e-02) (46, 1.68599584071282733444e-02) (47, -5.44195492295760016588e-02) (48, -2.21363099493494287773e-02) (49, -2.71161218630920040906e-02) (50, -1.29126601041484934118e-01) (51, 6.91451627694073395203e-02) (52, -1.25448064198004916037e-01) (53, -1.26100456957946249759e-01) (54, -1.15918350405713743712e-01) (55, 1.13998046339772000912e-02) (56, 6.54680671612630216138e-02) (57, -1.56317482009313071800e-02) (58, -8.72017432891092070246e-02) (59, -5.02881255599672630230e-02) (60, -8.07116739137820615735e-02) (61, -1.76985385145261332751e-02) (62, -6.55825748239948908003e-02) (63, -6.86086838321839503907e-02) (64, -2.15035695802105525018e-04) (65, 6.13161405764984460826e-03) (66, -3.20192291300970960366e-02) (67, -1.88190754025500811553e-01) (68, 1.40157187379281612111e-02) (69, 6.80116721400972484846e-02) (70, 2.95476665836458887715e-02) (71, -7.66425738052628896524e-02) (72, -5.64845000983231343428e-02) (73, -1.08322367228803381756e-01) (74, 1.64188504838201198427e-03) (75, -3.92213117755517703955e-02) (76, 6.65358299314728202090e-02) (77, -8.50382155727988919836e-02) (78, -5.45960198482958181110e-02) (79, -5.74928435312401231450e-02) (80, -2.36441249985126639155e-02) (81, -3.17679120859468838711e-02) (82, -9.77079803123167833778e-02) (83, -9.65937219694374127332e-02) (84, -8.44989706610810992204e-02) (85, 1.33465384032146767296e-02) (86, -1.91338535740164461529e-01) (87, -7.79898848830146151911e-04) (88, -6.34414453644882581074e-02) (89, 3.38399677813878974053e-02) (90, -1.53439829432037599943e-01) (91, -2.35442098689332308947e-02) (92, -9.09696886463182280425e-02) (93, -2.29843396142328432186e-01) (94, -8.67549272279974359456e-02) (95, 1.18515809901294233430e-02) (96, 9.55825151570780483234e-03) (97, 8.00834928711741667051e-02) (98, 5.77564188059392288888e-02) (99, -2.41647475836154340678e-02) (100, -1.14385292602820057284e-01) (101, 1.32988314263348464395e-02) (102, 2.67083101229117769737e-02) (103, 4.32313547810004930594e-02) (104, 6.01352518357116047620e-03) (105, -7.31255051593865529336e-02) (106, 2.90960852615586643144e-02) (107, -1.17498319373916821490e-02) (108, -4.70505497909262451750e-02) (109, -6.85796154472023272719e-02) (110, 1.45124831465342964826e-02) (111, 4.03724570726731804560e-02) (112, 1.35903514524176489975e-02) (113, 8.63430296163689436906e-02) (114, 5.22822775416336565923e-02) (115, -1.07977188560242590154e-01) (116, -1.22611528506240657910e-01) (117, -6.06990699579933040697e-02) (118, -2.70035265917109232325e-02) (119, 5.76290995856023266497e-02) (120, -1.00799579945570996764e-01) (121, -2.47379369858524746084e-02) (122, -9.35388881206221795006e-02) (123, -8.14452524065972099931e-02) (124, -8.00138732238076660908e-02) (125, -2.19091219092883482400e-01) (0, -5.50246399221407528346e-02) (1, -7.81540344285798216362e-02) (2, 3.64234458973466956877e-02) (3, -3.09821753719463494070e-02) (4, 8.75868819750559059190e-03) (5, -3.57147412310421102921e-02) (6, 1.63661105372130723234e-02) (7, -1.18389054462678555701e-01) (8, 1.08552648680770250783e-02) (9, 7.09801391926850461234e-02) (10, 7.32287323065494849539e-02) (11, -1.09460356122204810481e-01) (12, 1.25442535670861832209e-01) (13, 5.01370277684358781056e-02) (14, 1.49758229475184467816e-01) (15, -1.41981061449186929391e-01) (16, 6.02047705381345693576e-02) (17, 3.42924187154286588819e-02) (18, -2.22489222098384425985e-01) (19, -5.59649682439532364375e-02) (20, -1.23136245986034786881e-01) (21, 1.27427444496022723719e-01) (22, 3.70262774628685842337e-01) (23, 2.91048825507622399567e-01) (24, -2.76301804160813291311e-01) (25, -5.22449580002993033134e-02) (26, -3.35814376510999046399e-01) (27, 7.12048282648267572698e-03) (28, 4.98754819232192225797e-01) (29, -3.02301059535917848731e-01) (30, -1.57536494435367463440e-01) (31, -1.53589349805668736598e-02) (32, 3.34490536108471916976e-02) (33, -6.43687886822137400600e-02) (34, 9.78260746833096994646e-02) (35, -2.92348260839264018074e-01) (36, 2.09419708658497932818e-01) (37, -7.99013145998316021146e-02) (38, 3.49885765200867671076e-01) (39, -3.64165351074455023728e-01) (40, 1.78457235528861640761e-01) (41, 4.62478348014128959331e-02) (42, -2.63329880746558775417e-01) (43, -2.44462974226952994145e-03) (44, -5.16279505721564946352e-02) (45, -1.86854010858796576455e-01) (46, 2.39909175344234573690e-02) (47, 8.13471484187591464821e-02) (48, 5.28468984441077954672e-02) (49, 1.19544664892747204421e-01) (50, 9.71270979464665118464e-02) (51, -9.00441482349677024821e-02) (52, -1.69299960545589434080e-01) (53, 1.40648369889264351906e-01) (54, -3.63256669807675791617e-01) (55, 1.42659219365569994720e-03) (56, -4.13089480818651239025e-02) (57, -1.41281455662904294190e-02) (58, -9.75824990880861525833e-02) (59, 3.34929955408571206066e-02) (60, 1.58984343435352115659e-01) (61, -1.11270528207242813679e-01) (62, -2.50789167126994949619e-01) (63, 9.49953400294045596786e-02) (64, 2.52095480288109574651e-01) (65, -1.98869268750574812454e-01) (66, -1.26637859620540062233e-02) (67, -2.12033753906702808478e-02) (68, 2.48071723577134722882e-02) (69, 6.08890821476131775120e-03) (70, 2.99345653344816504948e-02) (71, 5.37627073228332877375e-02) (72, 1.22380246244843227110e-01) (73, -1.20634234089286460079e-01) (74, 1.45960611613470125913e-01) (75, -5.47099800531724092534e-02) (76, -1.34644517442994576806e-01) (77, 1.82967630166044170625e-01) (78, -9.65899593793839196521e-03) (79, -1.24421385011450974512e-01) (80, 2.80254617879749992615e-02) (81, 6.67370523644760238469e-02) (82, -3.97969590485151361592e-02) (83, -4.95938225842937410737e-02) (84, -1.06585307436868434450e-01) (85, -2.44774632161542743392e-01) (86, -1.17685820568699181510e-01) (87, 1.50106455573535760295e-02) (88, -4.66569970189978019959e-03) (89, -1.68830503438300184166e-03) (90, 3.93991993806271853518e-02) (91, -1.84791386363274134919e-01) (92, -3.33336278138659722337e-02) (93, -1.24505213946655327040e-01) (94, 4.08187922316328166694e-02) (95, -2.20963391042700227351e-02) (96, 9.14494411219647293509e-03) (97, 1.93170004591867811028e-01) (98, -3.94694053791194293668e-02) (99, -9.04300917339892623703e-02) (100, -3.41283333654155557335e-02) (101, 3.20119871871469424685e-02) (102, 7.01238389331674261129e-02) (103, 2.68263743407103349981e-01) (104, 3.01237764666035023886e-01) (105, 8.19341641673535792112e-02) (106, -3.39902484037176780274e-02) (107, -5.61162826125337077521e-01) (108, -2.11176897721352258008e-02) (109, 2.15720965170508843789e-01) (110, -5.46599787647391935352e-02) (111, 5.80052879678035204769e-02) (112, 2.87258056695508003087e-02) (113, -2.40368343153382180155e-01) (114, 1.88197086215019487865e-01) (115, 2.36504638102152213441e-02) (116, 2.16489615925155726162e-02) (117, 8.66152258905632105312e-02) (118, -1.83615606171716488904e-01) (119, -1.38853043170328038780e-01) (120, -1.19776709644953655021e-01) (121, 2.42901792119595505426e-01) (122, -4.91333172813576760096e-02) (123, 6.27082114399792334147e-02) (124, -2.10063667832067167696e-02) (125, -1.41513577958210956531e-01) (0, -3.41143986086490241805e-02) (1, 3.31723166561837187749e-02) (2, -5.07513958398977463315e-02) (3, -1.00240376332754052568e-01) (4, -1.29668140328291880969e-01) (5, 3.36114639691358976781e-02) (6, 7.23859578909317735729e-02) (7, 4.78380969135710001905e-02) (8, -8.20673624057068062942e-02) (9, -1.11926158010352129295e-03) (10, -6.35621141988996140801e-04) (11, -6.35796708165349139241e-02) (12, -4.97214003111864019657e-02) (13, -1.31717504315144590121e-01) (14, -3.99574877587227580977e-02) (15, -5.93870309547004648909e-02) (16, 8.44654051106928926984e-02) (17, 2.29031322062931176620e-02) (18, -9.02755728584071076570e-02) (19, 4.01852232721802565818e-02) (20, -1.66887224038261561265e-01) (21, -9.38827410342563534185e-02) (22, 2.03019913789006578586e-01) (23, 1.01747533983518892442e-01) (24, -7.27280979574705249702e-02) (25, -5.28396767763133004547e-02) (26, -1.78777710802942552126e-01) (27, -3.42679652444149579482e-02) (28, 1.12615914235972960911e-01) (29, -1.46957000118323188875e-01) (30, -3.59377282075797818695e-02) (31, -1.04180029356917544514e-01) (32, -6.86851396215727716399e-02) (33, -2.36386629167998379986e-01) (34, -4.90333456402025358312e-02) (35, -2.91671408284812694323e-01) (36, 9.87681438074159701035e-02) (37, -6.65569755853261668666e-02) (38, -3.91111516823095112239e-02) (39, -2.80443011816427278937e-01) (40, 1.21310501641541987339e-01) (41, 5.09851611087307962644e-02) (42, -7.22542587919467182989e-02) (43, -9.08890330599859685989e-02) (44, 6.21398792573436622999e-02) (45, 2.13871955059492142859e-02) (46, 1.76193741301417829137e-03) (47, 1.61276181426403229791e-02) (48, -2.06378133498925919742e-02) (49, 9.54820666009344870551e-02) (50, -7.88919079688523844363e-02) (51, 1.30914059090028195992e-02) (52, -2.18370309477913526752e-01) (53, -6.31037570223099836264e-02) (54, -2.91112891458109757092e-01) (55, -7.12534920956074124820e-02) (56, 2.73838504572786398117e-02) (57, -3.57237623346510074773e-02) (58, -1.44283890080211876783e-02) (59, -2.69072782261496543099e-02) (60, 9.86379966407689573460e-02) (61, -1.18358487502596670948e-01) (62, -1.70700295713892391536e-01) (63, -1.62279231852790223334e-01) (64, -3.51886982958096164106e-03) (65, -7.85844821753578226531e-02) (66, -1.04198740424075952937e-01) (67, -3.91881201762323064242e-02) (68, 2.24761763186215280871e-03) (69, -4.11514050629476421661e-02) (70, -9.48835955710679301855e-02) (71, 7.38783759897751902274e-03) (72, -8.09883046213406704306e-02) (73, -2.67212695845044220441e-03) (74, 2.79027876176735668834e-02) (75, -7.08252632642921656908e-03) (76, -1.29132282020874393502e-02) (77, -4.92995902143860270650e-02) (78, -3.13506190861896003041e-02) (79, -1.04848590526354243369e-01) (80, 9.74499558688615707958e-02) (81, 6.16081175904317629444e-02) (82, 9.55160427542734238870e-03) (83, -4.43093300604209885951e-02) (84, -6.95537311270488355780e-03) (85, 9.34236565877913371914e-03) (86, -2.24393326099361661852e-01) (87, 2.55747437562755253193e-02) (88, -4.52340479430086636614e-02) (89, 4.54761782829933569605e-02) (90, -8.62212636701794182814e-02) (91, -1.04195044249246471235e-01) (92, 2.56005986142813016238e-02) (93, -5.42963992717785115527e-02) (94, -7.46811646818858754227e-02) (95, 7.96591081419454061230e-02) (96, -7.80137270276132638314e-02) (97, 5.81635944164140480939e-02) (98, 2.24444269050417012645e-02) (99, 6.93367451907774545727e-02) (100, -9.11857932951023880674e-02) (101, 8.16353846398798210782e-02) (102, -1.11014534510888648877e-02) (103, 8.65379031572949125595e-02) (104, 7.34274873317722898136e-02) (105, 1.05602140506049324564e-01) (106, -3.51569125686708311429e-02) (107, -2.01522745068388769996e-01) (108, -8.53138327110635197315e-02) (109, -1.62419232568059603017e-02) (110, -1.00292256538945995237e-01) (111, -9.43916259871876023313e-02) (112, 1.03841585837707278683e-01) (113, -1.80215915567884799042e-01) (114, -7.33396432494105680877e-03) (115, 4.35764691051204119954e-02) (116, -6.10323124731256064224e-02) (117, 2.75630966698867385656e-02) (118, -6.19214281620589154786e-02) (119, -1.14255579608855364904e-01) (120, -9.26085455216896086261e-02) (121, -1.54148320348954995240e-02) (122, -7.65506959560968008871e-02) (123, 1.21171703034254549247e-01) (124, -1.09058959552125189774e-01) (125, -1.61665515094725681378e-01) (0, -3.25016202133401668761e-02) (1, -6.76470308327356550926e-02) (2, 7.60751909184543672476e-03) (3, 8.60777049473249525335e-03) (4, -3.28658209366552850339e-02) (5, 1.45856612486387371419e-01) (6, 1.48441077677831323456e-01) (7, -7.56456170118473686381e-02) (8, -7.99328142018393555945e-02) (9, 3.40928026068314862784e-02) (10, 2.30979299830624928980e-01) (11, -2.58846880076343766053e-01) (12, 2.02076312309040106996e-01) (13, 1.18358101264581752621e-01) (14, 5.14887758420298907724e-02) (15, -6.13485131997756616418e-02) (16, -3.18084065268666588144e-02) (17, 2.26967296851637726288e-03) (18, -1.31972862730652007457e-01) (19, -6.77228438777389002423e-02) (20, -2.04481457125470222902e-01) (21, 1.72678740378616857321e-01) (22, 5.52700046220241825168e-01) (23, 4.84748135474791563837e-01) (24, -3.56651876542666834702e-01) (25, -2.16459537837121324122e-01) (26, -3.93825130235848197557e-01) (27, -8.70838862107690819814e-02) (28, 7.15145123290879203282e-01) (29, -4.20245766746892124299e-01) (30, -7.33134692355297823418e-02) (31, 4.96021427228539868448e-02) (32, 3.43173224936026630139e-02) (33, 6.07530632848474125285e-02) (34, -3.55509008921816999083e-02) (35, -3.29533132309817400341e-01) (36, 2.80635245790083309725e-01) (37, 6.70329452236435446855e-02) (38, 4.31692603113830175587e-01) (39, -5.78963038614167535556e-01) (40, 3.08647301998422433911e-02) (41, 5.69903815278800657262e-02) (42, -3.18222281547680618807e-01) (43, 4.99269960116512159787e-02) (44, -5.60233379581992346763e-02) (45, -1.17866631169697866355e-01) (46, -1.61912949025396248059e-02) (47, -1.58819601822099733257e-02) (48, -7.66618355307141785548e-02) (49, 2.97575887565353150443e-02) (50, -6.41854425153228110024e-03) (51, -1.37937183337431878982e-01) (52, -3.36714833707517147143e-01) (53, 1.82991481920997123289e-01) (54, -4.41850558822827144123e-01) (55, 3.44594717070860617758e-02) (56, -6.46285360996206870166e-02) (57, 9.01837451539881929108e-02) (58, -1.13806521353222722670e-03) (59, 6.80036971143740259782e-02) (60, 2.57637141898213184454e-01) (61, -1.00585508698436160158e-01) (62, -2.63385816664793215303e-01) (63, 1.67105321493499991981e-01) (64, 2.31786665211145159748e-01) (65, -3.76666766165599464777e-01) (66, -4.95611761111015222681e-02) (67, 1.83136068412379893200e-01) (68, 1.10245685945695198749e-01) (69, 1.12413545137179382571e-02) (70, -1.07903693666752953373e-01) (71, 1.66638098248641203236e-01) (72, 8.76416975649752655331e-02) (73, -1.86526865892151574866e-02) (74, 8.30232081685915723757e-02) (75, 1.20022345455621140542e-01) (76, -1.53973238369205289722e-01) (77, 3.25280640525937747576e-01) (78, -1.11028704073694774873e-02) (79, -3.66183743937979408467e-02) (80, 2.21037131917949762616e-02) (81, -3.76491154569947028552e-02) (82, 1.53524944983683131472e-02) (83, 3.08338047289042314902e-02) (84, -1.05131428659659076352e-01) (85, -2.23233442343648752493e-01) (86, -2.90275916971462167801e-03) (87, -2.00448901585473099329e-02) (88, -6.20504656766963785808e-02) (89, -4.69473668826876147642e-02) (90, 9.69230693972207985043e-02) (91, -8.41914462831138965537e-02) (92, -6.38382719354981809090e-02) (93, -7.09956628680732254599e-02) (94, 3.61093579180654933314e-02) (95, 5.55994823478085029023e-02) (96, -5.21017643486468839953e-02) (97, 3.73250979571854546446e-01) (98, -5.92803996190106596842e-02) (99, -7.34419161478878229632e-02) (100, -8.54158718546697004470e-02) (101, -9.78329133850769916414e-02) (102, -1.73961991242497990284e-02) (103, 2.19321176410813806212e-01) (104, 3.74215127121651336406e-01) (105, 1.19603840523195087409e-01) (106, -4.67367436445347422813e-02) (107, -7.55606254975464408652e-01) (108, 8.43055046706346622454e-02) (109, 3.01458022914276591031e-01) (110, 3.71063092169023446901e-03) (111, -6.50502089460986282488e-02) (112, 1.18196952189980816761e-01) (113, -4.40543209988664141719e-01) (114, 1.66469809971662802139e-01) (115, 9.02908147533745264468e-02) (116, -6.20800385553173308950e-02) (117, 1.43397070271607113279e-01) (118, -1.66273959865853138140e-01) (119, -2.39550873428396898790e-01) (120, -2.18245363565409800088e-01) (121, 2.91879989294673958256e-01) (122, -1.02031409356669308663e-01) (123, 2.26681403847780155170e-01) (124, 2.99201344310235060886e-02) (125, -1.72622387812227523485e-02) (0, -2.11444349477230481016e-01) (1, 1.90106440173703178376e-01) (2, 3.45112887775679388902e-01) (3, -2.32378179343550733682e-01) (4, 8.34648958758380660194e-02) (5, -1.78685098744113368685e-01) (6, -2.26853143294706294242e-01) (7, 2.10375863159988102380e-01) (8, -1.58279460816293515713e-01) (9, 2.09572850910892477527e-01) (10, -1.58822798559459132939e-01) (11, 2.39764018843856785423e-01) (12, -5.14055070346807752024e-01) (13, 1.96728276726986089917e-01) (14, -3.33321492964899546152e-01) (15, 4.46715789323948730960e-01) (16, -2.15238327412484165002e-01) (17, 7.11091856235354646820e-02) (18, 3.86142926500850358629e-01) (19, -1.03510811225475257702e-01) (20, -1.61992591322860923775e-01) (21, 3.22782232342268327052e-01) (22, -1.26350897753493640607e+00) (23, -1.29202496423368651257e+00) (24, 1.55654636099733512111e+00) (25, 2.50235173407231281661e-01) (26, 1.75339169321934007506e+00) (27, 1.63188785569904931672e-01) (28, -2.71247147267783983438e+00) (29, 1.36284321647354000895e+00) (30, 4.11001677095265971484e-01) (31, -6.20359888258665073679e-02) (32, 1.98131562369042030225e-02) (33, 4.32627465119647877656e-02) (34, 5.75063190610158175842e-03) (35, 1.03583685061947572414e+00) (36, -1.00374258317166664689e+00) (37, 4.63454311169003013715e-02) (38, -1.25078013131333753982e+00) (39, 1.21624096503720302564e+00) (40, -1.48271779039539253198e-01) (41, 5.11390271728202061574e-02) (42, 7.69731023071144715431e-01) (43, -4.73987465983956302029e-02) (44, -3.84769239989182165740e-01) (45, 1.25280654121425222280e-01) (46, 5.57451805348532780648e-02) (47, -2.68113425320822218456e-01) (48, 9.95030858066767859293e-02) (49, -7.28625067204281690048e-02) (50, -2.06869774682597012960e-01) (51, 1.60580913732959268403e-01) (52, 3.03448580298537717859e-01) (53, -2.80659892297809743233e-01) (54, 5.46475744649367878303e-01) (55, -1.56167790581104980879e-02) (56, -1.05606011757344159241e-02) (57, 1.36686120862991228320e-01) (58, -9.47361223546582531529e-02) (59, -5.02460452754427966404e-01) (60, -2.95919798817454504647e-01) (61, 3.53829239150033225680e-01) (62, 1.21803973142778532157e+00) (63, -1.03355836754959229395e+00) (64, -6.51431943455098583229e-01) (65, 1.00326855150954585838e+00) (66, 2.05451305983266385713e-01) (67, -6.73194955485573731657e-01) (68, 4.93518866743944822906e-02) (69, 1.14195802663685605505e-01) (70, 2.18212143289435944737e-01) (71, -1.16044024596815814609e-01) (72, -2.41264921109816149469e-01) (73, 1.43340899218618117450e-01) (74, -1.37612373270405513592e-01) (75, -3.28098609126947715620e-01) (76, 4.80514074183894024372e-01) (77, -4.77185655985263745826e-01) (78, 2.18062378334470341468e-01) (79, 2.25173149971221037147e-01) (80, -2.55030683984240114093e-01) (81, -2.52402464708193052800e-01) (82, 7.40598482879499808718e-02) (83, 7.22922698928220135162e-03) (84, -2.68696286503607106866e-01) (85, 7.84253972499631246684e-01) (86, 7.01823702815614763884e-02) (87, 3.65554218971047006903e-02) (88, -1.09420436302846826870e-01) (89, -1.17450529495879987807e-01) (90, -3.16355988839712221061e-01) (91, 4.68608173524393933906e-01) (92, 1.69159900648251565469e-01) (93, 5.98140477880268917055e-01) (94, -6.79103051060906515168e-01) (95, -2.25809162122147660812e-02) (96, 7.34175787835543824933e-01) (97, -1.08170301154918258035e+00) (98, 2.92318574934902986051e-01) (99, 2.84910327495745629989e-01) (100, -1.33919526992163913197e-03) (101, -6.32327035178646829072e-02) (102, 1.05830673774043801383e-02) (103, -3.38997482589123877439e-01) (104, -2.64653338600610188447e-01) (105, -1.94525100804486816841e-01) (106, 6.19361123692341974944e-01) (107, 4.54278723855500221607e-01) (108, 4.44540514899713877506e-03) (109, -7.66320787718075657757e-01) (110, 7.28417036634101622283e-01) (111, 8.11651365822049948584e-03) (112, -8.28042159177806574855e-02) (113, 9.13277102438854848643e-01) (114, -2.76046493634446943322e-01) (115, 7.20161389214550418103e-01) (116, -3.39303157754041240235e-01) (117, -7.40071229102452043946e-01) (118, 5.18140085415852852391e-02) (119, -1.42561972632359895696e-01) (120, -5.26239009999991472211e-02) (121, -1.07359190658584888189e-01) (122, 4.26597395483334584920e-01) (123, -1.38566279942422182492e-01) (124, 1.73640209431762143621e-01) (125, 1.33080436741129487510e-01) (0, -5.46921236382871892023e-02) (1, -1.11305412481253473977e-02) (2, -4.85386450434211053073e-02) (3, 3.98313998433381666331e-02) (4, -4.31853578218607328520e-02) (5, 3.99188483033333530586e-03) (6, -1.89288298710971025773e-01) (7, 9.78897248716845830296e-02) (8, -5.38157762472164652445e-02) (9, -7.67025653048296479630e-02) (10, -3.93566362300875952074e-02) (11, -4.32918957085593747447e-02) (12, -8.38779346590171476228e-02) (13, -4.61168131647947052154e-02) (14, 1.93063015893533106160e-02) (15, 1.24637323500682017929e-01) (16, -6.93100230067462547145e-02) (17, -9.67507614253622512911e-04) (18, 4.28304884959153711610e-02) (19, 4.80337157501382339131e-02) (20, -1.47260428697977591161e-01) (21, -8.48708326546330493745e-02) (22, -4.23879243507972111593e-02) (23, -3.25505154327269119463e-02) (24, 9.53984507963882323589e-03) (25, -3.25461142647981904394e-03) (26, 1.52906042632839300754e-01) (27, -4.46663514788705508229e-03) (28, -3.32505345933860607666e-01) (29, -3.42167498685769996825e-02) (30, -3.62300858397225297725e-02) (31, -1.56476925063714737696e-02) (32, -2.18871670311267182973e-02) (33, -2.33411325467595826000e-01) (34, -2.50871774753507539857e-02) (35, -1.44264233465462732992e-02) (36, -8.28447294388846566804e-02) (37, -1.56687233137894135759e-02) (38, -2.19767765043171581230e-01) (39, -2.40181936554510165605e-02) (40, 3.51942733076783462187e-02) (41, -8.27610431617947645000e-02) (42, 5.23700883721023866327e-04) (43, -7.58688942483601858058e-02) (44, 6.72559185892061400791e-02) (45, 1.16289942132625445659e-01) (46, -1.09772554204461830762e-01) (47, -1.21774293748456372000e-01) (48, -3.75915592240757406861e-02) (49, 2.98624030658591332887e-02) (50, 1.36579986521330916382e-02) (51, 4.30805617003508709018e-02) (52, -1.23739330525640192637e-01) (53, -8.27366866195105854498e-02) (54, 2.95907402176179071263e-02) (55, -1.01977704382848560760e-01) (56, -7.60073444956145261031e-02) (57, -6.97618076067266779106e-02) (58, -9.85350753893714237375e-04) (59, -7.32748381975547868894e-02) (60, -7.97207109458710344585e-02) (61, 5.29392441809924327312e-02) (62, 1.51895650007920907099e-01) (63, -1.81667762144081978981e-01) (64, -1.37651283864735733686e-02) (65, 7.18134003042937736627e-03) (66, -1.92598047871208113979e-02) (67, -1.86983386262364825736e-01) (68, 2.25427804985560420459e-02) (69, 9.72505861965677759207e-02) (70, 8.72718201974995166914e-03) (71, -5.08966574945188335310e-02) (72, -6.26622565510499690555e-02) (73, 6.73627757359089151395e-03) (74, 4.30224267788138509810e-03) (75, -1.58758486235571011358e-01) (76, 3.82646516404781464327e-02) (77, -1.81657525319742496617e-02) (78, -7.77508986810065538114e-03) (79, 8.29036845146588624589e-02) (80, -8.39841751418851367728e-02) (81, -5.76932664640028985970e-02) (82, -8.77882420327117871106e-03) (83, -3.27645074397762345320e-02) (84, -1.61449581530411750974e-01) (85, -2.15477913422427690138e-02) (86, -1.67017229488443857965e-01) (87, -5.09934329575811653990e-02) (88, -3.29373848755799489285e-02) (89, 8.14269643718788793674e-02) (90, -1.47984960319739539125e-01) (91, 7.65401891056263494750e-02) (92, 4.92537833644933406574e-02) (93, -1.45530755126860089632e-01) (94, -6.13814158470248477650e-02) (95, -1.76789021891191888702e-02) (96, 5.42945793347596253331e-02) (97, -2.45548806306662634191e-02) (98, 9.72715616834760460341e-02) (99, -6.26743296128466978456e-03) (100, -1.21267268959329141409e-01) (101, -4.66791930113612460462e-02) (102, 7.32625889332978175172e-02) (103, -9.18384924655747843236e-03) (104, -5.60369897272797040655e-02) (105, -1.45345012712064357990e-02) (106, -1.83373048072357595906e-02) (107, 1.21308445193856251354e-01) (108, -7.56678734358164351015e-02) (109, -3.32293311777278818631e-02) (110, -6.11689813984448091388e-02) (111, -1.68977242879965149081e-02) (112, -1.10975273742133395682e-01) (113, 1.10579641507994236305e-01) (114, 3.29870874604978811528e-02) (115, -1.13902689238066415212e-01) (116, 3.77397725867949090928e-02) (117, 