FANN_FLO_2.1
num_layers=3
learning_rate=0.700000
connection_rate=1.000000
network_type=0
learning_momentum=0.000000
training_algorithm=0
train_error_function=1
train_stop_function=0
cascade_output_change_fraction=0.010000
quickprop_decay=-0.000100
quickprop_mu=1.750000
rprop_increase_factor=1.200000
rprop_decrease_factor=0.500000
rprop_delta_min=0.000000
rprop_delta_max=50.000000
rprop_delta_zero=0.100000
cascade_output_stagnation_epochs=12
cascade_candidate_change_fraction=0.010000
cascade_candidate_stagnation_epochs=12
cascade_max_out_epochs=150
cascade_max_cand_epochs=150
cascade_num_candidate_groups=2
bit_fail_limit=3.49999999999999977796e-01
cascade_candidate_limit=1.00000000000000000000e+03
cascade_weight_multiplier=4.00000000000000022204e-01
cascade_activation_functions_count=10
cascade_activation_functions=3 5 7 8 10 11 14 15 16 17 
cascade_activation_steepnesses_count=4
cascade_activation_steepnesses=2.50000000000000000000e-01 5.00000000000000000000e-01 7.50000000000000000000e-01 1.00000000000000000000e+00 
layer_sizes=126 91 3 
scale_included=0
neurons (num_inputs, activation_function, activation_steepness)=(0, 0, 0.00000000000000000000e+00) (0, 0, 0.00000000000000000000e+00) (0, 0, 0.00000000000000000000e+00) (0, 0, 0.00000000000000000000e+00) (0, 0, 0.00000000000000000000e+00) (0, 0, 0.00000000000000000000e+00) (0, 0, 0.00000000000000000000e+00) (0, 0, 0.00000000000000000000e+00) (0, 0, 0.00000000000000000000e+00) (0, 0, 0.00000000000000000000e+00) (0, 0, 0.00000000000000000000e+00) (0, 0, 0.00000000000000000000e+00) (0, 0, 0.00000000000000000000e+00) (0, 0, 0.00000000000000000000e+00) (0, 0, 0.00000000000000000000e+00) (0, 0, 0.00000000000000000000e+00) (0, 0, 0.00000000000000000000e+00) (0, 0, 0.00000000000000000000e+00) (0, 0, 0.00000000000000000000e+00) (0, 0, 0.00000000000000000000e+00) (0, 0, 0.00000000000000000000e+00) (0, 0, 0.00000000000000000000e+00) (0, 0, 0.00000000000000000000e+00) (0, 0, 0.00000000000000000000e+00) (0, 0, 0.00000000000000000000e+00) (0, 0, 0.00000000000000000000e+00) (0, 0, 0.00000000000000000000e+00) (0, 0, 0.00000000000000000000e+00) (0, 0, 0.00000000000000000000e+00) (0, 0, 0.00000000000000000000e+00) (0, 0, 0.00000000000000000000e+00) (0, 0, 0.00000000000000000000e+00) (0, 0, 0.00000000000000000000e+00) (0, 0, 0.00000000000000000000e+00) (0, 0, 0.00000000000000000000e+00) (0, 0, 0.00000000000000000000e+00) (0, 0, 0.00000000000000000000e+00) (0, 0, 0.00000000000000000000e+00) (0, 0, 0.00000000000000000000e+00) (0, 0, 0.00000000000000000000e+00) (0, 0, 0.00000000000000000000e+00) (0, 0, 0.00000000000000000000e+00) (0, 0, 0.00000000000000000000e+00) (0, 0, 0.00000000000000000000e+00) (0, 0, 0.00000000000000000000e+00) (0, 0, 0.00000000000000000000e+00) (0, 0, 0.00000000000000000000e+00) (0, 0, 0.00000000000000000000e+00) (0, 0, 0.00000000000000000000e+00) (0, 0, 0.00000000000000000000e+00) (0, 0, 0.00000000000000000000e+00) (0, 0, 0.00000000000000000000e+00) (0, 0, 0.00000000000000000000e+00) (0, 0, 0.00000000000000000000e+00) (0, 0, 0.00000000000000000000e+00) (0, 0, 0.00000000000000000000e+00) (0, 0, 0.00000000000000000000e+00) (0, 0, 0.00000000000000000000e+00) (0, 0, 0.00000000000000000000e+00) (0, 0, 0.00000000000000000000e+00) (0, 0, 0.00000000000000000000e+00) (0, 0, 0.00000000000000000000e+00) (0, 0, 0.00000000000000000000e+00) (0, 0, 0.00000000000000000000e+00) (0, 0, 0.00000000000000000000e+00) (0, 0, 0.00000000000000000000e+00) (0, 0, 0.00000000000000000000e+00) (0, 0, 0.00000000000000000000e+00) (0, 0, 0.00000000000000000000e+00) (0, 0, 0.00000000000000000000e+00) (0, 0, 0.00000000000000000000e+00) (0, 0, 0.00000000000000000000e+00) (0, 0, 0.00000000000000000000e+00) (0, 0, 0.00000000000000000000e+00) (0, 0, 0.00000000000000000000e+00) (0, 0, 0.00000000000000000000e+00) (0, 0, 0.00000000000000000000e+00) (0, 0, 0.00000000000000000000e+00) (0, 0, 0.00000000000000000000e+00) (0, 0, 0.00000000000000000000e+00) (0, 0, 0.00000000000000000000e+00) (0, 0, 0.00000000000000000000e+00) (0, 0, 0.00000000000000000000e+00) (0, 0, 0.00000000000000000000e+00) (0, 0, 0.00000000000000000000e+00) (0, 0, 0.00000000000000000000e+00) (0, 0, 0.00000000000000000000e+00) (0, 0, 0.00000000000000000000e+00) (0, 0, 0.00000000000000000000e+00) (0, 0, 0.00000000000000000000e+00) (0, 0, 0.00000000000000000000e+00) (0, 0, 0.00000000000000000000e+00) (0, 0, 0.00000000000000000000e+00) (0, 0, 0.00000000000000000000e+00) (0, 0, 0.00000000000000000000e+00) (0, 0, 0.00000000000000000000e+00) (0, 0, 0.00000000000000000000e+00) (0, 0, 0.00000000000000000000e+00) (0, 0, 0.00000000000000000000e+00) (0, 0, 0.00000000000000000000e+00) (0, 0, 0.00000000000000000000e+00) (0, 0, 0.00000000000000000000e+00) (0, 0, 0.00000000000000000000e+00) (0, 0, 0.00000000000000000000e+00) (0, 0, 0.00000000000000000000e+00) (0, 0, 0.00000000000000000000e+00) (0, 0, 0.00000000000000000000e+00) (0, 0, 0.00000000000000000000e+00) (0, 0, 0.00000000000000000000e+00) (0, 0, 0.00000000000000000000e+00) (0, 0, 0.00000000000000000000e+00) (0, 0, 0.00000000000000000000e+00) (0, 0, 0.00000000000000000000e+00) (0, 0, 0.00000000000000000000e+00) (0, 0, 0.00000000000000000000e+00) (0, 0, 0.00000000000000000000e+00) (0, 0, 0.00000000000000000000e+00) (0, 0, 0.00000000000000000000e+00) (0, 0, 0.00000000000000000000e+00) (0, 0, 0.00000000000000000000e+00) (0, 0, 0.00000000000000000000e+00) (0, 0, 0.00000000000000000000e+00) (0, 0, 0.00000000000000000000e+00) (0, 0, 0.00000000000000000000e+00) (0, 0, 0.00000000000000000000e+00) (0, 0, 0.00000000000000000000e+00) (126, 4, 5.00000000000000000000e-01) (126, 4, 5.00000000000000000000e-01) (126, 4, 5.00000000000000000000e-01) (126, 4, 5.00000000000000000000e-01) (126, 4, 5.00000000000000000000e-01) (126, 4, 5.00000000000000000000e-01) (126, 4, 5.00000000000000000000e-01) (126, 4, 5.00000000000000000000e-01) (126, 4, 5.00000000000000000000e-01) (126, 4, 5.00000000000000000000e-01) (126, 4, 5.00000000000000000000e-01) (126, 4, 5.00000000000000000000e-01) (126, 4, 5.00000000000000000000e-01) (126, 4, 5.00000000000000000000e-01) (126, 4, 5.00000000000000000000e-01) (126, 4, 5.00000000000000000000e-01) (126, 4, 5.00000000000000000000e-01) (126, 4, 5.00000000000000000000e-01) (126, 4, 5.00000000000000000000e-01) (126, 4, 5.00000000000000000000e-01) (126, 4, 5.00000000000000000000e-01) (126, 4, 5.00000000000000000000e-01) (126, 4, 5.00000000000000000000e-01) (126, 4, 5.00000000000000000000e-01) (126, 4, 5.00000000000000000000e-01) (126, 4, 5.00000000000000000000e-01) (126, 4, 5.00000000000000000000e-01) (126, 4, 5.00000000000000000000e-01) (126, 4, 5.00000000000000000000e-01) (126, 4, 5.00000000000000000000e-01) (126, 4, 5.00000000000000000000e-01) (126, 4, 5.00000000000000000000e-01) (126, 4, 5.00000000000000000000e-01) (126, 4, 5.00000000000000000000e-01) (126, 4, 5.00000000000000000000e-01) (126, 4, 5.00000000000000000000e-01) (126, 4, 5.00000000000000000000e-01) (126, 4, 5.00000000000000000000e-01) (126, 4, 5.00000000000000000000e-01) (126, 4, 5.00000000000000000000e-01) (126, 4, 5.00000000000000000000e-01) (126, 4, 5.00000000000000000000e-01) (126, 4, 5.00000000000000000000e-01) (126, 4, 5.00000000000000000000e-01) (126, 4, 5.00000000000000000000e-01) (126, 4, 5.00000000000000000000e-01) (126, 4, 5.00000000000000000000e-01) (126, 4, 5.00000000000000000000e-01) (126, 4, 5.00000000000000000000e-01) (126, 4, 5.00000000000000000000e-01) (126, 4, 5.00000000000000000000e-01) (126, 4, 5.00000000000000000000e-01) (126, 4, 5.00000000000000000000e-01) (126, 4, 5.00000000000000000000e-01) (126, 4, 5.00000000000000000000e-01) (126, 4, 5.00000000000000000000e-01) (126, 4, 5.00000000000000000000e-01) (126, 4, 5.00000000000000000000e-01) (126, 4, 5.00000000000000000000e-01) (126, 4, 5.00000000000000000000e-01) (126, 4, 5.00000000000000000000e-01) (126, 4, 5.00000000000000000000e-01) (126, 4, 5.00000000000000000000e-01) (126, 4, 5.00000000000000000000e-01) (126, 4, 5.00000000000000000000e-01) (126, 4, 5.00000000000000000000e-01) (126, 4, 5.00000000000000000000e-01) (126, 4, 5.00000000000000000000e-01) (126, 4, 5.00000000000000000000e-01) (126, 4, 5.00000000000000000000e-01) (126, 4, 5.00000000000000000000e-01) (126, 4, 5.00000000000000000000e-01) (126, 4, 5.00000000000000000000e-01) (126, 4, 5.00000000000000000000e-01) (126, 4, 5.00000000000000000000e-01) (126, 4, 5.00000000000000000000e-01) (126, 4, 5.00000000000000000000e-01) (126, 4, 5.00000000000000000000e-01) (126, 4, 5.00000000000000000000e-01) (126, 4, 5.00000000000000000000e-01) (126, 4, 5.00000000000000000000e-01) (126, 4, 5.00000000000000000000e-01) (126, 4, 5.00000000000000000000e-01) (126, 4, 5.00000000000000000000e-01) (126, 4, 5.00000000000000000000e-01) (126, 4, 5.00000000000000000000e-01) (126, 4, 5.00000000000000000000e-01) (126, 4, 5.00000000000000000000e-01) (126, 4, 5.00000000000000000000e-01) (126, 4, 5.00000000000000000000e-01) (0, 0, 0.00000000000000000000e+00) (91, 6, 5.00000000000000000000e-01) (91, 6, 5.00000000000000000000e-01) (0, 6, 0.00000000000000000000e+00) 
connections (connected_to_neuron, weight)=(0, 1.67887036648736789890e-02) (1, 4.13348845723403163221e-02) (2, -2.49467889124348370100e-02) (3, -1.44324530514386983882e-01) (4, 7.45248354754552838619e-02) (5, -7.41723039546740015027e-02) (6, 2.78470518025147155405e-02) (7, -7.59285577874920930563e-02) (8, -1.60345736324102844383e-01) (9, -1.26330710703518644955e-01) (10, -4.99986608319559072688e-02) (11, -6.15229586356324104068e-02) (12, 5.15448655710074726821e-02) (13, -3.91528655862669883181e-02) (14, 2.47413962843513017542e-02) (15, 6.96518657878212321677e-02) (16, -3.74992580098530356447e-02) (17, -4.75137146158939593921e-02) (18, -7.18422230509788012354e-02) (19, 6.17753725013442667180e-02) (20, -5.11246654353950287508e-03) (21, -1.90074388013703216016e-01) (22, 1.15532630734118055282e-02) (23, -4.11670758554518526062e-02) (24, 1.73697319924710318062e-02) (25, -2.11184565249735618775e-02) (26, -9.05986369431884402958e-02) (27, 7.11762209680952967483e-02) (28, -6.53100690677093226322e-02) (29, -1.14890736701838830358e-01) (30, -8.51067126741391066780e-02) (31, 6.20311346652554496117e-02) (32, 6.10991573683791824867e-02) (33, -2.59974155349169899765e-01) (34, 8.94746908280952268910e-02) (35, -1.32836125322612963462e-01) (36, -5.47061958478854554189e-02) (37, 6.67486697137157358739e-02) (38, -4.20536755752621352333e-02) (39, -1.11000864059583689847e-01) (40, -7.27303909994451713850e-02) (41, -3.67397725773980568520e-02) (42, -1.50801597277846234635e-02) (43, 6.64177012061800270404e-02) (44, 6.64747799542983880405e-02) (45, -5.22186135257770994711e-02) (46, 7.94795974854912851137e-02) (47, -7.31815164399725881506e-02) (48, 1.03414495082610174287e-02) (49, -5.48412016449867992240e-02) (50, -9.51695951391451494539e-02) (51, -4.40541943863765900896e-03) (52, -1.45127769720601845771e-01) (53, -2.70179684195747810138e-02) (54, -4.31193264554218594342e-02) (55, -8.97686427873997244697e-02) (56, -4.08197238604683168561e-02) (57, -8.79132065072920493298e-02) (58, -8.82595836298105396178e-02) (59, 6.09516326960711680993e-03) (60, -6.44999711591962565649e-02) (61, -4.36803785171414118982e-02) (62, -7.66996070641755289810e-02) (63, -2.05857816795195630588e-01) (64, -1.81762044080849283212e-02) (65, -4.71498541778259880330e-02) (66, 2.29184549561767224313e-02) (67, -5.86529020725146746362e-02) (68, -7.81204039460242083415e-02) (69, 5.03095193268020060562e-02) (70, -7.24489113970588766156e-02) (71, -2.78424774216561553286e-02) (72, -5.04065853785152090394e-02) (73, 2.25144900189524627132e-02) (74, -3.95634300181876216729e-02) (75, -1.66190823856032454664e-01) (76, -8.14812637537575823465e-02) (77, -7.61980524670965581047e-02) (78, -9.91328511388303752760e-03) (79, 2.03587731482745455669e-02) (80, -8.49266798068836793745e-03) (81, 4.20325495797092898997e-02) (82, -1.07190780799665860701e-01) (83, 7.32561281816068443629e-02) (84, -1.04163159854054027109e-01) (85, -9.60750339518353091428e-02) (86, -3.11150688946749853780e-01) (87, 6.54944258256915934346e-02) (88, -5.66839575449673838126e-02) (89, -8.78792787590745860804e-02) (90, -2.38610963194988534575e-01) (91, 9.20700504093202240496e-03) (92, -4.38583334096177904216e-02) (93, -1.27567645180184402465e-01) (94, 1.38282681818201191870e-02) (95, 6.51553798862603145148e-02) (96, -1.21387999816177830081e-01) (97, 2.00739890777005859646e-02) (98, -1.34365582699173501113e-02) (99, -4.37073690913875739783e-02) (100, -1.39571702383516321744e-01) (101, 6.85094865934474106517e-02) (102, 4.43188757720422016328e-02) (103, -2.17696110957136014508e-02) (104, 1.27006061231273066625e-02) (105, -9.05987598712602870688e-02) (106, 1.47192008494717464090e-02) (107, 4.79185097504989526707e-02) (108, -4.80996754103133888902e-02) (109, -1.71833555383133912420e-02) (110, -7.96412908482557885259e-02) (111, 4.54997720396008095700e-02) (112, -7.25347290010374540214e-02) (113, 6.82083494099145447309e-03) (114, 2.40285728767519156379e-02) (115, -2.28450258044664497592e-02) (116, -8.01047560005726244636e-02) (117, -1.17330639245083879867e-03) (118, -5.68483655498457085553e-02) (119, 5.90518778355486675946e-02) (120, 4.07017310941752974429e-02) (121, 4.42827757375625907788e-02) (122, -4.53845412558815247683e-02) (123, -9.48413747386552402618e-02) (124, -4.63681874486501638399e-02) (125, -3.04046752746102211251e-01) (0, 7.50693318428212047477e-02) (1, 8.18414991516394629834e-02) (2, -7.85973639422010289524e-02) (3, -1.07826289670753999728e-01) (4, -6.78077084975337029960e-02) (5, 1.17921442475403592809e-01) (6, 9.32223461862880103945e-02) (7, 1.34718512652999777846e-01) (8, 2.14147161127179706808e-02) (9, -4.37908734549695533023e-01) (10, 1.00977922907636019634e-01) (11, -2.85590519934783182432e-01) (12, 6.13932878718227575954e-02) (13, 5.14606144304408097412e-02) (14, 1.59408923145312159120e-01) (15, -3.95370984712851702980e-01) (16, 1.49776522062222861020e-01) (17, 2.67850379058870565960e-03) (18, -1.81485075645640113462e-02) (19, 2.18623458645292784164e-01) (20, 1.30424374789803121377e-01) (21, -2.48967843193648535882e-01) (22, 2.77822070216932615061e-01) (23, 3.09565912418358457625e-01) (24, -4.52418169365782274483e-01) (25, -9.99710431862745885212e-02) (26, -6.43934830553392512087e-01) (27, -1.25482681270763868353e-01) (28, 1.29675331381595992930e+00) (29, -4.63702312463509624951e-01) (30, -1.22425698034237875889e-01) (31, -8.69367982329533398045e-03) (32, 2.81734733383875030066e-02) (33, -1.15426469729953296017e-01) (34, -2.94952251686934341368e-02) (35, -5.64306535572200784756e-01) (36, 4.32165839891537062467e-01) (37, 4.27667558978014478166e-02) (38, 5.06099569798194481862e-01) (39, -7.32700637743695759596e-01) (40, 5.62551033887806958833e-02) (41, 1.47757946845926912971e-01) (42, -3.08095323384343144912e-01) (43, -6.78422406508756292709e-02) (44, -2.49320722884120160590e-02) (45, -1.58988217777858042989e-01) (46, 6.18111814596608924455e-02) (47, 1.59010725016635434681e-01) (48, 1.10932945855501646770e-01) (49, 4.15320826689044228508e-02) (50, 1.58257207017802908888e-01) (51, -6.03873905429332599737e-02) (52, -4.53257741712727590944e-01) (53, 1.96655825928393396262e-01) (54, -4.17664736411707926411e-01) (55, 2.68477181184854918339e-01) (56, -2.68546005055993811106e-02) (57, -4.74057246390072531406e-02) (58, -5.47766323913131888967e-02) (59, 1.49757848480564781379e-01) (60, -7.71216854625876601682e-04) (61, -1.77429170910275713080e-02) (62, -4.98910479184388411245e-01) (63, 2.16434319110928446994e-01) (64, 1.00937067271950425829e-01) (65, -1.26872143948973642447e-01) (66, -2.25984644474222035049e-01) (67, 8.23998834822856074389e-02) (68, -9.04087802141181340332e-02) (69, 2.61961428374769648986e-02) (70, -9.30879082994202911028e-02) (71, 1.80205537699105994287e-01) (72, 4.49988986670403212642e-02) (73, -3.44827648701645436691e-02) (74, 2.84505510346776471775e-02) (75, -1.27136100934225254599e-01) (76, -2.48301501185452869191e-02) (77, -9.82271012688743228036e-02) (78, -1.40757711437851318337e-01) (79, -1.24766423699092576793e-01) (80, 2.76516887318696391596e-01) (81, 8.42419271128604790766e-03) (82, -1.02197402380600183003e-01) (83, -7.78274879844748912472e-02) (84, -7.06640383075929790629e-03) (85, 7.13715630937899053743e-02) (86, -1.69865132969224480464e-01) (87, -6.94828196537914666298e-02) (88, 1.08829705867491993709e-01) (89, 7.22607986318509754042e-02) (90, -2.84064599282226548649e-01) (91, 9.86836176344562665541e-02) (92, -1.20592755069808876822e-01) (93, 2.58027966438405809146e-01) (94, -3.08847061702858194376e-01) (95, -5.42514333203648405068e-02) (96, -1.68643409246082592867e-01) (97, 1.75143733563589865110e-01) (98, -2.48373759540402361257e-01) (99, -2.08623682147205447013e-01) (100, -4.28775451647044579528e-03) (101, -9.88411244763601204433e-02) (102, -3.79833236408728819322e-02) (103, 3.61595110618473214448e-01) (104, 4.24482189097082185381e-01) (105, 7.02071265172426323131e-02) (106, -4.99526778695113082840e-01) (107, -5.58127159820072882290e-01) (108, -5.07969994656037246439e-02) (109, -1.62469063466759260084e-03) (110, -6.88456254454863081360e-02) (111, -8.57989558239838495668e-02) (112, 1.88256414900679035218e-02) (113, 8.83606143808669114437e-02) (114, 2.99878136922689553234e-01) (115, -4.01664600989514453122e-01) (116, -5.24705585633539417501e-01) (117, 2.36938290085424163589e-01) (118, -1.90662027272392814448e-01) (119, 2.55839039641833354555e-01) (120, -1.43830788891050415090e-01) (121, 9.78903157444108440455e-02) (122, -3.41728460370640862998e-01) (123, -4.67301417133873363968e-03) (124, 5.33066462592482036981e-03) (125, -2.07761242720033684206e-01) (0, -1.38009895415530624285e-02) (1, 1.26215014920731793263e-02) (2, -8.94174171131583012118e-02) (3, -7.03400641492496897511e-02) (4, 3.37774856855458521787e-02) (5, 4.31203704139802579398e-02) (6, -1.09906928683478552489e-01) (7, -4.67532810997951867038e-02) (8, -1.63878692789229986337e-02) (9, -2.14549016498934541630e-01) (10, 2.34414570532161942173e-02) (11, 7.95920693066817508399e-02) (12, -2.21285264430389622126e-02) (13, -1.29478708925676200270e-01) (14, -2.02886617808938768404e-03) (15, -6.64107234987009464877e-02) (16, -9.69505787574070354573e-02) (17, -1.26263695779873869052e-01) (18, -7.79288524135000968546e-04) (19, -6.45573678646429449657e-02) (20, -1.54042915746093272977e-01) (21, -2.19549990923475879523e-01) (22, -8.27518174439893228200e-02) (23, -1.79305751909963534407e-01) (24, 1.41503555531103802911e-01) (25, 1.16539364721186273349e-02) (26, 3.48883835223760888078e-02) (27, 1.06215038880091400264e-01) (28, -2.94191245561284342447e-01) (29, 1.57887204589241297858e-01) (30, -2.13022822073352623151e-02) (31, 6.16009209983804095767e-02) (32, -7.26675369429221063022e-02) (33, -1.33115348108551023731e-01) (34, -1.16957810587552321624e-02) (35, -1.24952164281519843142e-02) (36, -7.54729214981286339325e-02) (37, 8.77868134571136854438e-02) (38, -3.00660240905129383382e-01) (39, -3.55612970601294070550e-02) (40, 6.60759462215965431842e-02) (41, -1.56350255584268016396e-01) (42, 1.52006421191166446460e-01) (43, -1.09991783234113255779e-02) (44, -9.29271490770489094757e-02) (45, 8.75665021287918704518e-02) (46, 1.68999643330367613214e-02) (47, -8.49498714122067372090e-02) (48, 1.29293403085615123821e-02) (49, -9.81484774813946164729e-02) (50, 4.61023668763801963699e-02) (51, 6.84667358679163368107e-02) (52, -1.47464265668270838594e-01) (53, -6.05746846632209123840e-02) (54, 2.23951606088227360425e-02) (55, -1.62791481328367376724e-01) (56, -6.66935611209803769217e-02) (57, 5.80548246972576766078e-03) (58, -9.96944833501351157512e-02) (59, -2.01012598446924199702e-02) (60, -1.40120941153305283988e-01) (61, -4.97210052551525574782e-02) (62, 1.66165915025823542062e-02) (63, -1.94399459665336976633e-01) (64, -1.50077070418186547807e-01) (65, -5.12297381187557729354e-02) (66, -7.66070401290381702841e-02) (67, -6.40351309003977658962e-02) (68, -1.10682483313076673870e-01) (69, -1.57035629636267173859e-02) (70, -9.95301760299929262621e-03) (71, -1.27405365563748901314e-01) (72, -2.42010195492331561806e-02) (73, -7.44615490842422816931e-02) (74, -2.01650468925634283879e-02) (75, -4.96521027578448390094e-02) (76, 1.29870800447261791621e-01) (77, -1.18056410361426361577e-01) (78, -2.33297829148025118173e-02) (79, 5.51849039894139054008e-02) (80, -4.00109960609389692099e-02) (81, -1.07683010035348192268e-01) (82, -5.69338016677642458352e-02) (83, 1.08402058315615213574e-02) (84, -9.10085475580418336305e-03) (85, 1.14139569066883467263e-01) (86, -1.69951344730872894173e-01) (87, -7.41009008005395486407e-02) (88, -4.66111227476325648555e-02) (89, 4.81657693128736963395e-02) (90, -1.65473194982244664608e-01) (91, 3.36387424886878602659e-02) (92, -5.30823506092819377700e-02) (93, -2.54625991231754500443e-01) (94, 5.15446113109882808612e-02) (95, -4.31236363854055962386e-02) (96, -7.89421716503822638866e-03) (97, -1.74046612679436774052e-01) (98, -4.00495744638689685213e-02) (99, 5.33013385131220485125e-02) (100, -1.47472732445345616759e-01) (101, 1.47093858899084578562e-02) (102, 3.19401873378483483479e-02) (103, -2.10728421549200073404e-01) (104, -4.91789220516498579161e-02) (105, -5.63631981639936829875e-02) (106, 1.05356895459048832686e-01) (107, 2.76620707402274235154e-01) (108, -1.97373401562208686255e-02) (109, -1.13034797848931750641e-01) (110, -4.91580289196924882789e-02) (111, 5.63956861593737507343e-02) (112, -2.66885679965566139857e-03) (113, -8.15006504730488301469e-02) (114, -2.35979956539277002658e-03) (115, -5.45107227232998550748e-02) (116, -8.62743419698854333011e-03) (117, -7.66205100850971404514e-02) (118, 2.06734122778589289593e-02) (119, -7.71720932361081579653e-02) (120, 2.75608407031416209609e-02) (121, -3.83933590883289085904e-02) (122, 3.02301048771578192986e-02) (123, -8.42868819370449356976e-02) (124, -5.51218079333574140222e-02) (125, -2.36907556610069625069e-01) (0, 4.34194306056701964658e-02) (1, 1.34561486651236152795e-02) (2, -8.00002801169711064144e-02) (3, -1.50890841361552036082e-01) (4, -7.70765346249684263347e-02) (5, -6.92953684249209417301e-02) (6, -3.45659860333365001606e-02) (7, 7.57979831567523187896e-02) (8, -1.05104508193972642771e-01) (9, -7.97904975616047645870e-02) (10, -1.25742628996906746774e-01) (11, -3.50760936608179030305e-02) (12, -2.95993095949640475095e-02) (13, -4.74014603084069452432e-02) (14, 1.98971771807934551257e-02) (15, 1.07045373389863501812e-01) (16, -1.23154607690498206496e-02) (17, -1.02431514255359928933e-01) (18, -1.21786412176976568955e-01) (19, -9.49708600217897547235e-02) (20, -4.83433246854132608883e-02) (21, -4.96927078571667985019e-02) (22, -3.86104915646855563829e-03) (23, -8.34522997609857680734e-02) (24, -5.71526452600834358742e-02) (25, -8.52117217374794705398e-02) (26, -7.11583244767807418518e-03) (27, 7.79052402071485211588e-02) (28, -1.40358574370351124605e-01) (29, 2.94028027388495011296e-02) (30, -2.71838311643491231662e-02) (31, -3.97911241049278274762e-02) (32, -6.70628700153957091334e-02) (33, -2.92280348082189722625e-01) (34, -2.70598428630805382111e-02) (35, -1.75208646927151295847e-01) (36, -1.13790759931575502506e-01) (37, 9.38739454392186478682e-02) (38, -2.03616943768046371188e-01) (39, -5.17424881629273761274e-02) (40, -2.12270180680744491308e-02) (41, -4.48629315475557732817e-02) (42, 2.78197754806239171133e-02) (43, 5.79242244065842140643e-02) (44, 7.54123836240719325197e-02) (45, -1.42452077587835058275e-02) (46, 7.20938981408203866108e-02) (47, -5.81975321742146806114e-02) (48, -4.27807757891313089615e-03) (49, 7.70711307891634861411e-02) (50, -1.94669745138330921308e-02) (51, -7.79086292959609710840e-02) (52, -3.59752158129537924491e-02) (53, -1.58646407071098949348e-01) (54, -8.24733382254428520897e-02) (55, 6.58568015634239251055e-02) (56, -5.09200142833592522829e-02) (57, 4.41521169836523244556e-02) (58, 5.63707263226915222809e-02) (59, 4.37628667613290667227e-02) (60, 3.73474955685515518436e-03) (61, -7.36056800219911516736e-02) (62, -1.20825912961545933744e-01) (63, -8.48121242109242251539e-02) (64, -8.94580734783980702218e-02) (65, 9.31156026509979105332e-03) (66, -1.23116554278068709993e-01) (67, -1.69391302069529514629e-01) (68, -1.92710654897624150683e-02) (69, -3.59146628945258561405e-02) (70, 7.40636619345439034534e-02) (71, 7.25072943783297146902e-02) (72, 4.33524693668360036614e-02) (73, -1.37682837845852952541e-02) (74, 5.96941826191956029235e-02) (75, -6.79216288104945442594e-02) (76, 9.24897486542001628917e-02) (77, 3.84029830666886284884e-02) (78, -7.18009720645079591028e-02) (79, 6.05563555805772608248e-03) (80, 7.04369060901989616635e-03) (81, 4.89349745420466150647e-02) (82, -2.03908824274934424858e-02) (83, -2.13389641957742216827e-02) (84, -2.19764755411553186493e-01) (85, 9.62990720468843292013e-02) (86, -2.30000360041319046323e-01) (87, -4.62484190612795706410e-02) (88, 8.25748070023636093762e-02) (89, -8.08196922017940799776e-02) (90, -2.76888653209688084811e-01) (91, 3.86757804388900526538e-03) (92, -3.18236959506581901236e-02) (93, -2.57218085378649652384e-01) (94, -6.19372390679463202812e-02) (95, -6.27075368569424140830e-03) (96, -2.52595636776494492093e-02) (97, -3.26219248885812607153e-02) (98, 3.68158050438595202403e-02) (99, -7.04593618909379465487e-02) (100, -4.90999670491065673406e-02) (101, 2.94498789787274381502e-02) (102, -9.23330910292728124222e-02) (103, -5.44225375632360550138e-02) (104, -1.19089939703327526987e-01) (105, 6.85483551824763170934e-02) (106, -5.33397384623295195416e-02) (107, -2.63830903650003473215e-02) (108, 1.13078589586889741853e-02) (109, 7.10847820934671411480e-03) (110, -1.75292276241238685619e-02) (111, -6.86915870294200620050e-02) (112, -3.54102216528796795436e-02) (113, -4.58931067598505951222e-02) (114, -3.64372510326406743794e-03) (115, -4.18925063678877371287e-02) (116, -1.39273979234215056211e-01) (117, 3.96026479342671128281e-02) (118, -3.25814827201236778542e-02) (119, -9.02552835046733642477e-02) (120, -8.07317869112666730569e-02) (121, 2.31126359645450855929e-02) (122, 2.27564796099536184593e-02) (123, -3.59281576341120567619e-02) (124, 2.26650962376248703289e-02) (125, -1.03633516085849253230e-01) (0, 2.64917537725985127728e-02) (1, 2.98814094305333462220e-02) (2, -3.94739266220244036654e-02) (3, -2.24636328460783672853e-04) (4, 1.77570714177118678390e-02) (5, -1.41296063658431919619e-01) (6, -3.19305842699841413435e-01) (7, 8.79671832795956287754e-02) (8, 4.39819771719757862671e-02) (9, 8.29704030431541172952e-02) (10, -9.88148070133145067784e-02) (11, 1.61446278862509839946e-01) (12, -7.44780324703164242628e-02) (13, -7.12105069122212219757e-02) (14, -4.84440222010875110037e-02) (15, 1.62054440606990896034e-01) (16, -1.68883655506535251822e-01) (17, -7.77666291125355124692e-02) (18, 7.21059178191637145661e-02) (19, -7.32755637345076371592e-02) (20, -8.03724015316476941839e-02) (21, 6.59993297923112173103e-03) (22, -4.97123830192727211852e-01) (23, -5.78333931405457191133e-01) (24, 4.18366914400229494841e-01) (25, 2.00286226285667834368e-01) (26, 7.01163399777500973009e-01) (27, 1.62159841003330168485e-01) (28, -1.17583889904553973160e+00) (29, 6.23156593423947469113e-01) (30, 2.45113183336460149775e-01) (31, -1.11078702702860770968e-01) (32, -2.22608008945107543886e-02) (33, -1.86392584700055208291e-01) (34, 5.96887787385102785986e-02) (35, 2.22987545117245555826e-01) (36, -4.95531120848157147218e-01) (37, -7.76683941881119166428e-02) (38, -4.80655281433352232767e-01) (39, 3.06347170703538007608e-01) (40, -1.18350834063432035909e-02) (41, -1.95002274090349703162e-01) (42, 3.12258369285539072457e-01) (43, -5.16654826565624419876e-02) (44, -3.76938401225978894638e-02) (45, 6.70268720649967036929e-02) (46, 6.08872154909037843762e-02) (47, -6.91615834056104467065e-02) (48, -8.72471008345662157879e-02) (49, -8.05294177893630808152e-02) (50, -1.31057768385941270095e-01) (51, 7.61351305551661444726e-02) (52, -7.61701618322053047860e-02) (53, -9.74359035880346668890e-02) (54, 5.66170150337641953087e-01) (55, -2.19458299233828396657e-01) (56, -2.73472495726831132945e-02) (57, 2.01674760109915862660e-01) (58, 1.40254488442159985784e-02) (59, -1.74617637793642477284e-01) (60, -2.63196773471212584761e-02) (61, -5.63173158172255924891e-02) (62, 2.45073927292549786916e-01) (63, -3.21001398877158172773e-01) (64, -2.53464969055684385957e-01) (65, 1.40481698738513290786e-02) (66, 3.40111197225646047504e-02) (67, -5.60960740089120127316e-02) (68, -4.69975198879202873958e-02) (69, 1.57034404383313702658e-01) (70, 6.80199038723733467871e-02) (71, -1.27546168363935313872e-01) (72, -1.46698838440927209481e-01) (73, 4.08021699851176533613e-02) (74, -3.95305605204992679957e-02) (75, 9.59967394576935299788e-03) (76, 1.57192772086323873104e-01) (77, -1.59665470212855264975e-01) (78, 4.78828153456163016499e-02) (79, 2.59275570313905086295e-02) (80, -1.29118432750225858863e-01) (81, -1.88423587320221991304e-01) (82, 1.07066405678555146008e-01) (83, -6.10882041421983157381e-02) (84, -3.27886620578524412561e-02) (85, 2.01608451845124103663e-01) (86, -1.89468391142402686755e-01) (87, 6.72159505779437727035e-02) (88, 3.25383705257284439050e-02) (89, 4.19526123949430368443e-02) (90, -1.55622845738661141901e-01) (91, 8.78316451886740207078e-02) (92, 7.24072528280545052448e-02) (93, -2.12280283075848036356e-01) (94, -5.44983633303677203474e-02) (95, -8.33838391435718223610e-02) (96, 6.26819352543184771243e-02) (97, -2.35054216094065626663e-01) (98, 1.04875672773614425637e-01) (99, 9.85486015125047326579e-02) (100, -3.97528551381567188394e-02) (101, 2.14051275909711014034e-02) (102, 7.87644531207450093735e-02) (103, -2.99205075182671476064e-01) (104, -3.27549525906673910658e-01) (105, -2.91304279332457759840e-04) (106, 3.04976151570011566605e-01) (107, 4.49824457296364832448e-01) (108, -7.92841772677416734005e-02) (109, -3.28912267709541572547e-01) (110, -6.29498392540686485530e-02) (111, -4.66323510383079217756e-02) (112, -9.72848761743762835419e-02) (113, 4.56278079003052186580e-02) (114, -1.91639372111560402079e-01) (115, 4.40365021074225829190e-02) (116, 1.48452291583473006131e-01) (117, -2.69251128611976142668e-01) (118, 1.56976460111881321868e-01) (119, -1.04715618605636523464e-01) (120, 8.01126839610384750001e-02) (121, -8.41265407834882322780e-02) (122, 2.42985683327719470537e-01) (123, -1.17469426324775291781e-01) (124, -2.24314817456335052759e-01) (125, -1.66044975929720728391e-01) (0, -1.13857336259972713455e-01) (1, -8.65507566534234468181e-02) (2, -1.05823524191083553903e-01) (3, -1.23034019074962377993e-01) (4, -7.29321224564716524136e-03) (5, -5.87584350312798306404e-02) (6, 1.64197488741672174145e-03) (7, 3.03226255250592510379e-03) (8, -1.01688842598709888732e-01) (9, -1.40014936930245775804e-01) (10, -1.28102747601580163606e-01) (11, -7.75729690039830138693e-02) (12, -8.86822629055687185196e-03) (13, -9.36901896993734828456e-02) (14, -8.83681439896173703819e-02) (15, -5.84346382958777499361e-02) (16, 3.77600756473767396049e-02) (17, -7.60931831254966078992e-02) (18, -9.75464542610746630780e-03) (19, 6.22203631890308819785e-02) (20, -2.46370078493473405531e-03) (21, -4.79329808650825681116e-02) (22, -8.37542872456686904314e-02) (23, -1.08028611389287224065e-01) (24, -6.87659398822453114125e-03) (25, 1.21864223946002159238e-01) (26, -4.59677419626280600595e-02) (27, -7.40002265752902760321e-02) (28, -1.62560136150128820010e-01) (29, 4.60578431035559079931e-02) (30, 3.30037438340610653209e-02) (31, 8.05343200839609418829e-02) (32, -5.65601614350104420215e-03) (33, -2.99125414538288780797e-01) (34, -5.32341253494340860275e-02) (35, -2.22246633909501417614e-01) (36, -1.28211860645169373196e-01) (37, -8.11205100248829913401e-02) (38, -2.02144734698591066469e-01) (39, 1.00750788134116239791e-02) (40, -5.13672546324938361639e-02) (41, -1.12971663200653084369e-02) (42, 3.53005466743118515027e-02) (43, 6.75115960124722525038e-02) (44, -1.23338811971874753870e-01) (45, 6.99738086758788513375e-02) (46, -8.75956050220947496365e-02) (47, -1.56653494826702920431e-04) (48, -1.05197264802155951435e-01) (49, 1.76521384269679067203e-02) (50, 1.56054646028094094745e-02) (51, 6.99818734666573794012e-02) (52, -9.13446085051413669831e-02) (53, -1.65830950940048543751e-01) (54, -9.06371131911294786176e-02) (55, 3.32468658948707335155e-02) (56, -6.77079421312800217025e-02) (57, -5.13668420398797759274e-02) (58, 8.29109705300773575098e-02) (59, -1.06097214716985091543e-01) (60, 3.66351178192483167839e-02) (61, -3.37892925614519503211e-03) (62, -1.16835067631176861558e-01) (63, -1.88378397435860600595e-01) (64, -4.14938056631469556756e-02) (65, -1.25508009514574275789e-02) (66, -6.56314274643867850978e-02) (67, -9.14454078571604461745e-02) (68, -2.53953274815379992368e-02) (69, 7.13779110143471506866e-02) (70, 3.42627363391422663699e-04) (71, 3.53581699247012756770e-02) (72, -7.46344720313863851241e-03) (73, -1.15592112190655266213e-01) (74, 2.72851435365251936138e-02) (75, -1.09188665822536515315e-01) (76, 6.55983895996493926450e-02) (77, 4.11869474166437349316e-02) (78, -1.66966101058852421646e-02) (79, 7.70680830420250734258e-02) (80, -2.58072885502206340880e-02) (81, -8.76341409943596355570e-02) (82, -4.77311833226786840639e-03) (83, -9.46222026937147964176e-02) (84, -1.53436194890377686217e-01) (85, 9.40842150959658590770e-02) (86, -1.25751748386880662922e-01) (87, 5.36623968357204800261e-03) (88, -5.22593127664485665451e-02) (89, 6.00001515269984811440e-02) (90, -1.75799496696971091492e-01) (91, -6.77880045343116910406e-02) (92, -5.15341568534865256124e-03) (93, -1.59088684757095144562e-01) (94, -4.76273765371561103033e-02) (95, 8.48945001683309441454e-02) (96, -1.43499489523232715005e-01) (97, 1.62084258086120647224e-02) (98, 3.49218855095811964162e-02) (99, 5.89819580224278279534e-03) (100, -8.12855615168291134598e-02) (101, -6.69471204943525716180e-02) (102, -5.62571354211439875193e-02) (103, -1.20613765039703765836e-01) (104, -1.50721951277454579987e-01) (105, 8.05325314088462945739e-02) (106, 8.22952352470289749675e-02) (107, 1.64395798571562140600e-01) (108, 4.46800109163520073330e-02) (109, -4.27744535262762209937e-02) (110, 1.02566135742954544358e-02) (111, -6.45273750453919936465e-02) (112, 9.46767439248660976070e-03) (113, -5.49990099513308298290e-03) (114, -6.30684899393775116883e-02) (115, 7.56433814755637923266e-02) (116, -1.30408099983366498886e-01) (117, -9.73963699595300214096e-02) (118, -6.16284804021524079687e-02) (119, -8.05606612972066364609e-03) (120, -5.45187651220173652433e-02) (121, -9.18362417160577676478e-02) (122, 4.56576867930468949242e-02) (123, -1.75630709669802077821e-02) (124, -2.98008441641626087987e-03) (125, -2.83776139107074609758e-01) (0, -8.69557301267444293646e-03) (1, 7.92156766118986832570e-02) (2, -3.13997233506755554777e-02) (3, -1.13274504555420249541e-01) (4, -5.38045681095546401984e-02) (5, 4.44079856630524294481e-02) (6, -6.61919447775871916395e-02) (7, 1.27484270032927147348e-02) (8, -1.52535595395116352346e-01) (9, -9.08586218934732542385e-02) (10, -6.09262262754239891649e-02) (11, -1.08765877211896316856e-01) (12, 9.60056473808798375991e-03) (13, -1.00126902338679796278e-01) (14, -1.31218701094229228676e-02) (15, -2.76730703300985952930e-02) (16, -4.09112821021452750803e-03) (17, -1.05505690867841742109e-01) (18, 3.14383543317032013165e-02) (19, 4.07701928950769329485e-02) (20, -1.82579940836008647320e-01) (21, -1.87360344127772832090e-01) (22, -8.33343912533141134569e-02) (23, 6.80347169031808932105e-03) (24, 5.20079248903080951227e-02) (25, -5.53027457695586324715e-02) (26, -2.32283481000472892541e-02) (27, 1.18724920566895108393e-02) (28, 1.62875714453319490882e-02) (29, -3.24040661706784180462e-02) (30, 3.48959896537342773026e-02) (31, -3.56506103729766904431e-02) (32, -1.17132820071769033765e-02) (33, -1.60124850042965033436e-01) (34, 2.02927577539199210932e-02) (35, -1.31791424999018996767e-01) (36, -3.48392244699688158338e-02) (37, -9.74323601079338519337e-02) (38, -1.55547385291371964566e-01) (39, -9.13525202109064099476e-02) (40, 9.00686205398595549076e-03) (41, 5.22769849187885993214e-02) (42, -3.44165237989776037764e-02) (43, -7.32808776626147212463e-02) (44, -9.89215021791907400672e-02) (45, 8.98806409154293550756e-02) (46, 2.70619287502463848338e-02) (47, -2.73776892866409993221e-02) (48, -1.01164348778687129826e-01) (49, 2.74985624046913566462e-03) (50, -6.87413131656617742982e-02) (51, -9.66589495729712755434e-02) (52, -7.54035427953568954118e-02) (53, -1.00430653211888043508e-01) (54, -6.97644029153496464390e-02) (55, 6.20106491783376130578e-03) (56, 5.24931943415581220291e-02) (57, -1.09735496420658273919e-01) (58, -6.04067429588249632522e-02) (59, 2.35233324317219681665e-02) (60, 4.68428505840853409703e-02) (61, 9.48050046755299913315e-02) (62, 3.92125672148804921280e-02) (63, -1.92455119669192042942e-01) (64, 3.32360744684009543071e-02) (65, 5.76724400511595403085e-03) (66, -1.41762149091707895243e-01) (67, -1.92845605908551681607e-01) (68, 8.42365662560854225327e-03) (69, -3.47262942608707533831e-02) (70, 4.87797838327400021252e-02) (71, -6.27778893884574917816e-02) (72, -5.37009040886050406649e-02) (73, -6.76529894604915166267e-02) (74, -1.14099465606016248209e-02) (75, -1.79721665563488036677e-01) (76, -4.49354785076025650681e-02) (77, -8.88428584251436392893e-02) (78, 7.13593178969792740762e-02) (79, -4.93788459372204655007e-02) (80, 1.81138235775771538894e-02) (81, -3.69274571893482353446e-02) (82, -6.47777630790100228397e-02) (83, -2.80609096523415958713e-02) (84, -8.97619906791214394737e-02) (85, 8.45934766313997665854e-02) (86, -1.30278930266861270315e-01) (87, 1.39303401325693715362e-02) (88, -5.98030100850213339192e-02) (89, -6.91024952385948937339e-02) (90, -2.81272453485030937692e-01) (91, -9.39271970083317420119e-02) (92, -8.07304947686125207174e-02) (93, -2.59357605250630340876e-01) (94, -6.11299534451015119663e-02) (95, 7.83770829942387614597e-02) (96, -1.70304948141104008086e-02) (97, -2.56850431478591080536e-02) (98, -1.03849529150059516347e-01) (99, -4.35128191577174375237e-02) (100, -7.05500017793377481867e-02) (101, 8.51326089930923013416e-02) (102, 7.52853250173527582811e-03) (103, 3.86481534888480499079e-02) (104, -9.48907010387618488068e-02) (105, 9.80263259859361357762e-02) (106, -8.16914562873847505120e-02) (107, 4.95738093466993254288e-03) (108, -8.42470996237820596297e-02) (109, -4.48732314966353226793e-02) (110, -3.88106142604990227499e-03) (111, 3.73671487622491624303e-02) (112, 9.82749800135557585734e-03) (113, -8.00992771544704884601e-02) (114, -9.66955053252026019983e-02) (115, -7.78268037819929703325e-02) (116, -1.85373763376594280494e-01) (117, -1.29061247067469492267e-01) (118, 1.53299719219817786459e-02) (119, -5.03344894821894858761e-02) (120, -7.06319026281404527268e-02) (121, -9.05411805532587571355e-02) (122, -6.78026023788475123988e-02) (123, -4.29186080617807025339e-02) (124, -1.02475210816399042724e-01) (125, -1.94260288902754485463e-01) (0, -6.15035983838242497623e-02) (1, -7.22336279047529478126e-02) (2, 8.51324824933619508927e-03) (3, -5.80085914873614619247e-02) (4, -6.11718151351212102718e-02) (5, -2.67307010260344141486e-03) (6, -1.87416197280579344131e-01) (7, 1.20343217747249181526e-01) (8, 9.16654962343804377567e-03) (9, -4.75926032382023578293e-02) (10, -1.49317101353943059577e-02) (11, 2.65274446565978913593e-02) (12, -1.51573579546019132636e-01) (13, 1.10348892396070777377e-01) (14, -8.41451045000780190053e-02) (15, 1.95556959572822430804e-01) (16, -4.29337401646749522444e-02) (17, 2.07819010008117067978e-02) (18, -8.58283646214208911784e-02) (19, -4.74540987490124285819e-02) (20, -9.38325459016815383029e-02) (21, -2.04482961428072484988e-01) (22, -2.80538329672121056202e-01) (23, -3.35946193301796314223e-01) (24, 2.85598296812660468191e-01) (25, 1.55376892719720688385e-01) (26, 2.29030268728541014367e-01) (27, 1.07833781249884103071e-01) (28, -6.60245948821111316995e-01) (29, 3.50305934411471564527e-01) (30, 5.81861875172682840862e-02) (31, -3.71454760751100745986e-02) (32, 7.92999348312606461286e-02) (33, -2.02662986328252692214e-01) (34, 4.60231718014653193305e-02) (35, -5.63467321131066040119e-02) (36, -2.57623526828964721780e-01) (37, 9.79546650939384644374e-02) (38, -4.01944662694677878889e-01) (39, 2.19237902621601393749e-01) (40, -3.56033241603748162873e-02) (41, -1.40363671306081461143e-01) (42, 1.84620618140535125429e-01) (43, -4.89636390890449413327e-02) (44, -1.16385799575339912715e-01) (45, 3.79008079682555953926e-02) (46, -2.95391661163515277522e-02) (47, -6.83067712774471612336e-03) (48, -6.99923296360892982504e-02) (49, -7.68088450847439346836e-02) (50, -7.04140512636905052668e-02) (51, 3.02459749389093687788e-02) (52, -3.80214927539307689930e-02) (53, -2.06211156976968845722e-01) (54, 3.65168949319677582643e-01) (55, -6.69068907581930327755e-02) (56, -6.84562488415278169729e-02) (57, 1.71066797523274881365e-02) (58, 1.57161773661699463722e-02) (59, -1.55352737825727033050e-01) (60, -8.61010896152056143249e-02) (61, 6.68843291475705592486e-02) (62, 5.08960232486932312446e-02) (63, -1.98783359276001575511e-01) (64, -1.97209706536039308666e-01) (65, 1.93137328071443653554e-02) (66, -2.88989181286271323845e-02) (67, -6.29658182467145027816e-02) (68, -6.07336727236749765457e-02) (69, 4.45327281339436414909e-02) (70, 7.30231028009583303662e-03) (71, 3.64804971948447173680e-02) (72, -7.23935575363108402280e-03) (73, -1.25528377770415783266e-01) (74, -4.89904312477550396565e-02) (75, 2.87061695896259731764e-02) (76, 1.87747751439490684344e-02) (77, -7.23502536743082444448e-03) (78, 2.65023330551873541328e-02) (79, 8.28181639945299308270e-02) (80, -8.72890590178135167276e-02) (81, -1.27182154143763187504e-01) (82, -1.26367944274279137007e-01) (83, -1.45009275566491280945e-02) (84, -5.04256237012736460712e-02) (85, -8.17294929443498040234e-03) (86, -1.73599137805656583700e-01) (87, 1.30903895101009207225e-02) (88, -1.95231978453651658367e-02) (89, -1.03901614105012973788e-01) (90, -8.87124699412703138224e-02) (91, 9.76119477019165432408e-02) (92, -1.72632095715815718495e-02) (93, -1.96642220721907512448e-01) (94, 6.66852611458171179448e-02) (95, -2.37299451415232537377e-02) (96, -1.30463494232317039900e-01) (97, -2.12542533015949941522e-01) (98, 9.82988456060997078945e-02) (99, 9.40818175189533784097e-02) (100, -1.44459640050048992999e-01) (101, 9.65060656369636088447e-02) (102, 2.43315325950314437220e-02) (103, -1.39257881958571611003e-01) (104, -2.25090164531673408987e-01) (105, -9.53479752819886561266e-02) (106, 1.22853328007212214690e-01) (107, 2.86751852366979920195e-01) (108, 8.07443429707703913545e-02) (109, -1.89940479321543648217e-01) (110, -1.29376471450388164097e-01) (111, -7.03752202671226873010e-02) (112, -4.32727478799432574430e-02) (113, 1.64236760814700892552e-02) (114, 3.18193862786820894084e-02) (115, 1.05560077205495844721e-01) (116, -1.20523218174303003991e-01) (117, -1.17891928087976063932e-01) (118, 5.27598898008621065847e-03) (119, 3.76105459383675247431e-02) (120, 8.67356327081115346944e-02) (121, -1.28763621789720589250e-01) (122, 1.09138815192916252550e-01) (123, -5.56305567617089297139e-02) (124, -1.32202938349658856432e-02) (125, -1.77264345745478030247e-01) (0, -7.37523091918969864178e-02) (1, -7.42876795088476538087e-02) (2, -4.46253752008402265056e-03) (3, -3.21192730764448888814e-02) (4, 3.66895836608637573861e-02) (5, 1.23710822574476006497e-01) (6, 5.04183271804478083666e-02) (7, -2.97465280785397488683e-02) (8, -3.04642427390560827094e-02) (9, -1.90461751437092735584e-01) (10, -2.95365618462205686834e-02) (11, -1.47202221889389056608e-01) (12, 2.78966697747006948938e-02) (13, -2.25958363625860664259e-02) (14, 6.19082994543134271237e-02) (15, -9.68265591922758961374e-02) (16, 1.18080403177033457784e-01) (17, -8.17173796096132970534e-02) (18, -2.24360893702537055050e-02) (19, 6.76799013120436276925e-02) (20, 2.34027221061471855934e-02) (21, -2.40982384216688022560e-01) (22, 1.99265138586764839479e-01) (23, 1.91760469509303144164e-01) (24, -2.96459051366632697633e-01) (25, -3.52704617791386662584e-03) (26, -3.52468664479212712148e-01) (27, -7.39027761938238769712e-02) (28, 4.78191795761070292947e-01) (29, -2.80225028988024427168e-01) (30, -1.58299647142545130141e-01) (31, 6.61119772619239015610e-02) (32, 3.85549861163643828310e-02) (33, -2.73127416190050376077e-01) (34, 6.67071234130430512632e-02) (35, -3.07088073754132218074e-01) (36, 1.12510880729348606427e-02) (37, 4.94855684151585054065e-02) (38, 1.70055701347175930449e-01) (39, -2.35496843952474804729e-01) (40, 5.84213478247532572163e-02) (41, 6.06548212980282525075e-02) (42, -2.57450308576156805529e-01) (43, -6.79179550842220064455e-02) (44, -7.01454999472910928349e-02) (45, -5.18143524421107934397e-02) (46, 7.31568663016131659482e-02) (47, 6.83370553304076394641e-02) (48, 9.10141099767390465702e-02) (49, 7.78271784669134492063e-02) (50, -3.52501523855818649222e-02) (51, -2.34848479548321262267e-02) (52, -5.76167749879278878744e-02) (53, -1.93694273399592394036e-02) (54, -3.29466768931321485336e-01) (55, 1.91547884655589889524e-01) (56, 5.71090363094066896799e-02) (57, -1.58234031362452343128e-01) (58, 1.03530862048728175551e-02) (59, 1.13217327995754138414e-01) (60, 7.92511849488161529420e-02) (61, 6.02204245419136544037e-02) (62, -2.62880371953793823270e-01) (63, 4.68305826788984608244e-03) (64, 1.48282573210915868955e-01) (65, -1.70517070595884584483e-01) (66, -2.25075005022171786839e-01) (67, -1.30695602781610492604e-01) (68, -9.71080762897150728818e-02) (69, 4.87236895162628247391e-02) (70, -4.24739386012394151693e-02) (71, 8.76561191756058261104e-02) (72, 5.27703253055449919562e-02) (73, 5.53374014616112158693e-02) (74, -4.88704976485132003283e-02) (75, -1.29349779287532329342e-01) (76, 4.25051818139680209763e-03) (77, 8.27236820296081282189e-02) (78, -6.14660041942753851418e-02) (79, -1.26934582979911114720e-01) (80, 6.45704158431512770244e-02) (81, 1.46798932320537839358e-01) (82, 6.39558232393582642983e-02) (83, 4.20807732591807828748e-02) (84, -7.39590991836728411934e-02) (85, -3.25586785765318159624e-02) (86, -2.44953490512311217175e-01) (87, 1.43308723618220112961e-02) (88, 1.17280624842303865529e-01) (89, 1.16972452972399165727e-01) (90, -3.25498601855645885994e-01) (91, 2.72343629158843976434e-02) (92, -6.86760573884404590395e-02) (93, -5.05729139384951259517e-02) (94, -1.02455615758118442904e-01) (95, 1.98092413292712127282e-02) (96, -6.13168381808058896021e-02) (97, 1.17575411446161848250e-01) (98, -1.04113647867452280282e-01) (99, -4.84625795874531195562e-02) (100, -7.87408660041609420599e-02) (101, -1.55651170285808562732e-02) (102, 1.09767555963509594319e-02) (103, 2.08703181326096137704e-01) (104, 1.00489103383820971294e-01) (105, 3.59476171548011522172e-02) (106, -2.52450041757673770970e-01) (107, -3.87243691553632973790e-01) (108, 1.83763806201852133992e-02) (109, 1.17574669894156630390e-01) (110, -1.54306296159459593875e-01) (111, -6.26423829279996041697e-02) (112, 5.78592677251198780203e-03) (113, -9.35891339963677154623e-02) (114, 1.02299932263308107627e-01) (115, -9.56172067815004023128e-02) (116, -2.40108293740459166621e-01) (117, 9.06691431443390344347e-02) (118, -5.61550835129289438452e-02) (119, -5.11516215350917083371e-02) (120, 1.19814667197766476503e-02) (121, -7.27679422438452239152e-02) (122, -4.24148595641740122630e-02) (123, 1.00979943509271641311e-01) (124, -3.76185221424617383112e-02) (125, -2.98495094808303662592e-01) (0, -7.86821011594619756924e-02) (1, -1.75680844713476461139e-02) (2, -1.30078622883336214588e-01) (3, -1.28620584348555465348e-02) (4, -9.89380354350402196895e-02) (5, 1.08242145333721142414e-02) (6, -1.32546447459484600939e-01) (7, 5.88509256537924005381e-02) (8, -6.43212018492633486044e-02) (9, -1.16482365198305390375e-01) (10, -1.01176955380980149179e-01) (11, 5.35528554980531576457e-02) (12, -1.97938993891436480765e-02) (13, 6.37122055174556192053e-03) (14, -5.13511105050667576721e-02) (15, 1.09475467832097578258e-01) (16, 5.68081707835463023404e-02) (17, 5.67197985270845098094e-02) (18, -4.77450947389058133474e-02) (19, -1.42883894739435062665e-02) (20, -9.66368926716116988240e-02) (21, -1.58575888332118164481e-01) (22, -1.05083432044695182506e-01) (23, -1.20475782538477002581e-01) (24, 4.23990224203393273328e-02) (25, -3.75147515463714747996e-02) (26, -2.60096542319607215710e-03) (27, -3.61989716333444289109e-02) (28, -1.60740395149071263470e-01) (29, 1.57888418152417997486e-01) (30, -2.18459110785563896673e-02) (31, 5.48696849095352198744e-02) (32, -2.80236815552961995857e-02) (33, -1.41502928494340401988e-01) (34, 1.87044278711740313836e-02) (35, -1.45206169615644753446e-01) (36, -8.53276592390975752167e-02) (37, 4.86841647689664966392e-02) (38, -2.60858817474607374010e-01) (39, 4.61508460777704659916e-02) (40, -6.59457550156455907242e-02) (41, -3.39029516186663201771e-02) (42, -1.67675841264961211774e-02) (43, 3.12859704325787815749e-02) (44, -7.12735846088201618898e-02) (45, 6.88958114680585792522e-02) (46, 5.39576577233904439157e-02) (47, -1.02116569395781023322e-01) (48, 1.94701848008752669006e-02) (49, -1.00133313366218612561e-01) (50, 1.23295456360686967595e-02) (51, 9.87334090375634465531e-02) (52, -1.03299069704298682182e-01) (53, -1.80466247739364427094e-01) (54, -1.80108696894009934208e-02) (55, 5.11572259677992510762e-02) (56, -3.64414833328348813923e-02) (57, 1.99961228165850060656e-02) (58, -6.35193880799321403119e-02) (59, -1.17784452358305355424e-01) (60, 1.85549582775491406564e-04) (61, 7.31190462941639415101e-03) (62, 5.04703306488857583734e-02) (63, -2.11439670534036588956e-01) (64, -1.09056243087622226073e-01) (65, 3.22790999279606929950e-02) (66, -2.78587556084267037870e-02) (67, -1.09097206052631429118e-01) (68, -6.50197948600469838309e-02) (69, 5.45139831991018897206e-02) (70, -2.05774142207266683147e-02) (71, -1.26537342597592607912e-02) (72, -6.19098434867827313033e-02) (73, 6.65517750208506359694e-03) (74, -5.89454995797040401384e-02) (75, -7.70545864816348097248e-02) (76, 5.30271818337749341332e-03) (77, -1.08908791363524853901e-01) (78, 7.16902122559017473957e-02) (79, -7.24709867582319089419e-02) (80, -6.69293975333216800694e-02) (81, -1.02574572364002875730e-02) (82, -1.30537481632394508635e-01) (83, 2.21117445979049746796e-02) (84, -6.66470419094328248022e-02) (85, 1.38225140815148861417e-02) (86, -1.66283623464582475115e-01) (87, 9.88716024737298637692e-02) (88, -8.68689369384585269307e-02) (89, 5.67128120327818271984e-02) (90, -2.86675923706502855381e-01) (91, 9.02851352040622140427e-02) (92, -7.11668931245337896968e-03) (93, -8.19248829719578935959e-02) (94, 4.50593044358515784631e-02) (95, 2.59496920883609608066e-02) (96, -5.13315610106678671398e-02) (97, -5.26168972404620072236e-02) (98, -6.28977664446693091049e-02) (99, 7.16628837373835120284e-02) (100, -1.39100999490449656060e-01) (101, 9.37945148914234860804e-03) (102, -3.75939924283920506864e-02) (103, -6.97701593913848394646e-02) (104, -1.18671570053863709160e-01) (105, 2.12942968737249299638e-02) (106, -5.58140364462402227552e-02) (107, 1.26850256494427271470e-01) (108, 4.77424873028568716449e-02) (109, -9.61367507727856757116e-02) (110, -8.05324033841092572217e-03) (111, -1.07862935797615216993e-01) (112, 4.51247823507057999048e-02) (113, 7.12529604391426985011e-02) (114, 3.24857264460374633996e-02) (115, -4.95994441300942542905e-02) (116, -1.52462294870787135048e-01) (117, -6.83258623191417280296e-02) (118, -5.46107348385764454490e-02) (119, -4.65881532361704236989e-02) (120, -1.78711961598813848240e-02) (121, -3.09883937011148566376e-02) (122, -7.96266081905349643044e-02) (123, -1.24584034134356692186e-02) (124, -7.85420064837890202769e-02) (125, -2.92267319537633851745e-01) (0, -6.55068948022820840560e-02) (1, -9.79969092844121814068e-02) (2, -1.09605760340496738436e-01) (3, -4.53677427926099524624e-02) (4, 3.90208199362564386870e-02) (5, 8.07772219094810700613e-02) (6, -1.41411398910729346756e-01) (7, -8.14743533852446827348e-02) (8, -7.34733187922509828338e-02) (9, -1.12609083120834785330e-01) (10, -2.83360653107834030429e-02) (11, 5.06385463980822334018e-02) (12, -9.71372138935593099074e-02) (13, -3.33702293123291846011e-02) (14, -8.72360702665937320921e-02) (15, 1.80368548321915636579e-02) (16, 2.09432721799724039236e-02) (17, 5.67826684303220988181e-02) (18, -4.02891112271145795942e-02) (19, -6.97999126714076156830e-02) (20, -1.66108815588481978365e-01) (21, -6.75238015321310697248e-02) (22, 6.98149878186870992414e-02) (23, 5.63762447173485684027e-02) (24, -1.48601792141654226453e-01) (25, -1.29984295453181158964e-01) (26, -6.18953598247390240905e-02) (27, -9.40512654472213383006e-02) (28, -9.10894908959810505923e-04) (29, -9.30814569757968356123e-03) (30, -9.01816440272398128775e-02) (31, -1.01352370858628790251e-01) (32, 4.27360340801780438924e-02) (33, -1.48565894142801746547e-01) (34, 3.21314521265246219595e-02) (35, -1.88458411208358433964e-01) (36, -3.44183369191119721900e-03) (37, 5.33304714162717852233e-02) (38, -1.08884185826066098857e-01) (39, -1.56199209822861589947e-01) (40, -9.20841366181524983991e-02) (41, -5.18557200355255834556e-02) (42, -1.16036807664760169279e-01) (43, -6.56361717413025541612e-02) (44, 6.63321845341042076738e-02) (45, -1.01886321311732572226e-01) (46, 7.99940369870835582544e-02) (47, -5.37453216248335585714e-02) (48, 6.07112925353514160109e-02) (49, -7.78130439454786330261e-03) (50, -2.16491960954242300408e-02) (51, -1.03182613718057286656e-01) (52, -2.20962546300312367986e-01) (53, -7.02057980684284987927e-02) (54, -5.60756379108788699517e-02) (55, -8.66664717327348260723e-02) (56, 1.28436012244761144085e-02) (57, 3.20130038129203611796e-02) (58, -2.21362951716228550936e-02) (59, -2.85910890914410145691e-02) (60, 7.26457158612140926901e-03) (61, 2.05446587505277479535e-02) (62, -1.46955260228327205113e-02) (63, -2.21826027188049001992e-01) (64, -3.01250249895232379005e-02) (65, -1.53640728919214930581e-01) (66, 6.93871731562352711542e-02) (67, -2.18170090403326827344e-01) (68, 6.81127277753313109532e-02) (69, 7.92518795404490404566e-03) (70, -7.20770860642388072614e-02) (71, 1.02332917564578643188e-01) (72, 7.47107476379948315381e-02) (73, -7.46698037087541593992e-02) (74, -7.50759592043956092144e-02) (75, -9.32893043342612610092e-02) (76, -4.04115396767757359409e-02) (77, -1.07697529878026235228e-01) (78, -3.55532248869483910592e-02) (79, -9.42577489783161803771e-02) (80, 7.66270085800776714789e-05) (81, -1.00498133024310487560e-01) (82, -7.25672830734806068032e-02) (83, 3.90808610945614851029e-02) (84, -1.42750830765587394255e-01) (85, -1.20617181053185404394e-01) (86, -1.47921304853260465739e-01) (87, -8.24820383635466863881e-02) (88, 9.45165746758987734832e-02) (89, -4.40277748155022546905e-02) (90, -2.31826131691526493572e-01) (91, 2.14566162477256121288e-02) (92, 5.39972885120373127799e-02) (93, -9.95304379993005028382e-02) (94, -1.24273882572402016855e-01) (95, -3.55514435738540149345e-02) (96, 1.96690831617783237761e-02) (97, 1.19753003331474719428e-01) (98, -2.35690953327070129575e-02) (99, 3.25590990623069592713e-02) (100, -1.72735811177247233772e-01) (101, 3.74588340514724477126e-02) (102, 5.80561868184236579138e-02) (103, -6.88316547656408483924e-02) (104, 3.60209235189036594549e-02) (105, 8.63660863265604816785e-02) (106, -9.54644052713237295515e-02) (107, -7.39940997327839244946e-02) (108, 9.33328841944831427702e-02) (109, 1.48962499598247552360e-04) (110, -7.86719810146873227419e-02) (111, -7.35628952346109761529e-03) (112, -2.06764872037536150129e-02) (113, 4.48194576241126019234e-03) (114, -6.75125700030666381357e-02) (115, 4.55912881504114131381e-03) (116, 3.57134059676486505935e-03) (117, -1.27917763314104482308e-01) (118, -1.51533058526550884482e-01) (119, 3.03862122081025136378e-02) (120, -4.12995501352088206781e-02) (121, -4.41810238253522447049e-02) (122, -6.66192332828998007299e-02) (123, -4.35574887256419546189e-02) (124, -9.38240814901139807969e-02) (125, -2.43877896868535032349e-01) (0, 6.74589720754675964409e-02) (1, -3.27009723139042238205e-02) (2, -1.28360401398161738662e-01) (3, 2.11839632127778336457e-02) (4, -1.22039188759456879163e-01) (5, 1.43834395317806434250e-02) (6, -1.00073991284013896763e-01) (7, 1.06468805080821030118e-01) (8, -4.39905605194878049358e-02) (9, -8.46651940779491601896e-02) (10, -1.31342092504346686505e-02) (11, 1.92593833804236350127e-02) (12, -1.51204452459488630778e-01) (13, 3.84292754240275714547e-03) (14, -7.13284489096885723249e-04) (15, 1.11035560666848262534e-01) (16, -9.81392294573624895948e-02) (17, -1.55275798992014019140e-01) (18, -1.82915370384841013962e-02) (19, -8.08529556548268774074e-02) (20, -8.16143845781471116707e-02) (21, -2.89400862341481324158e-01) (22, -2.44272207189645151892e-01) (23, -3.03895259660127758927e-01) (24, 2.71799298033436442790e-01) (25, 1.45961875040272026638e-01) (26, 1.90287422701505316847e-02) (27, -1.06162926586978994398e-02) (28, -4.12628528720493326087e-01) (29, 2.75475409321078001934e-01) (30, 6.63294408779316613245e-02) (31, 3.02332735551737938340e-02) (32, -6.52045773745265067056e-02) (33, -1.00609071498444002657e-01) (34, 3.58757395055255140504e-02) (35, -2.07797997535940387470e-01) (36, 7.65115066654019175540e-03) (37, -2.68062566676178018477e-02) (38, -3.35358699282163885691e-01) (39, 1.32423459358034678601e-01) (40, -1.22419791786208473350e-01) (41, 1.89533759208232177595e-02) (42, -6.57775341940729924017e-02) (43, -1.43646344866949327024e-01) (44, -3.97339867129499618725e-02) (45, 1.45023966377512747439e-01) (46, 8.71450658528968163941e-03) (47, -1.55759209240091782422e-02) (48, 8.19412169641309806600e-02) (49, 2.56085268999584163285e-02) (50, 4.86910180264743270434e-03) (51, -7.57460014394887443112e-02) (52, 8.98373189215700557186e-02) (53, -1.71374960625327671382e-01) (54, 1.25887671904273523715e-01) (55, -6.42040703732961598460e-02) (56, 5.43203036013290702089e-03) (57, 3.56808807013390960616e-02) (58, 5.14363480014554744213e-02) (59, -5.89798913328615156959e-02) (60, -1.18948632353619750124e-02) (61, -2.97439575146457579891e-02) (62, -1.74149541273807995090e-01) (63, 5.96531946363042381298e-02) (64, -1.04894804617906969857e-01) (65, 1.80280627691425665571e-01) (66, -1.84830576707195132213e-01) (67, -1.74542100723632867543e-02) (68, -6.99993819388603638609e-02) (69, -9.01621037792699336899e-02) (70, 1.26790331262199101880e-01) (71, -7.03976535823810506409e-02) (72, -1.28277052921754425308e-01) (73, 3.32390839997520753935e-02) (74, -4.88237881272890542061e-02) (75, 6.55672273986704703952e-03) (76, 9.75135220039011485493e-02) (77, -1.56048709791549888859e-01) (78, -2.85563270341659264373e-02) (79, 1.10131326772732449082e-01) (80, 2.93915339168185074659e-02) (81, 2.19299079121669376891e-02) (82, -3.00558338380994341521e-02) (83, -1.25648178264574760660e-02) (84, -8.51903638339414348568e-03) (85, 1.72097158225071489301e-01) (86, -2.38208401607705538838e-01) (87, -8.78891475556663609447e-02) (88, 3.57722944610565779522e-02) (89, -1.22242534547969877723e-01) (90, -1.52173390099428124111e-01) (91, 2.55354528589955206974e-02) (92, 3.13226422551598979171e-02) (93, -2.16023310758833519962e-01) (94, 1.95271719501625036497e-02) (95, 2.56583943129836608565e-02) (96, -5.02493739687042426448e-04) (97, -1.32616197638687594029e-01) (98, -2.54339431113770157722e-02) (99, 1.50373888825912158801e-02) (100, 1.99743794187319870237e-02) (101, -8.78698308075939044093e-03) (102, 3.29507369801511837415e-02) (103, -1.35896305209393386537e-01) (104, -1.46713513311595100674e-01) (105, -9.31090193990856823669e-02) (106, -1.33409107466694390465e-02) (107, 2.39343698582588193524e-01) (108, -8.93998608001163597159e-02) (109, -2.88478085102384616822e-02) (110, 5.80099523659455065805e-02) (111, 7.04294876283822479657e-02) (112, 3.86307799285608502449e-02) (113, 1.43742364224816593365e-01) (114, -3.07075704113708158882e-02) (115, 1.00772381115389522005e-02) (116, -9.91929252960565693842e-02) (117, -4.02785283047134845535e-02) (118, 1.64598861828690510266e-03) (119, 9.15749602533861249698e-03) (120, 1.38563013356042624702e-01) (121, -1.48937414042427024308e-01) (122, 9.00259864681272059528e-02) (123, -1.39167460850181029519e-01) (124, -2.40258747991592302995e-01) (125, -2.39487924198484886107e-01) (0, 4.96515427891865077092e-02) (1, 9.57265583473036474338e-02) (2, -5.71325789814020185142e-02) (3, -7.35549434323733292151e-02) (4, -7.30985230151329073989e-02) (5, -6.01182440441203197468e-02) (6, 2.42799224772351426860e-02) (7, 8.94421195928146312015e-02) (8, 1.47874374868294296975e-02) (9, -1.11044658963643183558e-01) (10, 4.10223671527057964781e-02) (11, -1.20205177312454891680e-02) (12, -6.72887259066715873873e-03) (13, -1.27098853329427025072e-01) (14, -6.78122966724107323344e-02) (15, 3.48240337696917312549e-02) (16, -1.18909381578018100156e-01) (17, -1.29995711609147329701e-01) (18, -4.84938860928184056753e-02) (19, 1.31940159900586291737e-03) (20, -1.38415295299517848715e-01) (21, -1.82139080617847004540e-01) (22, -1.03395520848411359704e-01) (23, -6.23531907047259956189e-02) (24, 9.71827641674291448082e-02) (25, 5.47218302422605219239e-04) (26, 8.96973786688773089271e-02) (27, 4.49280832754544168228e-02) (28, -2.61802257503059576660e-01) (29, 1.29615945949347249888e-01) (30, 1.03108593712800192255e-01) (31, -1.84183396193470065583e-02) (32, 3.10689524720453025264e-02) (33, -1.83543774870492309992e-01) (34, 9.91698295685623232298e-02) (35, -4.91322270442121067369e-02) (36, -2.26575229548146607483e-02) (37, 8.98441558121763905742e-02) (38, -1.85390847608428943616e-01) (39, 7.94778661891351323465e-02) (40, -5.88128907561860023168e-02) (41, -1.99602242053980531017e-03) (42, -4.96628753962323407634e-02) (43, 6.45559286125482884033e-02) (44, 3.57912494071879194735e-02) (45, -6.98066499734299392155e-03) (46, 6.68807298970983468700e-03) (47, 2.30685993709116264616e-02) (48, -4.33547707173881427534e-02) (49, 6.58565345173130894940e-02) (50, -4.02931594525360037284e-02) (51, 3.60340835219665617251e-02) (52, -1.99407896684908020335e-01) (53, -5.38131886161272599695e-03) (54, -4.17608888568895900151e-02) (55, 6.61970692153500319538e-03) (56, -3.59340495196588186055e-02) (57, -9.72310659601978988231e-02) (58, -1.75674732598285823770e-02) (59, 4.59226657601493268301e-02) (60, 1.60954082945113721714e-02) (61, -3.69999550920997663517e-02) (62, -2.23907259608318968958e-02) (63, -1.78649745852443225802e-01) (64, 1.69067703201410436675e-02) (65, -1.14153143104008805361e-03) (66, -5.27289702792044928659e-02) (67, -1.07452597753916245793e-01) (68, -3.80467733006170788501e-02) (69, -8.34013001238852469399e-02) (70, 1.73988171336632857500e-02) (71, 2.19840947957750491859e-02) (72, 4.15567177563779324712e-02) (73, -1.55109727770247046025e-02) (74, 5.58848111467289028476e-03) (75, -8.42981150205323048752e-02) (76, 1.05837365913535264017e-01) (77, -8.78161732726678162519e-02) (78, 1.62236239596112545580e-02) (79, -2.17583810742693860296e-02) (80, -8.79764679208966116075e-02) (81, -1.15755737008352663220e-01) (82, 5.05500317009231411869e-02) (83, -7.68108528653129868369e-02) (84, -2.08438958161308113270e-01) (85, -5.61922129411904103398e-05) (86, -3.11604594481639296522e-01) (87, -3.11414556561627267617e-02) (88, -2.61806197012681499126e-02) (89, -3.21760206706237852914e-02) (90, -2.48710260752050854594e-01) (91, -4.09501624528743612963e-02) (92, 6.67263475561351709908e-02) (93, -1.42418364262620805727e-01) (94, -1.91933354337962894243e-02) (95, 2.60755075302050581820e-02) (96, -1.12674340889466428894e-01) (97, 3.55062107022168366166e-02) (98, -2.54962775098092168935e-02) (99, 2.32837651285354371722e-02) (100, -2.28373352477391017290e-01) (101, 7.05290566463627754956e-02) (102, -5.15256201144400141634e-02) (103, -1.47376540184043069298e-02) (104, -1.14120280352719843942e-01) (105, 7.10726161281346885401e-02) (106, 3.24402603877848028091e-02) (107, 4.85707164950056682895e-02) (108, -8.42767330584659885018e-02) (109, -9.77402701716108962549e-02) (110, -4.22963318814929855379e-04) (111, -5.84035170828022046075e-02) (112, -5.88882264885729825310e-02) (113, 3.75805941849114630293e-02) (114, -2.55897475950431808889e-02) (115, -7.24519743794437842688e-02) (116, -1.89852684916001157589e-01) (117, -5.14673094094605099169e-02) (118, -2.64358114200079173661e-02) (119, -3.42428223854721117125e-02) (120, 9.96684229786008180074e-02) (121, 5.67837893528862006076e-02) (122, 4.39087394903543565272e-02) (123, -7.33646065852539778357e-03) (124, -6.27646429694912050268e-02) (125, -2.57974859315362625711e-01) (0, -8.95386775614103180843e-02) (1, 6.88131163073564533494e-02) (2, -7.70976953398140735230e-02) (3, -2.34122095474755646805e-02) (4, -3.46281031764534424910e-02) (5, -9.11748887460474416455e-02) (6, -1.87194650368935039397e-01) (7, 3.73763006726699417714e-02) (8, -7.52187866833131935085e-02) (9, 1.02294852969295899103e-01) (10, -8.61915887128265889583e-02) (11, 1.61560935603608318845e-01) (12, -1.07420789762427817959e-01) (13, 3.61836010799765489532e-02) (14, -1.49803369606858638452e-01) (15, -7.90328193930812938905e-03) (16, -2.89032856760141620978e-02) (17, -2.80760509547343592440e-02) (18, -1.22354604934126458965e-02) (19, -7.74733242605581406970e-02) (20, -1.62091196004974097411e-01) (21, 4.51157170106751270744e-02) (22, -2.29108579685658675373e-01) (23, -3.14184654846874189538e-01) (24, 2.26117509026551616325e-01) (25, 1.01930623828437330602e-01) (26, 3.64678890174165715177e-01) (27, 1.04727456568860718966e-01) (28, -8.26804782773354784986e-01) (29, 3.35124656126907227716e-01) (30, 2.86331347134041146185e-02) (31, 1.59873917947526075767e-02) (32, 1.27355169539975637827e-03) (33, -1.49055136239891028449e-01) (34, 7.02745328884502029609e-03) (35, 1.97982795371351133484e-01) (36, -2.78320570304116554627e-01) (37, -8.49042221516999734421e-02) (38, -4.18471079869377760030e-01) (39, 2.88220448325555933522e-01) (40, -1.05518905999203230217e-01) (41, -3.67741378884895650514e-02) (42, 2.82746359204651576125e-01) (43, -4.36758001978197960002e-02) (44, -4.62261266404199178126e-02) (45, 9.10060161728347694066e-02) (46, -1.12140952245541967308e-02) (47, -1.11775098588342183814e-01) (48, 6.69077627487471848777e-02) (49, -1.09862866177527065958e-01) (50, -1.77938563640039237868e-01) (51, 1.12814546101707123549e-02) (52, -3.97250001409953298892e-02) (53, -7.60909089355414486322e-02) (54, 2.20443823910105696218e-01) (55, -1.68506838546542442314e-01) (56, -6.44202219608459025757e-02) (57, 6.74266151257945089981e-02) (58, 9.35761877309707751360e-02) (59, -6.37817309052831349359e-02) (60, -8.45003463233997831328e-02) (61, -5.78771825603243902925e-02) (62, 2.37545469139031295569e-01) (63, -4.27280306142623300669e-01) (64, -2.61945835057214138075e-01) (65, -4.44110832137708591572e-02) (66, 1.94017931552625894076e-01) (67, -1.55165007507229307793e-01) (68, -1.10405338761567745065e-01) (69, 2.98535038451742326671e-02) (70, -5.92368667799047024514e-02) (71, -1.12936522513466558459e-01) (72, -1.71289299495211544411e-01) (73, 2.68887270435638724153e-02) (74, -2.71287746551330880007e-02) (75, -1.47625615253268838156e-01) (76, 5.33103121750150912850e-02) (77, -1.76594644882934331820e-01) (78, 1.08628418783611555010e-01) (79, 1.19519082407658194106e-02) (80, -7.54437324457500474439e-02) (81, -1.53455597242649177669e-01) (82, 1.00652849141076014550e-01) (83, -1.07055254039122346721e-01) (84, -1.52286777455078903287e-01) (85, 1.18027134698126465184e-01) (86, -2.04619395621973149124e-01) (87, 3.50980004869103426324e-02) (88, -4.25708504652135347190e-02) (89, -8.35146286717243641062e-02) (90, -1.97695156111316966419e-01) (91, 1.67471818494977581215e-01) (92, 2.26353564538580298571e-02) (93, 1.48860424096788398346e-02) (94, -2.43504717813341986510e-01) (95, 7.96342111883194814226e-02) (96, 1.52049280184555740680e-01) (97, -1.29703614035094200174e-01) (98, 6.36503797683610900160e-02) (99, -3.78319154882995889455e-02) (100, -2.95836282268659600536e-01) (101, -8.79252111602605856966e-02) (102, -3.33667562658601368764e-02) (103, -2.01630729198339408992e-01) (104, -1.19174571325340747374e-01) (105, 6.73226957422471822268e-02) (106, 1.48970676249423561455e-01) (107, 7.06405802481068351151e-02) (108, -1.06589312266804750462e-01) (109, -1.90265745753512155458e-01) (110, 6.04603478061807239619e-02) (111, -5.18548306487163282452e-02) (112, -6.19438820931817457627e-02) (113, 3.25570408840996361466e-02) (114, -3.73798247633936389644e-02) (115, 6.32288413839436624908e-02) (116, -4.33197863911065142450e-02) (117, -9.49111209192727706130e-02) (118, 3.53825328816735618087e-02) (119, -5.68877057077827805176e-02) (120, -3.62449132827685066571e-02) (121, -2.00602493688877489553e-02) (122, 5.81034309802514678522e-02) (123, -5.96908388795444472263e-02) (124, 1.27349761515465880607e-02) (125, -1.77765987302419242733e-01) (0, 2.96671246350717898732e-02) (1, 5.66249012889266448156e-02) (2, -1.16934918976373883326e-01) (3, -1.76520308848044440997e-02) (4, 2.96879478621695884477e-02) (5, -3.12853360242540332048e-02) (6, -5.82992372480530748891e-02) (7, -3.86245201267089582897e-02) (8, 6.92168369030187434487e-03) (9, -9.88866167694782555175e-02) (10, -1.49193573135344315084e-01) (11, 1.12189177347476794905e-02) (12, -1.26057032228582936717e-02) (13, -9.85851919854393715648e-02) (14, -5.22811744665202596249e-02) (15, 2.88988402000487374158e-03) (16, -2.21398174637932564079e-02) (17, -7.40466438413488886594e-03) (18, 3.12264518820732882298e-02) (19, -1.08231092309878762503e-01) (20, -1.33427281260704473642e-02) (21, -1.40684342224127012511e-01) (22, -2.45823818628804285913e-01) (23, -9.99849034893946081448e-02) (24, 7.09944791007568187791e-02) (25, 3.36074592338991284812e-02) (26, 1.29574557174620547118e-01) (27, 7.22855105362607275321e-02) (28, -3.47959869922278008936e-01) (29, 1.58517096088701098244e-01) (30, -2.84929611825647591261e-02) (31, 3.45204586715345818071e-02) (32, -4.11971252031195847576e-02) (33, -1.62348505112624413860e-01) (34, -1.15160690473924409716e-02) (35, -1.57871829216671394347e-01) (36, -1.96166655143773599468e-01) (37, -6.66523225292909304862e-02) (38, -2.51336096851773549421e-01) (39, 6.54311053430850358970e-02) (40, 7.61181977128987367914e-06) (41, -7.97859799726832602529e-02) (42, 1.24709932943811899198e-01) (43, -6.70258145428369866980e-02) (44, -1.77151438093565496978e-02) (45, 3.55965734077469883601e-02) (46, 2.67669586066435162205e-03) (47, -1.06111867784052793517e-01) (48, -9.46795558983274943010e-02) (49, -9.38938314033758991695e-02) (50, -1.00508536924549252145e-02) (51, 1.96134367892555686042e-02) (52, 4.11542234482108106736e-03) (53, -1.06665825503533068241e-01) (54, 1.41515640390363045542e-01) (55, -1.70486909292128702154e-01) (56, -9.99040840179336447902e-02) (57, -1.25468211803467372123e-02) (58, 6.76489780492928183264e-02) (59, -1.30383668075699926669e-01) (60, 3.66925509727164880780e-02) (61, -9.79031062709825594670e-02) (62, 8.64497644071573340119e-03) (63, -1.10206973441879241271e-01) (64, -3.56836325742003954153e-02) (65, 4.18112413828431849633e-03) (66, -8.82535019345866006413e-02) (67, -6.08004754199473404497e-02) (68, -1.51862206198134785939e-02) (69, 2.91847039262510266067e-02) (70, 2.36030171188115582559e-02) (71, -8.79742700077655592761e-02) (72, -1.02518397380549047826e-01) (73, -5.77900267014493304596e-02) (74, -2.73919971927852126670e-02) (75, 1.24407137693497977897e-03) (76, 8.60844280724245847214e-02) (77, -1.50040619399170099824e-01) (78, -8.51497189943940524515e-02) (79, 1.09071063735098269798e-01) (80, -6.95503623669148085540e-02) (81, -2.79431999695901253644e-02) (82, -7.25706384451454689088e-02) (83, -1.01605075717529400037e-01) (84, -1.11952053636653905966e-01) (85, -4.85498803413631774273e-02) (86, -2.36280432137893986466e-01) (87, -7.27508064024270373338e-02) (88, -3.11129465026035584296e-02) (89, -9.39948468754607108222e-02) (90, -2.26294356400101565052e-01) (91, 3.44354956804582236149e-03) (92, -2.85793659108338655994e-02) (93, -3.13196852044297258111e-01) (94, 5.40194729008637714029e-02) (95, 6.14848574472197373364e-02) (96, -4.90304046143485022791e-02) (97, -1.83487204881262827572e-01) (98, -9.68762158100926369653e-03) (99, -3.66159929059894848069e-02) (100, -5.71220213761429018023e-03) (101, 9.28176183114590713785e-02) (102, -2.92203807900902681749e-02) (103, -6.23416531532841253216e-02) (104, -1.23091492732118612530e-01) (105, 6.45792010898857959944e-02) (106, 9.02406726323610464124e-02) (107, 1.56174864974963661934e-01) (108, 7.67117785711180222297e-02) (109, 1.30605886922801409100e-02) (110, -1.52007970152848642664e-01) (111, -7.50724429381497276870e-02) (112, 7.39953119372181093542e-04) (113, 4.50132649303198947854e-02) (114, -6.80481278841463671503e-02) (115, 1.08419918843995280455e-02) (116, -8.73841456471373262405e-02) (117, -2.35583469378182336351e-02) (118, 5.23004615103319220326e-02) (119, 7.30233172962604509815e-02) (120, 1.18491440081020638075e-01) (121, -1.09081140419929265017e-01) (122, -3.85263453266152704549e-03) (123, -1.62998445602176050828e-01) (124, -1.63907065599829149249e-01) (125, -2.96735749530173120725e-01) (0, 4.18986170753303105441e-02) (1, 7.29382045837141806954e-02) (2, -1.23118364215067430112e-01) (3, -1.56849234060055603424e-01) (4, -1.08368638255869717546e-01) (5, 9.61486728089003400699e-02) (6, -3.87833847044260840442e-02) (7, -3.98073513153915925500e-02) (8, -3.72828614887093165442e-02) (9, -3.32275471429244670385e-02) (10, -5.23184197309403756226e-02) (11, -7.16468813926073866405e-02) (12, 1.26318182990107358288e-01) (13, -1.18146704882161973638e-01) (14, 5.16357551086927130113e-02) (15, -9.13715539862792504311e-03) (16, 3.80008463869872040175e-02) (17, -6.67929019568671705764e-02) (18, -5.91122960722908347142e-02) (19, 9.06657866862764089122e-02) (20, -1.42029035343728456814e-02) (21, -2.11603632102468908194e-01) (22, 2.21129270926511800610e-01) (23, 2.30714834258392786914e-01) (24, -2.68654554616941432243e-01) (25, -9.64948970198537814280e-02) (26, -2.00938874333589645449e-01) (27, -7.38232216485867343003e-02) (28, 2.18119115083406700517e-01) (29, -2.84751870009518737170e-01) (30, -9.32166279413821213806e-02) (31, -4.31325956028720675084e-02) (32, -9.33276788268637275126e-02) (33, -2.03138039164959038896e-01) (34, 2.96757742527987630754e-02) (35, -3.39387012509826113682e-01) (36, 2.70831302035876991807e-02) (37, 9.51790829402071464349e-02) (38, 2.81847315972127386574e-02) (39, -2.93079950274326483939e-01) (40, 5.94910302349311581604e-02) (41, 8.64157095626794519161e-02) (42, -9.49822763946858023010e-02) (43, 2.22272189462272597160e-02) (44, -6.17998627949434414797e-02) (45, -1.04054220891539872529e-01) (46, 1.46633226788487041475e-02) (47, 7.31500273150694716590e-03) (48, 1.15167652422378842536e-02) (49, -4.94032072816397091475e-02) (50, -2.52202591747776039277e-02) (51, -5.15208403055217659117e-02) (52, -1.82434184164479845647e-01) (53, -1.89242970771186624912e-01) (54, -2.30407393399439774928e-01) (55, 1.48358036129505443251e-02) (56, -1.76339746286567206068e-02) (57, -2.92753428427110079513e-02) (58, 2.73630651997486470939e-02) (59, 1.61153975755522899105e-01) (60, 8.36325674286683140579e-02) (61, -8.26093331222970128636e-02) (62, -2.05075748873292884600e-01) (63, -2.28021876697628300690e-02) (64, 7.52080220233120461115e-02) (65, 1.66859062941003013190e-03) (66, 7.94962825307665363339e-03) (67, -3.16162181224810337477e-02) (68, 6.95674618456377374942e-02) (69, -2.20337671889186473284e-02) (70, -1.48150265734402902806e-01) (71, 8.91672780028927511320e-03) (72, 3.23868202478309052950e-02) (73, 2.39642007833559059216e-02) (74, -5.92882530228541343442e-02) (75, -1.15778027960273921515e-01) (76, -1.03887393905915184633e-01) (77, 6.84524726807151373542e-02) (78, -6.47304699607235273229e-02) (79, -2.39067873618070692032e-02) (80, 4.88762229941374359843e-02) (81, 9.26476091245549832065e-02) (82, -1.27145486064909302160e-01) (83, 1.08191270096312741611e-01) (84, -1.06009733135878525534e-01) (85, 3.24317834465098694952e-02) (86, -2.96663048006155005698e-01) (87, -6.05347783943232520265e-02) (88, 5.72106219110661284866e-02) (89, 6.40995518735397867838e-02) (90, -2.97843220984323309164e-01) (91, -2.92995937445564881563e-02) (92, -6.90312347913930000887e-03) (93, -1.58563505200610133095e-01) (94, -7.14120704059048871937e-02) (95, -2.71361063552812628585e-02) (96, 1.01678796568751093204e-02) (97, 8.90845256456814782453e-02) (98, -1.21930023721653568725e-01) (99, -1.88795734079661332860e-02) (100, -7.05475793965327450247e-03) (101, -2.80403883649466625916e-02) (102, -6.91072478943652868111e-02) (103, 4.73439416370762464203e-02) (104, 2.70760438316268899073e-02) (105, -4.19200342597130237721e-02) (106, -2.42745452004552830783e-01) (107, -2.70271205536351089016e-01) (108, 6.98165053846627192691e-02) (109, 4.74721028500676572870e-02) (110, -1.88804795825485816074e-01) (111, 1.55773091244668180494e-02) (112, -1.00028669637061140563e-01) (113, -1.73773914425637887593e-01) (114, -9.33054580913004853737e-03) (115, 4.22402887424277589945e-02) (116, -2.01157323585519159925e-01) (117, -6.57251947595056864454e-03) (118, -2.05297088516430692451e-01) (119, 5.07404916022920274288e-02) (120, -1.32952969718733715609e-01) (121, -4.37912449080276322544e-02) (122, -1.21024796679172444436e-01) (123, 1.41990440992353195160e-01) (124, -1.03648808455305288523e-01) (125, -1.61101172315457563666e-01) (0, -7.40964914429822346653e-02) (1, -4.88306188222190351578e-02) (2, -1.86827328075928777995e-01) (3, -9.17358191853602789045e-02) (4, 5.50541853634410535689e-02) (5, -1.01819489867843351871e-01) (6, 2.72158168752497557977e-03) (7, -7.37566227171336796786e-02) (8, -8.86311791019861322516e-02) (9, -2.06063231581350980726e-01) (10, -1.09624925855139970787e-01) (11, 1.07946561817188705495e-02) (12, -4.05787589013618596456e-02) (13, -1.45370416421401166263e-01) (14, 5.11697647845054601201e-02) (15, -1.84139354525707683863e-02) (16, 1.60915613057908621353e-02) (17, 5.21873953100497750546e-02) (18, -4.96585379134450999317e-02) (19, 7.07986721866518675661e-02) (20, -4.94260542266166599812e-02) (21, -1.50076452637777302268e-01) (22, -8.88939530479783412975e-02) (23, -7.33534227846987900434e-03) (24, -3.41757860201288635182e-02) (25, -1.43863147288071265006e-02) (26, 6.60749976311439390919e-02) (27, 2.02396185771130457387e-02) (28, -1.68865508520971513429e-01) (29, -3.12655722197973315324e-02) (30, -4.65380346901535027482e-02) (31, -2.44828392136743795693e-02) (32, -9.13828150016488677254e-03) (33, -2.50631306403263698357e-01) (34, 9.35724409270650148152e-02) (35, -2.12794964522391716333e-01) (36, -6.72230746197576972678e-02) (37, 6.57075326436390161344e-02) (38, -1.88546023240415611122e-01) (39, 1.78143931080564608960e-02) (40, 5.31073739313581150157e-02) (41, -7.62578565826689449419e-03) (42, -3.57958962195579558085e-02) (43, -6.34595594567110982132e-02) (44, 3.63051292908384143354e-02) (45, -3.76154348819948067262e-02) (46, 3.10434738328168903509e-02) (47, -6.09069572981057738570e-02) (48, -8.42279664458993604370e-02) (49, -8.74691951085540680966e-02) (50, -1.73959791265860287679e-02) (51, 7.10635885628748825704e-02) (52, -1.08815276950480335771e-01) (53, -4.73730165215633866604e-02) (54, -2.19698597212064118678e-02) (55, 3.76155818980431141951e-02) (56, -4.58688563982971864164e-02) (57, 7.12312823856510544257e-03) (58, 6.96641896987585523826e-03) (59, -1.56401257914157744422e-02) (60, 3.31181719101256086257e-02) (61, 6.94840631819627907451e-02) (62, -1.53567155714784159271e-01) (63, -1.93514141350372315120e-01) (64, -5.78751976256445949121e-02) (65, 8.94785801325537477613e-02) (66, -1.60695966320858474319e-02) (67, -1.21890696139703866296e-01) (68, 4.97100653460767483161e-02) (69, -7.84638967506551820996e-02) (70, 3.74226958891217750813e-02) (71, 2.28469533812578791399e-02) (72, 8.33895352738703160567e-02) (73, -1.24307479772586368383e-01) (74, 6.23069092540418506543e-02) (75, -6.21526768583436084459e-02) (76, -2.32370296627632359765e-02) (77, -1.63992963255224014074e-02) (78, -2.08165754640724162683e-02) (79, -1.02256060758511811704e-02) (80, 3.16145773232749185966e-02) (81, 6.45626477955353050842e-02) (82, -9.27261861044241242347e-02) (83, -4.42016250944692948299e-02) (84, -7.88946438708415104246e-02) (85, -7.48368461383307759238e-02) (86, -2.94909007418576396553e-01) (87, -9.63849349340041572365e-02) (88, 3.05486975972943247681e-02) (89, 5.74717019709091794799e-02) (90, -2.37779440503732841794e-01) (91, 2.16930394102293928882e-02) (92, 3.78374117888681318900e-02) (93, -2.25286030836119366416e-01) (94, 5.80409843758197957486e-02) (95, 9.59475963703929624060e-02) (96, -4.98851772149738054152e-02) (97, -6.06637135181944345957e-04) (98, 2.25085292511313164732e-02) (99, -3.51740440526650335884e-02) (100, -9.22654932416681616836e-02) (101, -1.34438658273796085574e-02) (102, 9.79737686622704218031e-02) (103, -3.62699879986075335303e-02) (104, -6.41400219445290298292e-02) (105, 7.96952304389850624267e-02) (106, 7.05501847717941981547e-03) (107, 1.36987367031385059990e-01) (108, -8.43121618859263982637e-03) (109, -1.02854858240893090593e-01) (110, -1.11033668312326333494e-01) (111, -6.65419380251129344295e-02) (112, -1.03841754648676620754e-01) (113, 1.56710005493550831590e-02) (114, -7.28026063107223720544e-03) (115, -7.47515362941748671012e-06) (116, -7.01260372944538107332e-02) (117, 2.71104407516337547746e-02) (118, -5.15708690549460894298e-03) (119, -4.11667397782081792568e-02) (120, 5.45748226094861996205e-02) (121, -4.56854583512879067198e-02) (122, 6.37057205178984259364e-02) (123, -5.56804959942623287072e-02) (124, -3.58062221830265647871e-02) (125, -1.90740940508396628061e-01) (0, -6.32371948011499901421e-02) (1, -2.28131882832937650518e-03) (2, -1.27427395769992124475e-01) (3, -1.17134011305809623837e-01) (4, 2.82704171922445110510e-02) (5, -7.87167521423012828130e-02) (6, -1.13930953532916781623e-01) (7, 7.10391308128618392814e-02) (8, -1.46359378332089562491e-01) (9, -1.51022443651492338512e-01) (10, -6.52816931154643620427e-02) (11, 9.06646947897311733522e-02) (12, 3.11426960022407536832e-02) (13, -8.32830481674910333423e-02) (14, 4.20493191596732276971e-02) (15, -3.71490235383790112778e-02) (16, -7.06194690163773342029e-02) (17, 7.21815532171077439694e-02) (18, 5.35390259012642685810e-02) (19, 6.70262950688602088256e-02) (20, -1.13096087076433829410e-01) (21, -5.47361361230124451871e-02) (22, -9.15856313063280191855e-02) (23, -1.49597714737955411746e-01) (24, -1.54764219030808867356e-02) (25, 9.73228952479344641691e-03) (26, 2.90203029279037516552e-01) (27, 9.74495412117647036299e-02) (28, -3.68435679226216228344e-01) (29, 1.54461828412649382347e-01) (30, 9.01247911268245605054e-02) (31, -1.02448950779959538360e-01) (32, -8.28691082316503901950e-02) (33, -2.33256496370546406727e-01) (34, -3.02634500751413348940e-02) (35, 1.58747739906109110175e-02) (36, -1.87828979743985685635e-01) (37, 7.90817500700317088658e-02) (38, -2.78608144067272078814e-01) (39, 5.86225028088724689490e-02) (40, 7.46320348325500287912e-02) (41, -1.26503046748869196758e-01) (42, 5.55489749856249853677e-02) (43, 7.85447262200192897197e-02) (44, -6.51751421872298203342e-02) (45, 1.28749746206462234444e-01) (46, -6.18393356736942900742e-02) (47, -1.26899916244948163940e-02) (48, 3.46939568426359382092e-02) (49, -1.05828182589787600509e-01) (50, -9.69417898517600379327e-02) (51, -1.61718130516128946739e-02) (52, -1.33576428498918126087e-01) (53, -5.78170751792330406271e-02) (54, 9.10712425273605269416e-02) (55, -8.44784262512331823869e-03) (56, 7.00068138727070743421e-02) (57, 1.95055569994524967414e-02) (58, 4.33927539682798582565e-02) (59, -1.19370841807395974832e-02) (60, -1.21761307104190863448e-01) (61, 1.43731976447984965972e-02) (62, 2.10854798811675014925e-01) (63, -2.98704625154845415658e-01) (64, -9.53195072224386485971e-02) (65, -3.34838073001591587929e-02) (66, 5.60900601227820247430e-03) (67, -2.46830092624700125903e-01) (68, -9.20314273346314187796e-02) (69, 1.04984672632710662743e-01) (70, 1.95471169498389468755e-03) (71, -9.45391562422840531221e-02) (72, -1.48363424017786543763e-01) (73, 8.85381430087192264344e-03) (74, -1.16851992708989729786e-01) (75, -1.80375924605711057680e-01) (76, 6.50753586681698525940e-02) (77, -1.24991004176035813700e-01) (78, -3.18822012654919467733e-02) (79, -1.22991874136926977734e-02) (80, -3.56912066418277190705e-02) (81, -1.73732746615085816011e-02) (82, 5.81080919598283632266e-02) (83, -9.70048556945024564868e-02) (84, -2.05977735141470358338e-01) (85, 1.08641868717111372833e-01) (86, -1.22620542385393396789e-01) (87, 8.17533740848805368095e-02) (88, -4.51631269027283344109e-02) (89, 5.89112107064398374950e-03) (90, -1.90725312621442932848e-01) (91, 8.56917495314750421453e-02) (92, -5.62477290914141642153e-02) (93, -1.14699642088579245591e-01) (94, -1.85075606067096248841e-01) (95, 6.89296327558104882094e-02) (96, 7.67067789023697932382e-02) (97, -1.31350929229455404279e-01) (98, 1.61977758492203083307e-01) (99, -7.97623161288968096638e-02) (100, -3.05774288467214105935e-01) (101, -2.49116960899784523065e-02) (102, -5.26669245610672798197e-02) (103, -2.09925613261020244105e-01) (104, -2.85960369062415696584e-02) (105, -4.57716274772097947432e-02) (106, 7.19812440223934202344e-02) (107, 9.74374355330031444167e-02) (108, 1.71280007239051207391e-02) (109, -3.93845829165892155621e-02) (110, 7.18012754413487330751e-02) (111, -9.66648425773344172063e-02) (112, -5.74015528924131102073e-02) (113, 7.11205721241857935500e-02) (114, -7.04221228301381702019e-02) (115, -1.10886114529064258583e-01) (116, -5.60193888609582246740e-03) (117, -1.32043427629594728456e-01) (118, -6.07071036054816701166e-02) (119, 4.58808700852246162394e-02) (120, -8.93462340082136069475e-02) (121, 1.38999703929527339274e-02) (122, 3.87640603099499575501e-02) (123, -1.38302621138565923209e-01) (124, -8.73622151276338271275e-02) (125, -1.86644072053150811286e-01) (0, -9.64968351734857843205e-02) (1, -3.96115298417125394348e-02) (2, -3.80719596459478670791e-02) (3, 1.46478411408517451842e-02) (4, -4.97531889227576934465e-02) (5, -9.78905430197044290619e-02) (6, -9.11794743316322597870e-02) (7, 2.19557529647840914133e-02) (8, -1.42827559065514420045e-01) (9, -1.45603808998203632097e-01) (10, 2.66969775780499900264e-02) (11, 2.63865325720058774284e-02) (12, 4.72609355390028532118e-02) (13, -4.12228166683108118717e-02) (14, -6.29579243973624053110e-02) (15, 5.62223538139354425680e-02) (16, 3.77187684039338860797e-02) (17, -2.61890676815964076884e-02) (18, -1.09930678105360137703e-02) (19, -1.13141000614749784314e-01) (20, -2.94232389849307662821e-02) (21, -2.05462255168778973324e-01) (22, -5.79222829248550175052e-02) (23, -1.23458233939000266988e-01) (24, -8.37986802580704820409e-02) (25, -3.39504426566439240776e-02) (26, 2.18637879338038389199e-02) (27, 3.30360738144685195383e-02) (28, -8.57781273820361900295e-02) (29, -5.80950649779316749544e-02) (30, -4.62128225601920530896e-02) (31, -1.06338684624138679266e-03) (32, 1.50211877565262844070e-02) (33, -2.55630836301282304834e-01) (34, -3.89761138927357392303e-03) (35, -1.06785807140155161732e-01) (36, -6.90119865744931587637e-02) (37, 5.72546433807111163072e-02) (38, -1.34242328070026867293e-01) (39, -9.61671084651828100842e-02) (40, -9.68066453956765299305e-02) (41, -3.23476765991154019408e-02) (42, -1.16726493816590642938e-01) (43, 5.50861825876027694227e-02) (44, -1.09395112396499100127e-01) (45, -3.91272442391793970340e-02) (46, 3.72463889119296898134e-02) (47, -1.42395423411885262144e-03) (48, 3.98638538153127872099e-02) (49, -4.83873669093853805978e-02) (50, 1.98805067676517815967e-02) (51, -2.43145127417193802899e-03) (52, -1.46715508995043347751e-01) (53, -1.58623552148767332781e-01) (54, -6.94821490964766669274e-02) (55, -1.80890219706133364985e-02) (56, -3.44393100133435353660e-03) (57, -6.91916225670305001794e-02) (58, -6.39153139876620923765e-02) (59, -1.09330275071279153787e-01) (60, 1.20013361410703980198e-02) (61, -2.51056339216935596112e-03) (62, -4.36459061637030423797e-02) (63, -1.87853149386064510740e-01) (64, 3.94028014211531274480e-02) (65, -9.75732517185456671438e-02) (66, -1.21976386378036941172e-01) (67, -2.24663897271122847688e-01) (68, 4.63347731782109764631e-02) (69, 2.69253664498688739803e-02) (70, 7.65349007225124815940e-04) (71, 7.04198258409918231848e-02) (72, -7.66100345597576920520e-02) (73, -2.60981071718259065306e-02) (74, 5.15034122006256186999e-02) (75, -1.79901480741660013685e-01) (76, 7.14121594207902526952e-02) (77, -2.02320224144287227896e-02) (78, 7.60206098185497308739e-02) (79, 1.43839651317450648027e-02) (80, 4.85964637353818590393e-02) (81, 4.80996695817056535427e-02) (82, -1.16032578421755724896e-01) (83, -6.15677029491529040350e-02) (84, -4.16433653763336533715e-02) (85, 3.32176587269340586883e-02) (86, -1.75044415859774232791e-01) (87, -1.77182990903898898716e-02) (88, -9.85970648169795932381e-02) (89, 7.64389823600313128571e-02) (90, -2.31312815488418421772e-01) (91, 4.33270129029599687653e-02) (92, -1.68401882449855030965e-02) (93, -1.02619272561564625623e-01) (94, 6.81408584619001000959e-02) (95, -5.89002953305884369151e-02) (96, -1.45818602034686439772e-01) (97, -8.30208616941835453318e-02) (98, -7.81980992962845872229e-02) (99, 6.55360796259215477866e-02) (100, -5.88423543491222167390e-02) (101, 5.90099293218542403361e-02) (102, 4.56167719605083954448e-02) (103, -1.58669279087776893267e-01) (104, -8.49780423992397837551e-02) (105, 3.54929849203559650422e-03) (106, -1.01313433600083283026e-01) (107, -2.73592463936021823567e-02) (108, -9.83333266599078631431e-02) (109, -6.88415100425823767161e-02) (110, -1.24369612947509717432e-02) (111, 5.77724947062809718323e-02) (112, 9.61649786574074877388e-02) (113, 6.94084992069517597857e-02) (114, -1.01907077045342506216e-01) (115, 4.02435804156995521885e-02) (116, -1.08865246442866742127e-01) (117, 5.64442924079718022501e-03) (118, -8.67381793482931984229e-02) (119, -2.01667545845793470122e-03) (120, 4.12607546790709767137e-02) (121, 1.33199708170062252471e-02) (122, -8.58112860977023605979e-02) (123, -9.68518281175370643332e-02) (124, -3.18109487828822160016e-02) (125, -2.81554930909030998176e-01) (0, -6.19608438484616497188e-02) (1, 4.53076853908615032052e-02) (2, -1.52594785099180785259e-01) (3, -7.13343732141625136434e-02) (4, -1.29269078246653998376e-02) (5, -6.22941840025318036012e-02) (6, -7.95053733803871842678e-02) (7, -4.59134672649728903249e-02) (8, -1.46820117038808595211e-01) (9, -6.30014375754804900609e-02) (10, -3.82465120182378336394e-04) (11, -4.17235888633891230382e-02) (12, 8.81332993456935276377e-02) (13, -5.58919491192048142197e-03) (14, 2.87257987440477126351e-02) (15, 1.38734571256007074153e-02) (16, 4.68494729691251235448e-02) (17, 8.75219021127980612018e-03) (18, -2.31822271979511586315e-02) (19, 1.79035327772242951194e-02) (20, -1.08477982258131530613e-01) (21, -2.11646554627490213196e-01) (22, 1.48953846764300866512e-02) (23, 9.12490941900434004985e-02) (24, -2.42026427089700631179e-02) (25, -1.05892767831043052573e-01) (26, -5.85245226091070588903e-02) (27, 6.10631430827089996538e-02) (28, -7.02231389391143462353e-02) (29, -8.63422034064318527635e-02) (30, -1.13716272486993008606e-01) (31, -1.86195276786570891592e-02) (32, -8.45310736936490669802e-02) (33, -2.43707130296395013680e-01) (34, -8.49407832688209712968e-02) (35, -2.03583829085992290553e-01) (36, 6.54804604723594613214e-03) (37, -9.78359464233509446007e-03) (38, -5.28366183618852597315e-02) (39, -4.92693191213000106221e-02) (40, -6.78377867803116874068e-02) (41, 1.75605809496336175146e-02) (42, -1.10787539654222902397e-01) (43, -7.73515336584690293975e-02) (44, -1.22797720942627894107e-03) (45, 5.11291428346470205879e-02) (46, 7.55321683171254615319e-02) (47, -9.01132207046560912422e-02) (48, -2.35599582426594886253e-02) (49, 3.87284675945292209201e-03) (50, 4.86852817102416263184e-02) (51, 7.20080251624453798742e-02) (52, -1.27272601440366450731e-01) (53, -1.14416709981817327213e-01) (54, -9.40784326112630159278e-02) (55, -5.31151663336209278743e-02) (56, 2.70997541338168640435e-03) (57, -6.38613844594119878240e-02) (58, -4.45679258677054226934e-02) (59, 5.06008150342684495659e-02) (60, 2.83254415612377921652e-02) (61, -2.03942383351964316718e-02) (62, -1.21598513039755370957e-01) (63, -1.02053327955035758046e-01) (64, 8.44214194488555336182e-02) (65, -8.69884796525548092960e-02) (66, -6.07802766243181469275e-02) (67, -1.63325861986953368987e-01) (68, 4.41445162956948453092e-02) (69, -3.32005049880439509491e-02) (70, -6.22250621577820836605e-02) (71, 8.78500486986611983653e-02) (72, -5.94989716830001263981e-02) (73, -3.89864423603536736085e-02) (74, -8.75174825357753205513e-02) (75, -8.97166207908526719406e-02) (76, -4.12672185021482965106e-02) (77, 8.02316745724683255681e-02) (78, -8.44043408571555214825e-02) (79, 2.42790276596835941092e-02) (80, -9.88404028532461481626e-03) (81, -8.44873912454057046650e-02) (82, -6.44749879000953811381e-03) (83, -7.31058171994268674032e-02) (84, -1.51678358871497026561e-01) (85, -1.91059172098648477611e-02) (86, -2.59955871459118970090e-01) (87, 9.92695755216415898214e-02) (88, 7.75001995849223940249e-02) (89, 5.06466953629872845832e-02) (90, -2.03706475668922387667e-01) (91, 2.01063278280882856697e-02) (92, -9.45498763183200002791e-02) (93, -1.17486561025928012980e-01) (94, -3.38346809765265321701e-02) (95, -9.46874776063483386546e-02) (96, -1.26512643479109010425e-01) (97, 1.25670491866700068107e-01) (98, -3.38281037236592696527e-02) (99, 6.05477378932335191797e-02) (100, -1.84211315378109863339e-01) (101, 6.99981121532337602353e-02) (102, 7.15534947298987755726e-02) (103, -3.44444481859413204061e-02) (104, -6.02582395875761456239e-02) (105, 8.95856788906130019345e-02) (106, -7.91847138744138367983e-02) (107, 6.62747773728819718209e-03) (108, 7.65527595233278512765e-02) (109, 1.83752251736818104921e-02) (110, -9.95664702002746898613e-02) (111, -2.86503609136085114761e-02) (112, 1.05327801853037621854e-02) (113, -1.16050132951039053353e-01) (114, -8.24891767533096099962e-03) (115, -1.44058379938266284404e-01) (116, -7.83631094249986059896e-02) (117, 5.91584119625172127899e-02) (118, -1.65910346409268549817e-01) (119, -1.15358368085483452975e-02) (120, 3.16050455586946721365e-02) (121, 3.77120276203687446182e-02) (122, -1.11667331148934845242e-01) (123, 7.36675290325359277688e-02) (124, -4.82832917521859861232e-02) (125, -2.26646329133837837189e-01) (0, 8.04393674123188434644e-02) (1, 1.05144001153814573013e-01) (2, 7.16907729290420792090e-02) (3, -1.11144066225392815217e-01) (4, 3.58084124372342535447e-02) (5, -6.94782031328826377159e-02) (6, -4.16474306322689225013e-01) (7, 1.00620348571037854235e-01) (8, -7.93677258812874319993e-02) (9, 2.20238290126877428454e-01) (10, -1.41884973199890213058e-01) (11, 4.36128571912436258096e-01) (12, -2.08140163794950927567e-01) (13, 7.36174576215470853613e-03) (14, -1.71344859061629772867e-01) (15, 4.26276341715345341576e-01) (16, -1.58607527867339420657e-01) (17, -5.46816388512660900290e-02) (18, 4.57139396601457873026e-02) (19, -2.08586563506760885867e-01) (20, -2.11644834263974485067e-01) (21, -4.67621124954034003696e-02) (22, -8.68618183997043047384e-01) (23, -8.51662576825025441352e-01) (24, 8.24596285591434163820e-01) (25, 9.17402660472666497959e-02) (26, 9.82502447720367433348e-01) (27, 8.99463572631010593872e-02) (28, -1.67549330502197402204e+00) (29, 8.56540600881968927638e-01) (30, 3.07615832768149022325e-01) (31, -2.17794801506278473680e-02) (32, 1.08850002048164612445e-02) (33, -1.28453011507342618192e-01) (34, -6.75155974740623832098e-02) (35, 4.98443267393006872457e-01) (36, -7.31488665969097451303e-01) (37, -1.41002108581395543818e-02) (38, -7.69714408359233881463e-01) (39, 5.78259361362337132029e-01) (40, -1.36798534012780304003e-01) (41, -1.99115754601391858891e-01) (42, 5.69011893910883581604e-01) (43, -1.14222668139605285087e-01) (44, -8.72913202213311811839e-02) (45, 2.00505494197657702093e-01) (46, -6.22816413353208808701e-02) (47, -1.97495375502710096560e-01) (48, -6.15809176155091009264e-02) (49, -1.78202181697757811030e-01) (50, -2.81993221589881826183e-01) (51, 1.35522107712792230783e-02) (52, 8.02036188835013319487e-02) (53, -1.86637999906666962602e-01) (54, 7.78727624642581495173e-01) (55, -3.29828197358338182088e-01) (56, 3.79265802044656819003e-02) (57, 1.78851603341735637676e-01) (58, -6.83329068993464988635e-02) (59, -2.55556817079910347790e-01) (60, -1.50990324274163034701e-01) (61, -1.91919008516288180921e-01) (62, 3.89890048032278224710e-01) (63, -3.36968074580240362081e-01) (64, -5.02464342261997987116e-01) (65, 7.83327984827136281076e-02) (66, 1.07235037343984096481e-01) (67, -2.56062917915662775770e-02) (68, -4.93161087623073118857e-02) (69, 5.99738357649381367831e-02) (70, 2.31996629650371322118e-01) (71, -6.00816945324585960364e-02) (72, -5.41432978975025999691e-02) (73, 6.41826291616960781239e-02) (74, -1.32081320258707501925e-01) (75, -1.72154122249142671475e-02) (76, 1.15261741143549492628e-02) (77, -2.13351809146709064935e-01) (78, 3.39086004892649103826e-02) (79, 1.59250757208753562777e-01) (80, -4.57491401200097458357e-02) (81, -1.35391650108446864875e-01) (82, -5.76524121337510797591e-02) (83, -1.17505730555745729893e-01) (84, -3.34269921064001759858e-02) (85, 2.19023381152926854831e-01) (86, -2.07155596490636750850e-01) (87, 8.86245292778987947546e-02) (88, -6.63089213719429693139e-02) (89, -6.96027010388210187752e-02) (90, -1.14397243876804749485e-01) (91, 1.16505671662242155096e-01) (92, 1.71567026447289189273e-01) (93, -2.02782667469610572430e-01) (94, -4.67953775382732237165e-02) (95, -5.02660980487778380477e-02) (96, 4.00039718516597003761e-02) (97, -4.72856057447290922813e-01) (98, 1.93237801436803496857e-01) (99, 6.24332616754139438364e-02) (100, -1.83415592017765055610e-01) (101, -5.06229356955429157794e-02) (102, -8.05977076194838715217e-02) (103, -3.50799444925294134912e-01) (104, -3.90481053572143022024e-01) (105, -4.88561069392873387196e-02) (106, 2.29341859592563257486e-01) (107, 7.35995867899366551512e-01) (108, -1.26578894649247486459e-01) (109, -4.20850362284107493149e-01) (110, 2.05854017516326273651e-02) (111, 2.86896258436030310301e-02) (112, -1.11636023154138772084e-01) (113, -3.48231879459867318949e-02) (114, -1.91121623811524615766e-01) (115, 1.35390245648288359837e-01) (116, 3.53571578987428747354e-01) (117, -3.97777598612723326532e-01) (118, 2.54431567958514570638e-01) (119, -2.26710336237957110761e-01) (120, 1.12319942807778294647e-01) (121, -1.36257654863857852190e-01) (122, 9.86399766927742727152e-02) (123, -3.26083089434907213988e-01) (124, -1.23033573696358311533e-01) (125, -1.46206871934686233327e-01) (0, -3.45484877200254794638e-02) (1, 5.72116718925556461128e-02) (2, -8.00347053162877575261e-02) (3, -1.02690115213985039971e-02) (4, 6.48296495920069049124e-02) (5, 5.72080584749381088061e-02) (6, 3.26929560626909865295e-02) (7, -9.57822930047730614067e-02) (8, 6.13497132227315035424e-03) (9, -1.43467482659372841391e-01) (10, -6.37022118696941863636e-02) (11, -4.41765354743784074976e-02) (12, -1.47150416357771183368e-02) (13, -3.15934346435604654357e-02) (14, 3.94650593452336162503e-02) (15, 4.19507806691644805682e-04) (16, -1.51589236218394006472e-02) (17, 2.20553883780037936202e-02) (18, -1.12691380585402105979e-02) (19, 5.69390303766504277116e-02) (20, -1.68632870434254483749e-01) (21, -1.23464987539801882011e-01) (22, 3.72643823265269846789e-02) (23, -6.12676774843677884874e-02) (24, 9.28425435372817325907e-02) (25, -2.30965995059559739411e-02) (26, -1.00487150525112672872e-01) (27, -9.41001427822412139790e-02) (28, -1.60766662299468982011e-01) (29, 2.92733783984880334417e-02) (30, 5.32021737084539050877e-02) (31, -1.02803024032384060504e-01) (32, -2.93356992019071990963e-02) (33, -2.14272473910777389028e-01) (34, 5.35984729952882557602e-02) (35, -1.91646799474912032935e-01) (36, -1.20814193041447331955e-01) (37, 4.74080339619224258585e-02) (38, -2.11366925669620009387e-01) (39, -1.09578569109876233778e-01) (40, 5.04566495769518952308e-02) (41, 2.86801692878060898728e-02) (42, -3.24196802868139677400e-02) (43, -5.69212348166644871439e-02) (44, -4.60698448959997661212e-02) (45, -7.45116453827625868644e-02) (46, 5.77222997135796028756e-02) (47, 2.12984034162892119091e-02) (48, 