FANN_FLO_2.1
num_layers=3
learning_rate=0.700000
connection_rate=1.000000
network_type=0
learning_momentum=0.000000
training_algorithm=0
train_error_function=1
train_stop_function=0
cascade_output_change_fraction=0.010000
quickprop_decay=-0.000100
quickprop_mu=1.750000
rprop_increase_factor=1.200000
rprop_decrease_factor=0.500000
rprop_delta_min=0.000000
rprop_delta_max=50.000000
rprop_delta_zero=0.100000
cascade_output_stagnation_epochs=12
cascade_candidate_change_fraction=0.010000
cascade_candidate_stagnation_epochs=12
cascade_max_out_epochs=150
cascade_max_cand_epochs=150
cascade_num_candidate_groups=1
bit_fail_limit=3.49999999999999977796e-01
cascade_candidate_limit=1.00000000000000000000e+03
cascade_weight_multiplier=4.00000000000000022204e-01
cascade_activation_functions_count=10
cascade_activation_functions=3 5 7 8 10 11 14 15 16 17 
cascade_activation_steepnesses_count=4
cascade_activation_steepnesses=2.50000000000000000000e-01 5.00000000000000000000e-01 7.50000000000000000000e-01 1.00000000000000000000e+00 
layer_sizes=126 33 3 
scale_included=0
neurons (num_inputs, activation_function, activation_steepness)=(0, 0, 0.00000000000000000000e+00) (0, 0, 0.00000000000000000000e+00) (0, 0, 0.00000000000000000000e+00) (0, 0, 0.00000000000000000000e+00) (0, 0, 0.00000000000000000000e+00) (0, 0, 0.00000000000000000000e+00) (0, 0, 0.00000000000000000000e+00) (0, 0, 0.00000000000000000000e+00) (0, 0, 0.00000000000000000000e+00) (0, 0, 0.00000000000000000000e+00) (0, 0, 0.00000000000000000000e+00) (0, 0, 0.00000000000000000000e+00) (0, 0, 0.00000000000000000000e+00) (0, 0, 0.00000000000000000000e+00) (0, 0, 0.00000000000000000000e+00) (0, 0, 0.00000000000000000000e+00) (0, 0, 0.00000000000000000000e+00) (0, 0, 0.00000000000000000000e+00) (0, 0, 0.00000000000000000000e+00) (0, 0, 0.00000000000000000000e+00) (0, 0, 0.00000000000000000000e+00) (0, 0, 0.00000000000000000000e+00) (0, 0, 0.00000000000000000000e+00) (0, 0, 0.00000000000000000000e+00) (0, 0, 0.00000000000000000000e+00) (0, 0, 0.00000000000000000000e+00) (0, 0, 0.00000000000000000000e+00) (0, 0, 0.00000000000000000000e+00) (0, 0, 0.00000000000000000000e+00) (0, 0, 0.00000000000000000000e+00) (0, 0, 0.00000000000000000000e+00) (0, 0, 0.00000000000000000000e+00) (0, 0, 0.00000000000000000000e+00) (0, 0, 0.00000000000000000000e+00) (0, 0, 0.00000000000000000000e+00) (0, 0, 0.00000000000000000000e+00) (0, 0, 0.00000000000000000000e+00) (0, 0, 0.00000000000000000000e+00) (0, 0, 0.00000000000000000000e+00) (0, 0, 0.00000000000000000000e+00) (0, 0, 0.00000000000000000000e+00) (0, 0, 0.00000000000000000000e+00) (0, 0, 0.00000000000000000000e+00) (0, 0, 0.00000000000000000000e+00) (0, 0, 0.00000000000000000000e+00) (0, 0, 0.00000000000000000000e+00) (0, 0, 0.00000000000000000000e+00) (0, 0, 0.00000000000000000000e+00) (0, 0, 0.00000000000000000000e+00) (0, 0, 0.00000000000000000000e+00) (0, 0, 0.00000000000000000000e+00) (0, 0, 0.00000000000000000000e+00) (0, 0, 0.00000000000000000000e+00) (0, 0, 0.00000000000000000000e+00) (0, 0, 0.00000000000000000000e+00) (0, 0, 0.00000000000000000000e+00) (0, 0, 0.00000000000000000000e+00) (0, 0, 0.00000000000000000000e+00) (0, 0, 0.00000000000000000000e+00) (0, 0, 0.00000000000000000000e+00) (0, 0, 0.00000000000000000000e+00) (0, 0, 0.00000000000000000000e+00) (0, 0, 0.00000000000000000000e+00) (0, 0, 0.00000000000000000000e+00) (0, 0, 0.00000000000000000000e+00) (0, 0, 0.00000000000000000000e+00) (0, 0, 0.00000000000000000000e+00) (0, 0, 0.00000000000000000000e+00) (0, 0, 0.00000000000000000000e+00) (0, 0, 0.00000000000000000000e+00) (0, 0, 0.00000000000000000000e+00) (0, 0, 0.00000000000000000000e+00) (0, 0, 0.00000000000000000000e+00) (0, 0, 0.00000000000000000000e+00) (0, 0, 0.00000000000000000000e+00) (0, 0, 0.00000000000000000000e+00) (0, 0, 0.00000000000000000000e+00) (0, 0, 0.00000000000000000000e+00) (0, 0, 0.00000000000000000000e+00) (0, 0, 0.00000000000000000000e+00) (0, 0, 0.00000000000000000000e+00) (0, 0, 0.00000000000000000000e+00) (0, 0, 0.00000000000000000000e+00) (0, 0, 0.00000000000000000000e+00) (0, 0, 0.00000000000000000000e+00) (0, 0, 0.00000000000000000000e+00) (0, 0, 0.00000000000000000000e+00) (0, 0, 0.00000000000000000000e+00) (0, 0, 0.00000000000000000000e+00) (0, 0, 0.00000000000000000000e+00) (0, 0, 0.00000000000000000000e+00) (0, 0, 0.00000000000000000000e+00) (0, 0, 0.00000000000000000000e+00) (0, 0, 0.00000000000000000000e+00) (0, 0, 0.00000000000000000000e+00) (0, 0, 0.00000000000000000000e+00) (0, 0, 0.00000000000000000000e+00) (0, 0, 0.00000000000000000000e+00) (0, 0, 0.00000000000000000000e+00) (0, 0, 0.00000000000000000000e+00) (0, 0, 0.00000000000000000000e+00) (0, 0, 0.00000000000000000000e+00) (0, 0, 0.00000000000000000000e+00) (0, 0, 0.00000000000000000000e+00) (0, 0, 0.00000000000000000000e+00) (0, 0, 0.00000000000000000000e+00) (0, 0, 0.00000000000000000000e+00) (0, 0, 0.00000000000000000000e+00) (0, 0, 0.00000000000000000000e+00) (0, 0, 0.00000000000000000000e+00) (0, 0, 0.00000000000000000000e+00) (0, 0, 0.00000000000000000000e+00) (0, 0, 0.00000000000000000000e+00) (0, 0, 0.00000000000000000000e+00) (0, 0, 0.00000000000000000000e+00) (0, 0, 0.00000000000000000000e+00) (0, 0, 0.00000000000000000000e+00) (0, 0, 0.00000000000000000000e+00) (0, 0, 0.00000000000000000000e+00) (0, 0, 0.00000000000000000000e+00) (0, 0, 0.00000000000000000000e+00) (0, 0, 0.00000000000000000000e+00) (0, 0, 0.00000000000000000000e+00) (0, 0, 0.00000000000000000000e+00) (0, 0, 0.00000000000000000000e+00) (0, 0, 0.00000000000000000000e+00) (126, 4, 5.00000000000000000000e-01) (126, 4, 5.00000000000000000000e-01) (126, 4, 5.00000000000000000000e-01) (126, 4, 5.00000000000000000000e-01) (126, 4, 5.00000000000000000000e-01) (126, 4, 5.00000000000000000000e-01) (126, 4, 5.00000000000000000000e-01) (126, 4, 5.00000000000000000000e-01) (126, 4, 5.00000000000000000000e-01) (126, 4, 5.00000000000000000000e-01) (126, 4, 5.00000000000000000000e-01) (126, 4, 5.00000000000000000000e-01) (126, 4, 5.00000000000000000000e-01) (126, 4, 5.00000000000000000000e-01) (126, 4, 5.00000000000000000000e-01) (126, 4, 5.00000000000000000000e-01) (126, 4, 5.00000000000000000000e-01) (126, 4, 5.00000000000000000000e-01) (126, 4, 5.00000000000000000000e-01) (126, 4, 5.00000000000000000000e-01) (126, 4, 5.00000000000000000000e-01) (126, 4, 5.00000000000000000000e-01) (126, 4, 5.00000000000000000000e-01) (126, 4, 5.00000000000000000000e-01) (126, 4, 5.00000000000000000000e-01) (126, 4, 5.00000000000000000000e-01) (126, 4, 5.00000000000000000000e-01) (126, 4, 5.00000000000000000000e-01) (126, 4, 5.00000000000000000000e-01) (126, 4, 5.00000000000000000000e-01) (126, 4, 5.00000000000000000000e-01) (126, 4, 5.00000000000000000000e-01) (0, 0, 0.00000000000000000000e+00) (33, 4, 5.00000000000000000000e-01) (33, 4, 5.00000000000000000000e-01) (0, 4, 0.00000000000000000000e+00) 
connections (connected_to_neuron, weight)=(0, -1.24306437613690340394e-01) (1, -1.16978354981327803408e-01) (2, -3.90953814872739349728e-02) (3, 6.35171551342319506972e-02) (4, -3.24796550915288223527e-02) (5, 3.62201858250240302239e-02) (6, -2.65694151085134029969e-03) (7, -1.06394652023497779392e-01) (8, 1.17504720048295097090e-02) (9, 6.14727902357764671715e-02) (10, 1.09568277876586073205e-01) (11, -1.00504653162609328132e-01) (12, 1.04480158220082650078e-01) (13, 5.40405056957049129140e-02) (14, -1.90705100896926965648e-02) (15, -4.23593074677400815986e-02) (16, 1.25851288640481645542e-01) (17, 8.09854231006117558644e-02) (18, -2.31341605282137707800e-01) (19, -5.07463832700526043529e-02) (20, -1.19686690898316516751e-01) (21, 1.16138836197508824033e-01) (22, 2.51072084523845273640e-01) (23, 2.68262923899083793877e-01) (24, -3.49519748529933838022e-01) (25, -1.21753353452957194247e-01) (26, -4.18345016556613102932e-01) (27, -1.21401758806580026967e-02) (28, 4.41439984664728335417e-01) (29, -1.98543972829435921845e-01) (30, -7.89460333624374260841e-02) (31, -5.80097083114245112845e-02) (32, -7.83925494684658691336e-02) (33, 1.17212826855817870558e-02) (34, -6.16686276036296290859e-02) (35, -2.72819140867693432639e-01) (36, 1.86932591760754829302e-01) (37, -5.19737902391521552903e-02) (38, 4.31538024204408177109e-01) (39, -4.69079504959494908434e-01) (40, 7.86628263719092203632e-03) (41, 1.75782172845916490056e-01) (42, -3.36155631519488629078e-01) (43, 4.16829167412056250663e-02) (44, 4.24687107287121459742e-02) (45, -2.26289708602034678186e-01) (46, -1.57220208461000474087e-02) (47, 4.28756857802675972469e-02) (48, 8.51041532708816522712e-02) (49, 2.38442754157840407225e-02) (50, 3.26627848445870117011e-02) (51, -1.04655779036777682456e-01) (52, -2.86767384563319016610e-01) (53, 1.92563430626409293200e-01) (54, -4.24384171956404654402e-01) (55, 8.89211042618725244768e-02) (56, 7.96620807373833589304e-02) (57, 4.18644775746649308590e-02) (58, -2.28142759437006056866e-02) (59, 2.22315023224906697930e-02) (60, 1.60011394060507960990e-01) (61, -1.14452068652987584696e-01) (62, -3.33254042914680415066e-01) (63, 2.12514156389465830310e-01) (64, 1.11102352828429423726e-01) (65, -2.07323951069187828455e-01) (66, -8.51775190081000138642e-02) (67, -4.29331794227515509133e-02) (68, 3.42941033571947731518e-02) (69, -2.44368023821051084943e-02) (70, -6.87095676538429928071e-02) (71, 1.17532069918300674516e-01) (72, -1.05093129765630385886e-03) (73, -4.22428367186150274804e-02) (74, 2.12385391473925155825e-02) (75, 9.98007932905628780684e-02) (76, -7.68047980773060856574e-02) (77, 1.79703973059152172231e-01) (78, -7.08658559818568373201e-02) (79, -8.19525165583714354511e-02) (80, 5.51947377612393812185e-03) (81, 1.19091400908150804594e-01) (82, 1.49646616111610755023e-02) (83, 5.24460560851283535966e-02) (84, -8.11963978390283919184e-02) (85, -2.17985961379555337469e-01) (86, -1.44071958890294754552e-01) (87, -2.24205465602956149906e-02) (88, 7.11928273427411273389e-02) (89, 3.51485341257607164511e-02) (90, -2.32652642493880179586e-02) (91, -8.56870014421582115727e-02) (92, -3.74249205909058801911e-02) (93, 5.89319695665069514384e-03) (94, 5.93796765286764508668e-03) (95, 3.09948368891304198991e-02) (96, -1.02957341147313960472e-01) (97, 3.22715880293921453248e-01) (98, -5.00377912921960970455e-03) (99, -1.89301982544538456577e-02) (100, -1.50557126875987129511e-01) (101, -1.04240149881543939236e-02) (102, 6.49076169715466499976e-03) (103, 2.35625382190872478816e-01) (104, 3.63519111803096095503e-01) (105, 9.79270902164936507539e-02) (106, -1.03994076641854962806e-01) (107, -5.00201160053570403896e-01) (108, 2.56329445912272697872e-02) (109, 7.16013389834903868358e-02) (110, -1.74380555481875282320e-01) (111, 6.30279168154114360911e-02) (112, 1.52193902923993928944e-01) (113, -2.41169117058592202829e-01) (114, 8.11309015071645517336e-02) (115, -2.13929268458554200372e-02) (116, -5.16983194233425064068e-02) (117, 1.43652651662599023519e-01) (118, -8.65750294237414563803e-02) (119, -1.04417201184923591484e-01) (120, -1.15154347455644449905e-02) (121, 7.38685657183723726193e-02) (122, -1.34706432784129304103e-01) (123, 1.82002188129112812964e-01) (124, 1.72276271882562420634e-01) (125, -3.42593337121569543879e-02) (0, -2.02000351261992332208e-02) (1, 1.36964382436387005493e-01) (2, -1.07847244067509256960e-01) (3, -6.11647254094285705572e-02) (4, 1.79689531260280449532e-02) (5, 5.80944816139002534472e-02) (6, -5.43885598942449588478e-02) (7, 2.16755239716271627670e-02) (8, 2.12655755565549081654e-02) (9, -5.05440680002114464675e-02) (10, -2.50560406882049724331e-01) (11, 7.56639625529186704567e-02) (12, -1.81052723960077516230e-01) (13, -9.09181954342878212438e-03) (14, -1.01486910894317494680e-01) (15, 5.36352899393887569413e-02) (16, -6.11287579328375560439e-02) (17, -3.21464760199510965477e-02) (18, 4.46447701758369702718e-02) (19, 3.99716912396264403839e-02) (20, 6.09028323274403010634e-02) (21, -5.78902876661326337704e-02) (22, -3.10541240707308152658e-01) (23, -2.68805127649252517674e-01) (24, 2.74778379291959862218e-01) (25, 4.74290786301227078672e-04) (26, 3.19702980224218169525e-01) (27, 8.28765911787377046460e-02) (28, -3.89266251601411150673e-01) (29, 1.50775748067707882072e-01) (30, 4.45519137642595847160e-02) (31, -9.82529586433819185354e-02) (32, -1.43426948501571213668e-02) (33, 1.09717618505986991284e-02) (34, -3.84019428998521317187e-02) (35, -2.99629171761777030047e-02) (36, -6.15848201069424464049e-02) (37, 9.72369400372645048547e-02) (38, -3.87136533153353223913e-01) (39, 2.69340831424761950608e-01) (40, -2.09672714978289681520e-02) (41, -1.40048691737596459062e-01) (42, 5.38901677166392853446e-02) (43, 5.87367975749575749189e-02) (44, 4.79648409045197315903e-02) (45, 6.37314075202799201758e-02) (46, -7.16683552711931126655e-02) (47, -1.53486278521906133188e-01) (48, 3.25078441283476946011e-02) (49, -7.06464462227587297605e-02) (50, -1.21482544304034184579e-01) (51, 4.57444817855737900780e-03) (52, 3.43352179989787065217e-02) (53, -2.59827061703631068124e-01) (54, 3.00344245430484046988e-01) (55, 2.95844955033191256769e-03) (56, -1.29270257491920226300e-03) (57, -4.75684811677033053678e-02) (58, -4.50640261369053343743e-02) (59, -1.21969293750600227266e-01) (60, -2.19316117113778852321e-01) (61, 7.90272823507995880732e-02) (62, 1.36873630915136906827e-01) (63, -1.76575568709174679505e-01) (64, -1.53945154152545560233e-01) (65, 2.29325686215600316187e-01) (66, -1.60201616798921128715e-02) (67, -4.75540602843447443582e-02) (68, 1.29995652978516680609e-02) (69, 8.23659259770451734894e-02) (70, 1.14609349859036927649e-02) (71, -9.53337512139331710870e-02) (72, -1.28497324237097032551e-01) (73, -1.17782267093399818647e-02) (74, -8.99196068062624309647e-02) (75, -3.64555180059352029742e-02) (76, 1.44278563530825687522e-01) (77, -1.64661903268081860618e-01) (78, -1.68239955650160907807e-02) (79, 1.84757846861586354226e-02) (80, -3.89483382725470672625e-02) (81, -7.03217715720190900131e-02) (82, 5.75152724864441342034e-02) (83, 2.32332569249897175068e-02) (84, 7.06437678629812625120e-03) (85, 1.40234937723604208282e-01) (86, -1.36616570255301633674e-01) (87, -7.38080272273425180840e-02) (88, -9.55985898327497973792e-02) (89, -6.63358784140348641499e-04) (90, -1.73591917602239159679e-01) (91, 2.78781329349444759180e-02) (92, -5.36960487512777671221e-03) (93, 3.02006868981493752091e-02) (94, -7.79474815370904544620e-02) (95, 8.77025561437391465436e-02) (96, -1.11012638812385978221e-02) (97, -2.64305718998929517483e-01) (98, 9.17714696793458101221e-02) (99, -2.68247639537430616896e-02) (100, -9.17975487311589316564e-02) (101, 9.09594930292590142518e-02) (102, -4.20643628323728174800e-03) (103, -2.60540434893304473363e-01) (104, -2.14616956976513145738e-01) (105, 2.17377802097598570030e-02) (106, 1.46669754606686020271e-01) (107, 2.50788315118772420220e-01) (108, -7.30927332753945890875e-02) (109, -2.01311935374071160343e-01) (110, 4.97145383480803448872e-02) (111, 5.13160386469763696304e-02) (112, -1.43232197696072423992e-02) (113, 2.59349985721465503552e-01) (114, -7.06497986960538115753e-02) (115, -9.84206677734586893314e-02) (116, -5.44962082558890018036e-02) (117, -6.92437497060069406807e-02) (118, -1.59832433844088774022e-02) (119, 2.01265577960501845789e-01) (120, 8.02465562610089194751e-02) (121, -3.50589270428289384585e-02) (122, -6.80076512623787321488e-02) (123, -4.41617705880994679268e-02) (124, -1.37268114685161729538e-01) (125, -6.22475545337866573159e-02) (0, 9.87853623520387399970e-03) (1, -9.15844860651186948308e-02) (2, 6.72778042492336823821e-03) (3, -8.38671156723088812024e-02) (4, -1.03568155556228336245e-01) (5, 9.90918357586480641475e-02) (6, -8.26702144078239192782e-02) (7, 3.34014670912156363958e-02) (8, -1.82578798355876648074e-01) (9, -5.40764369986038231919e-02) (10, -1.02159345093252723613e-01) (11, 6.43886387879893939967e-02) (12, 5.59385194196368382147e-02) (13, -2.16835901367748891400e-02) (14, -4.34123798753909620474e-02) (15, -8.06980330801655154627e-02) (16, -1.49079541600076730806e-02) (17, 4.95112511512438291383e-02) (18, -6.20830731546363756568e-02) (19, 8.15839092412355831874e-02) (20, -5.71212134900519249298e-03) (21, -1.75823505606684277192e-01) (22, 1.33388902571753092952e-01) (23, 1.06666733352668505197e-02) (24, -1.36492316224698928551e-01) (25, -3.45284096894822797874e-02) (26, -1.78739043379406992162e-01) (27, -9.74526669678802276442e-02) (28, -5.48708474830675377309e-02) (29, -3.81375071820784158905e-02) (30, 1.03956406976675116982e-02) (31, -1.12045719424900297456e-01) (32, 4.82464599161812543460e-02) (33, -1.60417548396199399763e-01) (34, -2.88189565400623695646e-02) (35, -1.42120096537236895173e-01) (36, 5.16006658140775106847e-02) (37, 3.10734664063672116896e-02) (38, -2.16154576440417203753e-02) (39, -1.25234543286364824466e-01) (40, -3.27862841909843383270e-02) (41, -9.25502944487781031846e-02) (42, -5.44165124694738419620e-02) (43, -9.62121585588022326663e-02) (44, 2.58343373430465796103e-02) (45, 4.92124786905639571843e-02) (46, -6.48819926722555700982e-02) (47, -9.55923028036888139392e-02) (48, 3.62668302791776184235e-02) (49, 3.33760434086256829733e-02) (50, -1.58379551765654907891e-01) (51, 1.96683688267407230654e-02) (52, -8.57354260707477444647e-02) (53, 2.53482424659754422558e-02) (54, -2.34383532359716401094e-01) (55, 6.52676819798598539801e-02) (56, -1.55784169670703520616e-02) (57, -1.11244606055217271079e-01) (58, 8.83333549027644632234e-02) (59, 5.34044048769301976654e-02) (60, 5.53011767044950947048e-02) (61, 3.02992246298814625616e-02) (62, -5.42757954379243998111e-02) (63, -1.02087728406641750634e-01) (64, 6.30319719331469408008e-03) (65, -1.30478119827439675849e-01) (66, -6.54332556916162877414e-02) (67, -2.11309387607219179017e-01) (68, 2.12902864618483636527e-02) (69, -6.09129455032318412044e-02) (70, 3.85749950005545433340e-02) (71, -9.84565459426463146508e-02) (72, -5.10395410229441057193e-02) (73, -8.01078994482687795076e-02) (74, -8.48812623344109146162e-02) (75, -1.50914062563699286762e-02) (76, -6.11880087127660843294e-02) (77, -4.82677174704465861144e-02) (78, 7.87787689485173470150e-02) (79, 8.32447649979988074653e-02) (80, 6.28418150122245638967e-02) (81, -1.00318847934312935233e-01) (82, 4.33973151147071765921e-03) (83, 4.94979986085224282766e-02) (84, -2.13707013401208845149e-01) (85, 4.58291841508365067198e-03) (86, -2.03104045012482109511e-01) (87, -1.51822837469322013959e-02) (88, 4.62234738525709454304e-02) (89, 4.36593929854087701992e-03) (90, -2.65079663400034026832e-01) (91, -8.79598310580566138117e-03) (92, -6.64780965895979819580e-02) (93, -1.20723795788716545263e-01) (94, -1.02909755676108827238e-01) (95, 3.35401421754083287063e-02) (96, 5.30935909909464268802e-03) (97, 4.70148111830169801451e-02) (98, 2.25337043241935555682e-02) (99, 1.56533727471884790902e-03) (100, -8.09491964031952698777e-02) (101, 3.91335437317720524764e-03) (102, 1.53085853391674922563e-02) (103, -1.04656128970186543259e-01) (104, 9.62901257958327788655e-02) (105, 2.11367985600150014303e-02) (106, -1.55062977729608503230e-01) (107, -1.32610809892551750888e-01) (108, 7.01262369148734632240e-02) (109, 1.26583044424307122888e-01) (110, -1.48203867562124641521e-01) (111, 3.69815773421465765480e-02) (112, -7.69348127459760777747e-02) (113, 2.32086945646847765679e-02) (114, 2.35609322077945035345e-03) (115, -1.29016703265958293523e-01) (116, -1.46295753670451222916e-01) (117, -9.86706963075499876581e-02) (118, -7.20253227643312676776e-02) (119, -8.98578606322070205792e-02) (120, -1.01911697325438501543e-02) (121, 2.02472242748575753657e-02) (122, 4.11651105301829578487e-02) (123, 7.36865161234985521777e-02) (124, -9.54613466250509856703e-02) (125, -1.19025230694767045203e-01) (0, -4.63059473022257306329e-02) (1, -6.55163924555020454887e-02) (2, -5.36017721333674895812e-02) (3, -1.23956027611949959333e-01) (4, 3.58822218089541091629e-03) (5, -9.10867570603192226730e-03) (6, 2.68010586190823886510e-02) (7, -4.42011230336495503090e-02) (8, -1.23259388553707882608e-01) (9, -4.49103529699808254327e-02) (10, 4.51752726444181046395e-02) (11, -7.98551194242378414856e-02) (12, 1.12739329363232013148e-01) (13, 3.33694931384387813433e-02) (14, 6.22387212377481166548e-03) (15, -1.23912123429263568153e-01) (16, 3.17640821706866999241e-02) (17, -1.40402385611717167579e-02) (18, 1.31838172821754032876e-02) (19, -1.06672551995201272956e-01) (20, -9.98211175068559747325e-02) (21, -1.12659200329805336827e-01) (22, 1.59813094932653755598e-02) (23, 1.98987147877411729713e-01) (24, -4.39809890757403218475e-02) (25, -3.16125866400037772164e-02) (26, -2.00686614588398953840e-01) (27, 2.40493726379732847276e-02) (28, 1.16865987239004154308e-01) (29, -5.22025746978165561263e-02) (30, -1.57252874871263333134e-02) (31, 3.57758385360388009300e-02) (32, -7.35388390502160482765e-02) (33, -2.36195220956464363438e-01) (34, 8.39430164015742413808e-02) (35, -1.84498890588539077307e-01) (36, 9.79818638264106089864e-02) (37, 2.48223660487289082832e-02) (38, 1.19635743644990171636e-02) (39, -3.37264107636043641847e-01) (40, -1.98924577783374488538e-02) (41, -1.18889177998865221836e-02) (42, -1.30107078851406515740e-01) (43, -7.07275503395592419764e-02) (44, -6.13862240612956105990e-02) (45, 3.16811312219611035390e-02) (46, -5.47078052032518857839e-02) (47, 3.99610253133049347918e-02) (48, -2.95903404697384041222e-02) (49, -4.08335021482075163912e-02) (50, 1.49046992160372909070e-02) (51, 4.28821395027169371961e-02) (52, -1.38264294547868621388e-01) (53, 4.08250529547427645771e-02) (54, -1.54831633610120256161e-01) (55, 3.69239931138030524904e-02) (56, -2.72435093632863306601e-02) (57, -7.56024722120481190712e-02) (58, -1.36828817603421443172e-02) (59, 7.79613511232000871987e-02) (60, -5.40238776048528532292e-02) (61, -7.79272639331427263709e-02) (62, -1.79120108662060406601e-01) (63, -8.70180731862899015105e-02) (64, 6.35017290705991721556e-02) (65, -1.00972859935619385663e-01) (66, -1.45550838159616252598e-01) (67, -1.60642451126499025138e-01) (68, 6.46403834386712755622e-02) (69, 1.47225031159257807589e-02) (70, -6.22099646719137672202e-02) (71, -3.57712450538388362919e-02) (72, 9.74203746397305364590e-02) (73, 4.66646030655017921701e-03) (74, -5.94206322956339350050e-03) (75, -1.69904859180771278249e-01) (76, 1.89746851295791475744e-02) (77, 5.44365354836381515335e-02) (78, 4.21761262575816586740e-02) (79, -9.89903546183206611841e-02) (80, 8.37786395731855010327e-02) (81, 4.11691514406427247486e-02) (82, -1.32263469088752305680e-01) (83, 4.70237427089483586706e-02) (84, -1.37532385615239338694e-01) (85, 5.72185067335819613765e-03) (86, -2.54951812250149345562e-01) (87, 6.76511006266042602686e-02) (88, -8.97913869719592361296e-02) (89, 6.04222088666223830500e-02) (90, -1.82792870869863482985e-01) (91, -8.85735852643031174036e-02) (92, 5.57283458758301153413e-02) (93, -1.02446652278265867841e-01) (94, 1.35921064413814865479e-02) (95, -5.96385495310805535674e-03) (96, -1.16798791856187661464e-01) (97, 1.30025426267361826627e-01) (98, -2.26997792605069803606e-02) (99, -8.98305786584746440715e-02) (100, -1.35345734919866567125e-01) (101, -9.05423017672047081295e-02) (102, -1.53396640396068068002e-02) (103, 2.84086598794197923643e-03) (104, 1.52820489204174042586e-01) (105, 6.87656068105218509778e-02) (106, -1.12949842850761109081e-01) (107, -1.22245990320756225955e-01) (108, -1.57889406189870296071e-02) (109, 3.04117101564544377312e-02) (110, -2.94162678600961048636e-02) (111, -4.96546166001344754792e-02) (112, -5.89103813973182455221e-02) (113, -3.31953796205568807398e-02) (114, 1.24433976292412637465e-01) (115, -4.29660616032132014475e-02) (116, -1.37803053483121995537e-01) (117, -1.97126284322575798247e-02) (118, -9.63653806777317600840e-02) (119, -2.63231027832107229714e-02) (120, 6.39010465538178834555e-02) (121, 1.07672966724732158128e-01) (122, 2.80504262847486862675e-02) (123, 1.26240102355970440495e-01) (124, 1.05136160469832353782e-03) (125, -2.09116162717537940052e-01) (0, -3.04220430138706261769e-02) (1, -7.73080990428101633150e-02) (2, -1.64705704484079590300e-01) (3, -1.33059695479689210629e-01) (4, -8.52084552798391819950e-02) (5, 5.89426155504523749395e-02) (6, -1.35045323553411034112e-01) (7, 5.54871835541725505481e-02) (8, -1.26862951070716323265e-01) (9, -2.05408358682315383970e-01) (10, -1.12318652430908480500e-01) (11, 3.23425656933120642123e-02) (12, 3.13366511063332131570e-02) (13, 2.06948686306659968004e-02) (14, -9.15278363608130335338e-02) (15, 1.24894096272913698170e-02) (16, -6.95429572640949289486e-02) (17, -8.82337204919799306113e-02) (18, -2.30625048184022393705e-02) (19, -9.32813363010640134165e-02) (20, -5.15818061665478805322e-02) (21, -2.14422288241078146109e-01) (22, -5.15329578275109737029e-02) (23, 6.54519459644619522320e-02) (24, 6.37901747593295348482e-02) (25, -5.52761345033224993362e-02) (26, 4.05895700602931439049e-03) (27, 5.35453792070919934454e-02) (28, -6.51933041912311911359e-02) (29, -2.09598403383797517174e-02) (30, -6.30302931002428290519e-02) (31, -3.67942713762413765172e-03) (32, 4.13430648497203623304e-02) (33, -1.59430816367626071450e-01) (34, 2.39358973530813604058e-02) (35, -1.33379691681544093607e-01) (36, 9.49709870287181873172e-03) (37, 4.81577238724786513280e-02) (38, -9.62867113914158551102e-02) (39, -6.13976823829273515853e-02) (40, 5.75011947155841945944e-02) (41, -1.07079408820444504924e-01) (42, -9.28409006971533112829e-02) (43, -1.10309475312725981111e-02) (44, 6.94382757840527470306e-02) (45, -3.40800308262296791639e-02) (46, -9.38164391399257807658e-02) (47, -1.27508176300107883838e-01) (48, -2.68040888593415425889e-02) (49, 4.00717953120664164418e-03) (50, -8.21737845417825352179e-02) (51, -9.37613434211420349040e-02) (52, -8.28817525170021801584e-02) (53, -9.23528183665855845197e-02) (54, 4.69723708357554503579e-02) (55, -1.87757374897472226194e-02) (56, 6.34303880062757063918e-02) (57, 2.31374321081031786296e-02) (58, -5.32834217441591762032e-02) (59, 9.52414660285885034119e-02) (60, -3.40458921084388979605e-02) (61, 1.73981656016706336121e-02) (62, -7.02908931898263700244e-02) (63, -1.54504750146230634966e-01) (64, -6.03367399230910483876e-02) (65, -5.61785566441906566992e-02) (66, -1.52537688780562313839e-01) (67, -8.31419782337990131982e-02) (68, 4.46954213149401008431e-02) (69, 6.40409031145542650965e-02) (70, -4.15267193546136129112e-02) (71, 2.26305040449162504779e-02) (72, 7.65157009342605776148e-02) (73, -3.60807541529668124314e-02) (74, -6.67667867012292498563e-02) (75, -2.46874952646705808634e-02) (76, 9.18658401929543511066e-02) (77, -8.39118607759777035415e-02) (78, -1.08867048744758762591e-01) (79, -4.58555130789239165368e-02) (80, 3.89260919401089242053e-02) (81, -5.16165420080762424315e-02) (82, -6.55702678642078456983e-02) (83, -1.93416223906295488277e-02) (84, -4.08072356291421869945e-02) (85, -2.20198867065955587730e-02) (86, -1.36515840840433944070e-01) (87, 2.82837885921267892519e-02) (88, -7.71028458415826678518e-02) (89, -7.94489111879430887075e-02) (90, -1.85736571382912690753e-01) (91, 4.98136220865322484896e-02) (92, 2.56783458317835847073e-02) (93, -2.37262279537009679320e-01) (94, 4.94210921660926741361e-02) (95, 7.80047497228495562149e-02) (96, -7.85298450668733688529e-02) (97, -9.23315427721867754141e-02) (98, -1.30621992766976457306e-02) (99, -5.73963383570991678151e-02) (100, -3.64636713307493337544e-02) (101, 8.10751416694393822748e-02) (102, 8.14757790450122698633e-02) (103, 1.51498984716539920881e-02) (104, -4.83652689261440393853e-02) (105, -8.22999059678590633160e-02) (106, -2.04369447813777180278e-02) (107, 1.82929917086718518693e-02) (108, -3.30641073966267268203e-02) (109, 4.78361336074904983096e-02) (110, -2.65396772935938655980e-02) (111, -8.54430628720157375744e-02) (112, -6.75557199901819366294e-02) (113, 1.41846981563320817532e-01) (114, 3.52789058986260548045e-03) (115, 2.50035271336237737219e-03) (116, -1.79618422851378800598e-01) (117, -6.33214437950911507302e-02) (118, -3.84433809309518495501e-02) (119, 2.79432867623284793279e-02) (120, 1.08938002322375646069e-02) (121, -9.47954151713116255351e-02) (122, -1.20518049065258245345e-01) (123, -8.78446111688888642277e-02) (124, -1.33086081276585194155e-01) (125, -2.97693038105717511232e-01) (0, -1.18282743472224685655e-01) (1, 4.59758755755509604390e-02) (2, -1.47104697200742873253e-01) (3, -5.65315113594536643171e-03) (4, 6.75177975136401348211e-02) (5, -9.53499446728856142608e-02) (6, -5.68047408060751851666e-02) (7, 7.68926017458320121278e-02) (8, 2.36293778612471951084e-02) (9, -1.38727682630818416332e-01) (10, 1.87005877325795394177e-03) (11, 3.40534125299456688629e-02) (12, -3.76335515021666774937e-02) (13, -8.33579627988702276387e-02) (14, -2.38071011069641777502e-02) (15, -7.08199111932631686361e-02) (16, -2.99378836826911104430e-02) (17, 5.46895370872321155004e-03) (18, -9.75945559525802780465e-02) (19, 7.13151026873734827927e-02) (20, -1.03672687133531976622e-01) (21, -8.71611101630223872316e-02) (22, -7.28071955883675958621e-02) (23, 5.21496208974230809896e-02) (24, 9.46578202450447797611e-02) (25, 6.66274408144783975017e-02) (26, -3.00704113942752253308e-02) (27, 1.03037801944675225241e-01) (28, -6.57284550316335480780e-02) (29, 2.44551874121782183980e-02) (30, -9.50869095820933291074e-02) (31, 8.88877936433804527461e-02) (32, -5.22817446258923984592e-02) (33, -2.04793955729513976749e-01) (34, 2.35183327238013203941e-02) (35, -1.61128459421780001470e-01) (36, -1.09577652951844212170e-01) (37, -7.06628020206511164858e-02) (38, -2.37038771935040554206e-01) (39, -8.95988966586612617382e-02) (40, -7.74122129999254005028e-02) (41, 5.24283053783230548750e-02) (42, 4.79339906812134980418e-02) (43, 1.26959766266538150864e-02) (44, -7.80464546537607828380e-02) (45, -6.43303886642667133167e-02) (46, 1.95455262284056699440e-02) (47, -1.54147443547313339057e-02) (48, 2.93595428129126562178e-02) (49, 3.87971875125539891749e-02) (50, -5.30032550948069877683e-02) (51, -8.29231368066714880083e-02) (52, -1.52206446210066709268e-01) (53, -1.56298877149198961467e-02) (54, -1.29262439498759873491e-01) (55, 6.79201324644152920618e-02) (56, 3.04017983250587861543e-02) (57, -7.09591848482162140810e-02) (58, 7.49931803903457483429e-02) (59, -6.70657522968986325937e-04) (60, 3.60041001810806129968e-02) (61, 8.34458436802322650605e-02) (62, 2.65486626860486803203e-02) (63, -2.38355094203755779603e-01) (64, -1.08580932432718643699e-01) (65, -4.97901838585236705681e-02) (66, -8.10316222401877700454e-02) (67, -1.55644577942910394830e-01) (68, -3.23105661776115216099e-02) (69, -5.28332787859090713400e-02) (70, -1.67813197859372868759e-02) (71, -1.75500495469409489857e-02) (72, -8.69244979741077700153e-02) (73, -1.06219459168755872569e-01) (74, -8.44476500578450473000e-02) (75, -1.27603549708192098855e-01) (76, -4.64365162865083835886e-02) (77, 2.82103772830624641155e-02) (78, 8.74905270139690188769e-02) (79, 8.20510082554422592871e-02) (80, -3.97434296043178356128e-02) (81, -2.71915650454125461255e-02) (82, 7.06850603998369630965e-02) (83, -6.98133826154122413485e-04) (84, -1.25045414068555460485e-01) (85, -8.68372775274263847267e-02) (86, -1.65362892563001045998e-01) (87, 8.57400904147340159334e-02) (88, -6.27585591663624015046e-02) (89, -4.80731950109982639208e-02) (90, -1.33566182297522401123e-01) (91, 1.08183838032413728869e-01) (92, -5.31494017671504045963e-02) (93, -1.92169591536379275043e-01) (94, -1.34167160444808336583e-01) (95, -4.55640329318349399101e-02) (96, -4.82050146661486753064e-02) (97, -8.75923580142447949504e-02) (98, 2.19309359680723778285e-02) (99, 5.57913887734373323268e-02) (100, -1.43468907157541264441e-01) (101, 8.79888570009001447225e-02) (102, -4.45625742087151638371e-02) (103, -6.13554852895034363858e-02) (104, -1.49230221230365223128e-01) (105, -3.00444152870878687656e-02) (106, 8.17067459974033932779e-02) (107, -2.31346111099428423941e-02) (108, -7.58991423451002428235e-02) (109, 4.35688491286216617038e-02) (110, -1.04861830683846912748e-01) (111, 5.54487933207816526687e-03) (112, -5.60372019551617223110e-02) (113, -7.09940973384647067146e-02) (114, -9.89526989257273059675e-02) (115, -2.94914698847891718070e-02) (116, -1.46936846340414400958e-01) (117, -4.39209337963522225556e-02) (118, -5.17211200773844831380e-02) (119, -4.76569277904133892232e-02) (120, 6.28761574978383697143e-02) (121, 8.48746383702781437286e-02) (122, -3.68273683025814868586e-02) (123, 8.60914652932775331662e-02) (124, -1.49799421989886688555e-01) (125, -1.86594700088930837145e-01) (0, 3.18085142512235352630e-01) (1, -1.34167008033988205407e-01) (2, -4.36615138561524396277e-01) (3, 8.70045636100292008042e-02) (4, -1.95331379697872120627e-01) (5, 3.72099186678117754834e-01) (6, -7.24586704295517719521e-02) (7, -1.61188196238866182641e-01) (8, 2.81316748109456782334e-01) (9, 1.83474214425289050556e-02) (10, 5.68022399341517741922e-02) (11, -4.53770501061904252271e-01) (12, 4.62159236118199867605e-01) (13, -4.19455791910991471205e-01) (14, 4.02909349649473669253e-01) (15, -5.82755660154603893908e-01) (16, 2.25820660722603622217e-01) (17, -9.29552035702846668475e-02) (18, -3.51347277363760701618e-01) (19, 3.87003879187136523576e-01) (20, 3.80030640816470144383e-01) (21, -3.80963874611642772106e-01) (22, 1.36456901014247233839e+00) (23, 1.48222756103991404331e+00) (24, -1.92886736360668886725e+00) (25, -1.99176553551798640740e-01) (26, -2.05223458883971821010e+00) (27, -2.53831349671489459041e-01) (28, 3.61653066367034448092e+00) (29, -1.54394763759925091051e+00) (30, -4.26160066069058263150e-01) (31, -6.71128879208553325020e-02) (32, 7.84697803254392617367e-02) (33, 3.86866573176463945938e-02) (34, -8.17531025112137321731e-02) (35, -1.18093163805096157404e+00) (36, 1.10225335653757405829e+00) (37, 7.21211577336662579274e-02) (38, 1.36373211190692678052e+00) (39, -1.45867413203036444536e+00) (40, 2.71502554239028581762e-01) (41, -4.50619341474564408245e-02) (42, -8.18753291871767152621e-01) (43, 1.88666545144756225838e-01) (44, 5.35505660466676358666e-01) (45, -2.28621707707677507271e-01) (46, 1.01424499863018338641e-01) (47, 1.82030019118403635359e-01) (48, -1.99998869893281805421e-01) (49, -3.44793046692764837413e-02) (50, 2.70857008354554507079e-01) (51, -1.80666546500021535371e-01) (52, -4.17551177889048441561e-01) (53, 2.97212875813252230817e-01) (54, -5.00630296905928529050e-01) (55, 4.18944366646175660185e-03) (56, -8.47021689221585938334e-02) (57, -1.28102360315027613558e-01) (58, -8.57460741623650990473e-02) (59, 4.97351981626799111158e-01) (60, 1.45253024179488404721e-01) (61, -1.82822371035169239928e-01) (62, -1.48302082114966204962e+00) (63, 1.34902273897354274546e+00) (64, 6.32788376882464698170e-01) (65, -1.09929674229609819491e+00) (66, -2.49337484173936585474e-01) (67, 6.08726314345896857283e-01) (68, 1.11565181524388642997e-02) (69, -1.39536036671176144619e-01) (70, -2.98563748784703486550e-01) (71, 2.62860678635957412119e-01) (72, 1.84236934117162853841e-01) (73, -2.17600686983827035226e-01) (74, 1.19171114613830425588e-01) (75, 3.65186073349186846038e-01) (76, -4.39646834094272520588e-01) (77, 4.86284284489640172833e-01) (78, -1.95157217535973537270e-01) (79, -2.44556161329377352853e-01) (80, 3.37879018154734866997e-01) (81, 1.16646050108294957459e-01) (82, -7.66209076937848648781e-02) (83, -1.16865325918947340900e-02) (84, 2.27327709978433378790e-01) (85, -7.44349503669834211550e-01) (86, -7.44805177060909595621e-02) (87, -1.01363275779236469698e-02) (88, -3.82069975044736359626e-02) (89, 1.02818225382953751246e-01) (90, 2.24890971033146563895e-01) (91, -4.00388488758426253078e-01) (92, -3.06491886011525493938e-01) (93, -4.11902933377611413235e-01) (94, 8.57466628128358610006e-01) (95, 5.48821761069025887414e-02) (96, -7.34323979057518672064e-01) (97, 1.05112551856606040168e+00) (98, -3.19397292198892124304e-01) (99, -3.32565669943016006815e-01) (100, 1.66096367058558042062e-01) (101, -5.75192486125118696005e-02) (102, 2.48966276630256666547e-04) (103, 5.22604032734515722147e-01) (104, 4.51333858706121637816e-01) (105, 5.33911836531322236965e-02) (106, -8.69645464955944302865e-01) (107, -3.48987649631698149122e-01) (108, 4.51961073703952831426e-02) (109, 7.34236996358146987163e-01) (110, -6.83255613227076508132e-01) (111, 6.24491317320040144334e-03) (112, 2.36269867043002845808e-01) (113, -1.02133896584251537831e+00) (114, 3.88008747261243680526e-01) (115, -7.61682932868692597062e-01) (116, 2.05556799822517483056e-01) (117, 8.65767301925110421834e-01) (118, -2.04021305794871328498e-02) (119, 3.64708643975170554441e-01) (120, 3.69630108356260598038e-03) (121, 1.52684519027776383071e-01) (122, -4.03485047833133936290e-01) (123, 2.32153417740986800499e-01) (124, -3.94641298443615395897e-01) (125, 2.27600687385042799171e-02) (0, 2.09724906867414018219e-01) (1, 1.17031885412698766213e-01) (2, -2.25742392129942265333e-01) (3, -1.11925718496858075945e-01) (4, 2.23385421158231178840e-02) (5, -1.59211771821241021563e-01) (6, -2.91193584580924980099e-01) (7, 2.16856242257421671926e-01) (8, -6.56280817081137252123e-02) (9, -1.58013179424169092346e-01) (10, -3.59143225661161302753e-01) (11, 3.77809561059471332722e-01) (12, -3.76562307588474587394e-01) (13, -7.94260497878739174515e-02) (14, -1.05299842185979763975e-01) (15, 2.81815960803972365145e-01) (16, -8.76972790439263516493e-02) (17, -4.20409026149876560718e-02) (18, 5.22025151562256928273e-01) (19, -3.14710043522773819102e-01) (20, 3.74589835546050908821e-01) (21, -3.85617067634541843546e-01) (22, -9.25944296653368525973e-01) (23, -8.52203427511295186214e-01) (24, 7.76473660525560882562e-01) (25, 1.00021443605709484115e-01) (26, 8.05055933110041310741e-01) (27, 8.45145743787484998721e-02) (28, -1.01958994152938609012e+00) (29, 5.22768585927321449702e-01) (30, 8.51057879878547168806e-02) (31, 2.75551978898358855552e-02) (32, -7.68665112833158692407e-02) (33, -2.49280205099324941864e-01) (34, 7.69649865398553817419e-02) (35, 3.07298691377077382025e-01) (36, -4.27907057238465171611e-01) (37, -5.22831710395689347459e-02) (38, -7.37809205711110194237e-01) (39, 5.26519311502259723667e-01) (40, -5.14049609138860774671e-02) (41, -1.25129959661751000155e-01) (42, 4.28718448062940793442e-01) (43, 1.40963841707448418739e-02) (44, -1.96136611747832811936e-01) (45, 3.58468730409509328538e-01) (46, 6.57971178629618552031e-03) (47, -2.37677520922631946299e-01) (48, -6.64704505987731304045e-03) (49, -8.25254403983786410937e-02) (50, 3.30608850941011347957e-02) (51, 4.50205751378218513303e-02) (52, 3.18903678378457400289e-01) (53, -4.43953450511323233219e-01) (54, 1.15815254116150057051e+00) (55, -1.62861113294690773579e-01) (56, -7.88781272825319484943e-02) (57, -1.97949836921976242421e-02) (58, -6.04902582874932495671e-02) (59, -3.28372842591778846266e-01) (60, -2.99291517578166688107e-01) (61, 8.60666465536621093368e-03) (62, 3.23712936559375608070e-01) (63, -1.45550627063451537557e-01) (64, -3.65145261002201404477e-01) (65, 3.90272823372892097016e-01) (66, -1.44823065135638529011e-01) (67, 6.50219860195420801263e-02) (68, -1.65298238144902437385e-01) (69, 1.34432819218779531223e-01) (70, 8.77030006600878209166e-02) (71, -3.25095311455647628662e-02) (72, -9.96025023139150179896e-03) (73, -5.74500144622341057943e-02) (74, -4.63245281961277011185e-02) (75, -3.82322208403832533574e-02) (76, 2.59149219357884319503e-01) (77, -4.54577604026241588464e-01) (78, 8.78815781321271444204e-02) (79, 9.36430436503855462282e-02) (80, -7.94836340251101475252e-02) (81, -6.57190230145036358156e-02) (82, 8.06020364443751358152e-02) (83, -1.27737636234572515814e-01) (84, 1.67449594647477717491e-01) (85, 3.00726932898381316139e-01) (86, -2.43054930128909857379e-01) (87, 1.50807292585183536082e-02) (88, -5.22169011171422850492e-02) (89, -5.68267677790834230267e-02) (90, -2.25381653634433826161e-01) (91, 2.48031493186603280154e-01) (92, 1.67751213516860481212e-01) (93, -1.34047426810520009521e-01) (94, -1.22561828843721673521e-01) (95, -5.69269854676274153493e-02) (96, -2.23950886232549856159e-01) (97, -6.14284489165139890865e-01) (98, 2.88307804925394331463e-02) (99, 1.29089593385552370286e-01) (100, 2.71021241096392362380e-01) (101, -1.81676017033696388103e-02) (102, -9.07940244793001283163e-03) (103, -3.26279914106283985831e-01) (104, -5.01866561129483357284e-01) (105, -8.02832367542150038275e-02) (106, 2.53471110581383385352e-01) (107, 1.33072076465931266043e+00) (108, 5.59311881164742050188e-02) (109, -4.52295977419440164979e-01) (110, -2.62878083660310457592e-01) (111, 2.88708964566652195871e-02) (112, -1.12159102728464021848e-01) (113, 8.30443860295245417369e-01) (114, -3.07378650558589150421e-01) (115, -9.77592813049733833086e-02) (116, -1.96822232910710964715e-01) (117, -3.65358007741673651569e-01) (118, 3.32858705930210330148e-01) (119, 4.63509226694449105732e-01) (120, 2.92028092679626927186e-01) (121, -3.11211980102471530429e-01) (122, 1.62112654329076372184e-01) (123, -3.46658503702908737942e-01) (124, -4.60307460430120884975e-01) (125, -2.24721870772055770660e-01) (0, 2.23127583324206041349e-01) (1, 1.07836356520900941702e-01) (2, -1.93727255626279903922e-01) (3, 5.50278629346560924085e-02) (4, 2.99671778483055623044e-02) (5, -9.93146140648036440668e-02) (6, -1.90156542170171999340e-01) (7, 2.05028867888808391529e-01) (8, 1.45885402020863117617e-02) (9, -6.12019406506597585249e-02) (10, -2.22278182428722631547e-01) (11, 3.75562686772114295852e-01) (12, -3.23978706519024994837e-01) (13, -7.08240605611308998713e-02) (14, -2.54254074554476738879e-01) (15, 2.61951677596782228630e-01) (16, -1.86655536648298703284e-01) (17, -7.19480734015850997842e-02) (18, 3.67284192134354703363e-01) (19, -1.49480275506023441157e-01) (20, 2.88850638738985310283e-01) (21, -1.88711464749017093778e-01) (22, -7.78552796455678097765e-01) (23, -8.82746579420303767449e-01) (24, 8.50060622810944632732e-01) (25, 2.41606474238628188278e-01) (26, 6.26573408216998584130e-01) (27, 1.37681738147617416246e-01) (28, -9.99149145565965790539e-01) (29, 5.73791164468258174658e-01) (30, 3.01608967557376650426e-01) (31, -6.61647302022736749638e-02) (32, 9.70442599176505049652e-02) (33, -5.84853945960573384788e-02) (34, -6.12122482428289552137e-02) (35, 4.55596441787581352134e-01) (36, -5.55156101448690875166e-01) (37, 5.93027406827023595426e-03) (38, -8.92590114472504581045e-01) (39, 7.59502903837985687829e-01) (40, -1.05903573941110606960e-01) (41, -1.86844158738906251926e-01) (42, 4.00525912986787080428e-01) (43, -1.64067108909040304532e-01) (44, -2.37520675349081993033e-02) (45, 2.50678072273175622797e-01) (46, 2.40769015297834614031e-02) (47, -3.82827028315608941522e-01) (48, 4.15120286682171997505e-03) (49, -1.33839046665988642415e-01) (50, -6.15568237714220825585e-02) (51, 8.84851367102214569904e-02) (52, 3.21888072058403196252e-01) (53, -5.33241772806157920961e-01) (54, 8.03261478367890191521e-01) (55, -7.43257921741257709947e-02) (56, 7.39510867588383802307e-02) (57, -6.26337768715636879213e-03) (58, -9.69565022283271071846e-03) (59, -3.05512632138846662588e-01) (60, -3.57127209502011155884e-01) (61, 4.21976400677238142056e-02) (62, 4.97802278908407502822e-01) (63, -2.83583285017233732717e-01) (64, -4.14437672439854631889e-01) (65, 5.90519879585619023032e-01) (66, -1.36260606723278443475e-01) (67, 1.22443125512726250226e-02) (68, -1.56202541633798014376e-01) (69, -7.32289188619319672546e-03) (70, 1.18237185048870971360e-01) (71, -5.93024612478559309814e-02) (72, -2.72722256787866317029e-02) (73, 7.00033959528337662581e-02) (74, -3.72424580845126737549e-02) (75, -5.55438437129968098915e-02) (76, 3.06169709102871390183e-01) (77, -3.80821528687580457273e-01) (78, 9.99142892656545988928e-02) (79, 1.12366697699830361823e-01) (80, -1.01028296188412788914e-01) (81, -1.68270350714074451437e-01) (82, 1.63943951184258279730e-01) (83, -2.41451709275700421298e-02) (84, 5.55549677851677331519e-02) (85, 3.31990165289892891209e-01) (86, -5.88827036563103426575e-03) (87, -7.81026400156712430345e-02) (88, -9.32192885667472576072e-02) (89, -1.04177292091053058654e-01) (90, -2.34406367426100270546e-01) (91, 2.55653465257405010380e-01) (92, 1.43665254996949209865e-01) (93, 7.31379308700298991219e-02) (94, -2.61976708409360659058e-01) (95, -1.78724876474214700028e-02) (96, 5.51007328798802792358e-02) (97, -6.01580527178536050847e-01) (98, 9.00913018622638839261e-02) (99, 1.83268969300676903833e-01) (100, 2.17919488614578604757e-01) (101, 4.80787403595259732469e-02) (102, 1.25304685910115898295e-02) (103, -4.35430672577928890021e-01) (104, -5.12441753243370712312e-01) (105, -5.60097186099491675670e-02) (106, -1.21106026453179672908e-02) (107, 1.19627987635436938696e+00) (108, -8.94844620751576447226e-02) (109, -4.26500521076255911801e-01) (110, 9.67967370410631328115e-02) (111, 5.51787645886389135907e-02) (112, 1.03128895449429869996e-03) (113, 8.11656026550724218893e-01) (114, -1.86797188361457755512e-01) (115, -1.76973309025557468122e-01) (116, -1.23333226626140629589e-01) (117, -3.81325669729539129538e-01) (118, 2.73563294600826567571e-01) (119, 2.84681440157356802079e-01) (120, 3.00200185190137747160e-01) (121, -3.76152999317593550455e-01) (122, -4.97025260772727336955e-02) (123, -3.80479765063217179044e-01) (124, -2.97948171588230947826e-01) (125, -1.40469770986496489407e-01) (0, 4.29506516755446890454e-02) (1, 7.48749758968511730517e-02) (2, -8.80423348927021343080e-02) (3, -1.35994772395907126405e-01) (4, 3.96674815277601663932e-03) (5, -8.29919894050302892063e-02) (6, 4.41707389290838525753e-02) (7, -5.46838531782920453383e-02) (8, -1.20086632117213557014e-01) (9, -1.22042918061406907571e-01) (10, -2.58456744173305302814e-02) (11, -7.06307317254738220580e-02) (12, 2.61073140720031529605e-02) (13, 2.56253846670112632455e-02) (14, -7.42896912674729376080e-02) (15, -7.03893481503193169102e-02) (16, 5.49133714335756431546e-02) (17, 6.60571647637092085326e-02) (18, 1.64898840397050445994e-02) (19, 9.03080008797851364888e-03) (20, -5.75054432761436598587e-02) (21, -1.60487728580189642491e-01) (22, -1.02612320593798442628e-03) (23, 1.48808636516415654372e-01) (24, -7.51507055773906612606e-02) (25, -1.19534545041353829076e-01) (26, -1.41910188619021770950e-01) (27, -2.74374671168676892430e-02) (28, 3.93258684689874044027e-02) (29, -4.70842280643706256882e-02) (30, -3.38953713476625104195e-02) (31, -4.19714979356290360246e-02) (32, 3.20963019631251914032e-02) (33, -2.89343622170670777827e-01) (34, -3.82648889089359095506e-03) (35, -2.64915525744136515218e-01) (36, -5.85793961194939205583e-02) (37, -3.01478184595378936872e-02) (38, 5.89973007605153112326e-03) (39, -2.02655668427921514807e-01) (40, 3.72320497162815719494e-02) (41, -2.94414781887334282839e-02) (42, -3.61840604776687765898e-02) (43, -7.71023918527064394679e-02) (44, -6.07562914478749008240e-02) (45, 1.83443348554541314777e-02) (46, -2.63793160785606335683e-02) (47, 6.59768029251502075017e-02) (48, 1.42461656313633069915e-02) (49, -2.31163811494659136858e-02) (50, -5.36833869292761903247e-02) (51, -3.22871988502122647668e-02) (52, -1.61145831706009212692e-01) (53, -2.02086870710731780765e-02) (54, -1.92777567532463278699e-01) (55, 8.27768646443655803369e-02) (56, 3.47546109520585899677e-02) (57, 1.19339678556871359172e-02) (58, -3.07550836280745740203e-02) (59, -4.36845701973646791116e-02) (60, 1.00436742536487541751e-03) (61, 7.02149536106330268703e-02) (62, -9.62219436903483660295e-02) (63, -1.57263783405787394010e-01) (64, 1.07440959540203190281e-01) (65, 5.77399604006367458964e-02) (66, -4.28320525573996427338e-02) (67, -4.91486795601441053827e-02) (68, -4.81000202972839616122e-02) (69, -5.62329941680243874935e-02) (70, -5.90999794142374121342e-02) (71, 8.59510050232282774019e-02) (72, 2.01026193426696760114e-02) (73, -1.51969779006281779932e-01) (74, -7.40215213304752928103e-02) (75, -3.92039323057395347472e-02) (76, 3.34062086305062511116e-02) (77, 8.69024542836961851056e-03) (78, 2.63235797022085098174e-02) (79, -4.38646916773553288693e-02) (80, 6.14752352587920464222e-02) (81, -5.63218271942951959064e-02) (82, 2.86768979317477031021e-02) (83, -3.23978671722816857770e-02) (84, -4.25274505893053628158e-02) (85, -1.02934755055817991898e-01) (86, -2.65186672307236415147e-01) (87, 1.17878669766763866100e-02) (88, 7.07744038787797291601e-02) (89, 1.31465715989059692137e-02) (90, -1.35460185576151970199e-01) (91, -3.97343512460632472538e-02) (92, -2.90605348665030835398e-02) (93, -2.28630575378481859516e-01) (94, 4.47691624139871010429e-03) (95, -2.99646237673554319270e-02) (96, -1.00406629214245132764e-01) (97, -3.36501323807873800598e-02) (98, -7.82179084253942918936e-02) (99, -7.74629886536565281929e-03) (100, -1.74997225824079588596e-01) (101, 1.29832914171113256163e-02) (102, -3.65588754275273514205e-03) (103, 9.40661493455856173584e-02) (104, 2.79546913130234338241e-02) (105, 1.54684841499713003621e-02) (106, -1.71973875400716763595e-02) (107, -1.32042439871170730337e-01) (108, -9.22098623437390546576e-02) (109, 3.92320089600467838964e-02) (110, -2.18503122564726454113e-02) (111, 6.55118605501955886261e-02) (112, 7.50438610122879934394e-02) (113, -6.31444794529326808297e-02) (114, -4.34422365042246155786e-02) (115, -1.26866902465118495946e-02) (116, -1.21633059238851870543e-01) (117, -2.50232937005714084489e-02) (118, -1.24487968857360423169e-01) (119, -3.48500007728579641597e-02) (120, 5.66353215518188291000e-02) (121, 1.03270477104626112741e-01) (122, 3.27858614194883810078e-02) (123, -9.03540512588948095674e-03) (124, -1.35129606993419054684e-01) (125, -1.97748264432555165282e-01) (0, 1.20362532245792616670e-01) (1, 7.74158283100803562560e-02) (2, -4.88639532623539735168e-02) (3, 5.20847641488870818915e-02) (4, 1.01299736085135524966e-01) (5, -2.77838052777029220763e-01) (6, -3.50176054970423922263e-01) (7, 1.77550657702027575580e-01) (8, -1.45315061766968928181e-01) (9, 2.48196160636256352161e-02) (10, -6.48592214873102146377e-02) (11, 5.90310386569338874097e-01) (12, -4.15360421453470018971e-01) (13, 4.57457220198431782632e-02) (14, -2.97195025236322740714e-01) (15, 2.38613580245482098663e-01) (16, -9.48904104275426901749e-02) (17, -1.51625894418302344796e-02) (18, 4.48442117623881197908e-01) (19, -4.76747313743547895815e-01) (20, 2.80084785955690307446e-01) (21, -3.63550201037079245836e-01) (22, -1.16625238370546302491e+00) (23, -1.07739636390338944238e+00) (24, 1.32927636045643349227e+00) (25, 2.36279762368123175120e-01) (26, 1.28108740849098334813e+00) (27, 2.22705042970584660145e-01) (28, -1.83361940087828778623e+00) (29, 7.22582259612529642645e-01) (30, 2.75224887639974047371e-01) (31, -5.50261275221013354542e-02) (32, -1.77164930696262837295e-02) (33, -2.98869227055369689194e-03) (34, -6.29062853814107841854e-02) (35, 7.01176015101188987444e-01) (36, -7.36948002564826620819e-01) (37, 3.98837217484969072667e-02) (38, -8.59764563742825171921e-01) (39, 9.03071851452572071928e-01) (40, -1.03375787845491506900e-01) (41, -2.16700314093324658549e-01) (42, 7.38966503158002163687e-01) (43, -1.50747804848745475814e-01) (44, -1.34233889012206397684e-01) (45, 2.96963801517343528591e-01) (46, -5.02072191536968304160e-02) (47, -3.07086340287230419310e-01) (48, 2.52869579372300883405e-03) (49, -1.73714000077220431795e-01) (50, -2.11177398086007189759e-01) (51, -4.08241093073485467047e-02) (52, 3.73578693443205323010e-01) (53, -4.42466631161432866204e-01) (54, 1.34857055105741396872e+00) (55, -4.97136181799383458646e-01) (56, -8.99745239313620714938e-02) (57, 8.16128217970584282637e-03) (58, 7.04479922793506269096e-02) (59, -3.47723722531285861503e-01) (60, -2.17383961409474718574e-01) (61, -1.48952207830914118425e-01) (62, 6.35005879290043484531e-01) (63, -3.07170872700628039276e-01) (64, -6.30051057693363780743e-01) (65, 3.31071787712728826669e-01) (66, -1.35482219754202732470e-02) (67, -2.32337179631936993629e-02) (68, -4.23619685874711271456e-03) (69, 3.66689462091653109455e-02) (70, 7.45929960938554598160e-02) (71, -1.29160100013795769991e-01) (72, -1.92719438510470630899e-01) (73, 1.37293098019555720457e-01) (74, -7.58729558121567781992e-02) (75, -6.04125219689744114016e-02) (76, 1.58220977985638028285e-01) (77, -4.78674244858068476116e-01) (78, 1.31094014721577032528e-02) (79, 1.03380332648790082550e-01) (80, -3.04330810819951891322e-01) (81, -8.98930977855504353968e-02) (82, 4.39268054846266436941e-02) (83, -9.48930980585273725625e-02) (84, 1.14230726957960521117e-01) (85, 1.15365291353889051762e-01) (86, -7.90062425276822077880e-02) (87, -2.35783386763682711873e-02) (88, -1.23403692200687864489e-01) (89, -8.24366424088570082240e-02) (90, 2.41542758128224822889e-02) (91, 1.69806816599086168873e-01) (92, 1.81960715540987194583e-01) (93, 3.29182099630684621427e-02) (94, -2.66225515609970264652e-01) (95, 1.86083950081228424733e-02) (96, 9.14455090621434651954e-02) (97, -6.77411433076232416539e-01) (98, 2.30936582447058974532e-01) (99, 1.96787909640520675136e-01) (100, 2.58853836324048403039e-01) (101, 2.34994758628230618336e-02) (102, -7.34354290878091453543e-02) (103, -5.52403959215526985105e-01) (104, -5.83902399831210061620e-01) (105, 1.68154531811345042680e-02) (106, 4.48309996639146945974e-01) (107, 1.43125627182746351096e+00) (108, 9.27113771493285471204e-02) (109, -7.66369952485561833910e-01) (110, -6.37244931938009129269e-02) (111, -9.53764529753651085775e-02) (112, -7.96315948329561623664e-02) (113, 7.92315066743258689108e-01) (114, -2.96322278384370974003e-01) (115, 1.36384446352463079011e-01) (116, -4.99562341708839532245e-03) (117, -5.21619865249909775429e-01) (118, 3.49244191975356998991e-01) (119, 2.41082503848068535612e-01) (120, 2.85857142544011177954e-01) (121, -4.57224722610379552545e-01) (122, 2.12814630109951163917e-01) (123, -4.34519704220554525698e-01) (124, -4.11246322735838831797e-01) (125, -1.82857851144563376966e-01) (0, 1.13811846136822908404e-01) (1, -2.33996034991139269937e-03) (2, -2.72818595477806735694e-01) (3, -1.31755453872381377012e-02) (4, -6.27216572374147442182e-03) (5, -7.47501795376342426103e-02) (6, -7.33466242646037130948e-02) (7, 2.01728479462716936421e-01) (8, 9.12614927543770604323e-02) (9, -1.32478176670626612843e-01) (10, -1.75804337006394861831e-01) (11, 2.46327315361340865030e-01) (12, -1.54133387511037556195e-01) (13, -2.77005023359108079606e-02) (14, -2.92554942787859942332e-02) (15, 1.30987551733697180079e-02) (16, -9.28980925547135197307e-03) (17, -3.38858684982163496646e-02) (18, 3.35227518806494761971e-01) (19, -7.05793129748073927443e-02) (20, 1.97563273007091561029e-01) (21, -3.28824971902570262206e-01) (22, -4.14231650503517345729e-01) (23, -4.03892917451169009002e-01) (24, 2.58371497291697227450e-01) (25, 3.05293550025334467501e-02) (26, 4.56057043268534911817e-01) (27, 1.57581303718467208297e-01) (28, -5.11029027076657760276e-01) (29, 3.39737787304853600112e-01) (30, 2.10375526265940110404e-01) (31, -1.15407507698986819267e-01) (32, 9.37729859728065884283e-02) (33, -1.57786102447915493885e-01) (34, -3.18538879134340202626e-02) (35, 1.83000334153936544679e-01) (36, -2.58740234460755114121e-01) (37, -4.03707155454265317895e-02) (38, -4.81825226223789593316e-01) (39, 3.10660507458193235752e-01) (40, -3.93687992058383631755e-02) (41, -4.85959920521559229911e-02) (42, 3.31960139005559318193e-01) (43, -8.24798840044513870140e-02) (44, -2.59819287446524417595e-02) (45, 2.21529721383564248693e-01) (46, -3.14528525038645090373e-02) (47, -1.71401795428446274139e-01) (48, -9.44322193665069753443e-02) (49, -9.87966914515525096441e-02) (50, 3.41463151993488950309e-02) (51, 4.59975696520742091677e-02) (52, 1.66264829547275144739e-01) (53, -2.61613508000877403870e-01) (54, 4.00970691624770281258e-01) (55, 1.15156124636039049886e-02) (56, -1.43244099143804565211e-02) (57, 4.57938229078102623792e-02) (58, 6.29641630755985171053e-02) (59, -1.09918666733202288754e-01) (60, -1.40920347868998291352e-01) (61, 1.11877986344152344222e-01) (62, 2.31439089219555277355e-01) (63, -5.40252488905436228928e-02) (64, -1.82531362385698586737e-01) (65, 1.55296387899479915173e-01) (66, -9.20924508217591669679e-02) (67, -4.86381947782073484343e-02) (68, -8.02461080520081443401e-02) (69, 7.12401103770215343713e-02) (70, 6.93840559309432114432e-02) (71, -1.57769722111521543129e-01) (72, -1.99176322817748996385e-02) (73, 1.17968245516194645411e-02) (74, -9.57298895844811426059e-02) (75, -1.52535691678139767591e-01) (76, 8.44143153666929019208e-02) (77, -2.03159396036393935514e-01) (78, 5.39512523808652749713e-02) (79, 5.69843835881112259489e-02) (80, -2.68655790961136019951e-03) (81, -8.90731530473405364035e-02) (82, 1.32644294937391271638e-01) (83, -3.67155161781050690117e-02) (84, 6.73373045230963723773e-02) (85, 2.59728087609248037282e-01) (86, -8.69772523500184358003e-02) (87, -9.42690476852513226103e-02) (88, 3.23140433794004144907e-02) (89, -7.30629530998945231346e-02) (90, -1.10593352996071606076e-01) (91, 1.50616891600922980787e-01) (92, -1.33065856539097346345e-02) (93, -4.82583442597433048826e-02) (94, -1.31397268400210154304e-01) (95, 8.79790783931177489130e-02) (96, -5.72785510911293233027e-02) (97, -2.53237024227683016342e-01) (98, 2.77835989961303098106e-02) (99, 1.34354202553007118226e-01) (100, 1.33930948026645318949e-01) (101, 4.70364457486040152268e-02) (102, 6.66940980284526502286e-02) (103, -3.36375077315821280344e-01) (104, -3.60378417455067878716e-01) (105, -9.34207627297367615427e-02) (106, 3.31735724618388155838e-02) (107, 7.00781437639391158179e-01) (108, 8.39282821775767240435e-02) (109, -1.28384325697923323828e-01) (110, 1.03428376925517873097e-01) (111, 5.80020286044395996794e-02) (112, -6.85200916545652544132e-02) (113, 5.82212804943681661030e-01) (114, -1.41941822960703484258e-01) (115, -6.57783759706169202097e-02) (116, -1.99373382083898459394e-02) (117, -1.13169288909202928051e-01) (118, 2.26553393924934870496e-01) (119, 2.60447428218826437796e-01) (120, 9.95151793051407551616e-02) (121, -1.77062235932257561188e-01) (122, -2.29646843822648161204e-02) (123, -2.38372731739253995720e-01) (124, -3.34803618345337228313e-01) (125, -7.28473187971284130704e-02) (0, -2.64596867768750021455e-01) (1, -1.51594391450960874757e-01) (2, 1.58563403857673340669e-01) (3, 4.54667912817825203842e-02) (4, 2.88843158470762292889e-02) (5, 2.32937618937848922585e-01) (6, 7.42907403186734011102e-02) (7, -3.29267679364875609505e-01) (8, 9.81157338430308501032e-02) (9, 2.04913946758790099789e-01) (10, 2.42266100035796405621e-01) (11, -4.93646008505686739731e-01) (12, 5.07433896918932925146e-01) (13, 4.20200154425694680227e-02) (14, 1.80601229044853400785e-01) (15, -2.15345895456652614008e-01) (16, 9.96675949314565906567e-02) (17, 1.29666189071035331537e-01) (18, -4.75607724773109141747e-01) (19, 2.09757122448376298607e-01) (20, -2.14783037593827663692e-01) (21, 2.87516982584526681332e-01) (22, 1.04854636186170302459e+00) (23, 1.06123456678714589430e+00) (24, -1.13767866115787952275e+00) (25, -1.46615381155450308359e-01) (26, -1.00496438387530706571e+00) (27, -2.11980334160398242727e-01) (28, 1.30601545618294356821e+00) (29, -7.24953731472530948921e-01) (30, -2.51979754976023206936e-01) (31, 1.03885619095355780789e-02) (32, 8.05713881637362683286e-02) (33, -3.08706289566190207607e-02) (34, -7.83133051851884198769e-02) (35, -5.40340472731553056462e-01) (36, 6.31283622350711226545e-01) (37, -2.90759466264537899671e-02) (38, 1.01408450603923605549e+00) (39, -8.73880192604059247152e-01) (40, 2.77837551142806837845e-01) (41, 1.55828814094036788296e-01) (42, -6.44042866395143742686e-01) (43, 1.51207752166472059185e-01) (44, 1.51037123614206819644e-01) (45, -3.79022783378389072073e-01) (46, 4.78435553658050558012e-02) (47, 3.09568368620322165174e-01) (48, -5.18906959963225111743e-02) (49, 7.86135144483469522347e-02) (50, 1.15475853698225952582e-02) (51, -3.54305994612496844010e-02) (52, -4.23749336923509245523e-01) (53, 4.88442959896683126519e-01) (54, -1.06706081677115705020e+00) (55, 3.47545483829650170282e-01) (56, -8.22545232400971881859e-02) (57, 1.21894832628636415328e-01) (58, -7.95249972235410884647e-02) (59, 3.18711213815597249610e-01) (60, 4.94848924121097544226e-01) (61, 1.56788171317251909254e-02) (62, -7.80123908286500133968e-01) (63, 4.20555750137930284271e-01) (64, 6.12023800956151831087e-01) (65, -7.04106168830641365730e-01) (66, -7.36661395395420554033e-02) (67, 1.62958041046427221099e-01) (68, 9.17883237097004839322e-02) (69, 1.14970805173229013302e-02) (70, -1.45654411606770728405e-01) (71, 9.67065217935090398749e-02) (72, 1.23922361881011050544e-01) (73, -1.36053635329271074839e-02) (74, 6.04575771633294178908e-02) (75, -1.82179418735330944656e-02) (76, -2.81352977825282513091e-01) (77, 5.09367699948021779299e-01) (78, -3.64946570507327580635e-02) (79, -1.31746379816692571474e-01) (80, 1.24663144714934601143e-01) (81, 5.79063379242758091009e-03) (82, -9.18265998564243984825e-02) (83, 6.00807535884779822521e-02) (84, -1.59332634738703737831e-01) (85, -3.26069260688442885687e-01) (86, -3.01083954837611175726e-02) (87, -3.10091173240410813983e-02) (88, -1.01296420950835359964e-02) (89, -1.52423131193287321808e-03) (90, 2.66614424680985839800e-01) (91, -2.85039377917473024660e-01) (92, -4.94258991001589251257e-02) (93, 7.28961816829874487134e-02) (94, 8.76833862117148282733e-02) (95, 5.67216604087004000467e-02) (96, 4.32716396314728607431e-02) (97, 6.40450409876068826875e-01) (98, -1.73971143353689711164e-01) (99, -1.78347687903226526096e-01) (100, -2.35816973556979392335e-01) (101, 8.58207786205526790280e-02) (102, 2.18034923531635407845e-02) (103, 5.09964486037472131130e-01) (104, 7.23435821588231608992e-01) (105, 8.86852891082187261285e-02) (106, -1.38292655845246914570e-01) (107, -1.37470614414355485344e+00) (108, -8.72231448840085762594e-04) (109, 5.58942527019326340643e-01) (110, -1.26117887988017762790e-01) (111, 3.71354372593262899160e-02) (112, 1.33517970902468668948e-01) (113, -7.88523046412014427808e-01) (114, 3.78076818936521175107e-01) (115, 5.86437932736742842388e-02) (116, 1.73898426068440671577e-02) (117, 5.87458951712097388054e-01) (118, -4.51873648815184658645e-01) (119, -4.02737716507537368837e-01) (120, -1.78135479382821149130e-01) (121, 5.29883083277056243787e-01) (122, -1.00827955160796359224e-01) (123, 5.46327397222713950775e-01) (124, 2.68285772186897975011e-01) (125, 3.47917631770999075114e-02) (0, 1.04171097981631530227e-01) (1, 6.56548702819656493368e-02) (2, 6.10078652781104041614e-02) (3, 1.29582665226857466495e-02) (4, 2.24564640309983737723e-03) (5, -2.02935923892031910842e-01) (6, -1.87504273588368880477e-01) (7, 8.96448147390178778915e-02) (8, -3.83670206063562724275e-01) (9, 3.27204349771854474671e-01) (10, -6.82273965064768561639e-02) (11, 6.46804579674922774934e-01) (12, -3.66782669953518103423e-01) (13, 2.29488121191921308484e-02) (14, -3.53309397265765490204e-01) (15, 3.57145729378434029222e-01) (16, -2.07150933802054904032e-01) (17, 1.59207369358485284483e-01) (18, -7.76392962635262529059e-02) (19, -3.64020374280905112396e-01) (20, 1.54597682433635173066e-02) (21, 3.63026586139790358176e-02) (22, -1.04931745560740097289e+00) (23, -1.17327660162429148194e+00) (24, 1.37377155792670646584e+00) (25, 3.38500445075231914949e-01) (26, 1.38376695123073223392e+00) (27, 1.27805032938363261064e-01) (28, -2.05802176033598893667e+00) (29, 8.93159468703302761305e-01) (30, 3.39653294152095774905e-01) (31, 6.09819863487134558588e-03) (32, -4.50951142437027927001e-02) (33, -1.24195763668615247188e-01) (34, 5.38255372654726574333e-02) (35, 1.07140529613370150130e+00) (36, -1.17656309287631910543e+00) (37, 7.83630289638493626736e-02) (38, -6.62237172280093711052e-01) (39, 6.76800367252825552100e-01) (40, -1.05335150893306112030e-01) (41, -1.06563456266797515481e-01) (42, 6.77561519619493735078e-01) (43, -1.46447256210696652445e-01) (44, -7.15851194472304358518e-02) (45, 4.48387881748888550426e-01) (46, -4.17759724512724098244e-02) (47, -2.33164385164552484531e-01) (48, 1.19527392112767166799e-01) (49, -8.71115127686830081899e-02) (50, -3.31697670369402453083e-01) (51, 6.54373420284113521683e-02) (52, 2.47056649033412067951e-01) (53, -3.28446188444669273654e-01) (54, 8.92938337671529969164e-01) (55, -2.34546097000634390373e-01) (56, 3.33935343979825660643e-03) (57, -4.24831960154584409306e-02) (58, -8.69491756811615057465e-02) (59, -4.02677262999750096295e-01) (60, -2.69795159101068326990e-01) (61, -1.34807129514217166610e-01) (62, 9.95761649596098252779e-01) (63, -6.22181373583421071238e-01) (64, -5.21126850914151340532e-01) (65, 6.50610419268046080710e-01) (66, 6.17530620407939490057e-02) (67, -2.12306184575380918478e-01) (68, -1.34923046535392249234e-01) (69, 2.75834736741916962399e-02) (70, 2.70866869271367383121e-01) (71, -2.01994757517058559637e-01) (72, -1.84181765005306780081e-01) (73, 8.48686256186828164028e-02) (74, -1.10878465774596909887e-01) (75, 2.12086143494565407264e-03) (76, 1.97132194548111858157e-02) (77, -1.26038575955716297683e-01) (78, 1.00637115853112191211e-01) (79, 2.49583350338108189703e-01) (80, -2.41598678442461467508e-01) (81, -1.68556013847073027367e-01) (82, 5.35081125276870642193e-02) (83, -5.04625140731549681750e-02) (84, -7.83477937188390392842e-03) (85, 2.85263058783333911528e-01) (86, -3.39034528864405396154e-02) (87, -1.60209579917931221882e-02) (88, -1.05059350019625380446e-01) (89, -5.59157802860295316538e-02) (90, 9.55641401157980747982e-03) (91, 7.22945658076766944911e-02) (92, 1.47484265359571181664e-01) (93, -7.64643695441666743084e-02) (94, -9.34894441928380420803e-02) (95, 7.16360231360200355732e-02) (96, 4.05319905903561816807e-01) (97, -8.43933375272504893161e-01) (98, 1.41001844860367431256e-01) (99, 2.93819750696284409663e-01) (100, -7.26614702673606810412e-02) (101, 7.55007100366161532090e-02) (102, -6.75583095112190917808e-02) (103, -4.32814099196201507169e-01) (104, -5.03410633197912682490e-01) (105, -3.71504200407205067980e-02) (106, 3.88970451284638252254e-01) (107, 1.46768530582008871477e+00) (108, 2.55267769104155946291e-02) (109, -5.59550285926735058162e-01) (110, -1.92588292324495202745e-01) (111, -1.08776259127920701952e-01) (112, -1.54896892868736479887e-01) (113, 1.77260331248925095959e-01) (114, -2.85428011295145389603e-01) (115, 9.52281788299575437939e-02) (116, 5.84483407785539199608e-01) (117, -6.27975330349010207875e-01) (118, 5.29271959843872874529e-01) (119, -2.53440669335443236054e-01) (120, 3.94658540423418802146e-01) (121, -5.05787396646834030989e-01) (122, 1.55909894852785113617e-01) (123, -3.70809983250396046905e-01) (124, 9.19886491785813081856e-02) (125, 4.81038146372244276860e-02) (0, -1.97404569748579807736e-03) (1, 4.99708479279932435424e-02) (2, -2.45152247371851594870e-01) (3, -5.64127823102003253530e-02) (4, -6.32008597082761164332e-02) (5, 3.90054083549522118135e-02) (6, -8.76796105931014618795e-02) (7, 1.20709183699788252797e-01) (8, 1.05085260540573544041e-01) (9, -1.54039550324278934346e-01) (10, -2.67345910779900719501e-01) (11, 1.42711950982881030647e-01) (12, -2.05686959339164004978e-01) (13, -4.69051361816797421573e-05) (14, -1.32156146405977698022e-01) (15, 4.62924516612914505043e-02) (16, 1.08079314190956954356e-02) (17, -3.63817855032928030856e-02) (18, 2.54305897705273342702e-01) (19, -6.04403823921377467143e-02) (20, 2.02027562559824236388e-01) (21, -3.47692808442352785381e-01) (22, -3.24045737218263629753e-01) (23, -3.00881018608766870326e-01) (24, 2.30309297295614195944e-01) (25, 1.58658654599636739224e-01) (26, 2.94820435191245899809e-01) (27, 1.43879380781184677135e-02) (28, -4.88311461481461261958e-01) (29, 1.40022110317922415801e-01) (30, 5.63827546641020235785e-02) (31, -1.10316481787810977133e-01) (32, -1.36840916415168559195e-02) (33, -2.42336381761025544679e-02) (34, -8.48468122608484476288e-02) (35, 1.63219706136207204361e-01) (36, -1.68549489734118013162e-01) (37, -9.67340519165106188515e-02) (38, -4.29525741952383632860e-01) (39, 2.65170686331162086535e-01) (40, -1.38474096973489196882e-01) (41, -1.94199688786064250667e-01) (42, 2.51801350071389817842e-01) (43, -5.60327387943123783609e-02) (44, 6.95262540252123834028e-02) (45, 2.47365407479593651940e-01) (46, 1.45545186526832050211e-02) (47, -1.02586382581509677481e-01) (48, -5.81310398481006476712e-02) (49, -1.31998290159010156497e-01) (50, -2.56395281453451126530e-02) (51, 1.03169328889228292812e-01) (52, 1.37024051927782775095e-01) (53, -3.16946333185057882442e-01) (54, 5.53747447226949018884e-01) (55, -1.19896696543078717934e-01) (56, -7.43383290147532210801e-02) (57, 3.10767939073108706571e-02) (58, 7.84125684337700495918e-03) (59, -2.01537011554508843636e-01) (60, -2.62095697042281361444e-01) (61, 1.18729985516194444517e-01) (62, 9.33094828498371303693e-02) (63, -1.02654863557451778155e-01) (64, -2.29250667525808776714e-01) (65, 1.40181261925418243486e-01) (66, -1.11170370573951543536e-01) (67, -6.72674523200797319644e-02) (68, -8.03972351878197988295e-02) (69, -2.47176957536859968900e-02) (70, 6.12263257848212200107e-02) (71, -8.94144508162323659040e-02) (72, -6.14009393921987264853e-02) (73, -3.46563899766628852328e-02) (74, -3.06886592112925842002e-03) (75, -1.10744473188787315165e-01) (76, 5.35258272016430683427e-02) (77, -2.34744201008211056392e-01) (78, -4.71859516033366413468e-02) (79, 6.03075312546561062566e-02) (80, -9.77176093243500298868e-02) (81, -4.52281749802908722424e-02) (82, -3.58276146747303408588e-03) (83, -3.45560580227431066169e-02) (84, 1.26771589132277234802e-01) (85, 6.08187977295445159065e-02) (86, -4.58490080202731027648e-03) (87, 7.89566097439320102591e-02) (88, -1.16341912069529054841e-01) (89, -5.59247974855466081778e-02) (90, -2.28235609574941544775e-01) (91, 2.55886651422888439233e-02) (92, -1.21766936494373950728e-02) (93, -1.41066878298843761952e-01) (94, -2.50027166386954206867e-02) (95, 3.34584076286615003659e-02) (96, -1.02588876067776238465e-01) (97, -2.28603801171983311846e-01) (98, 1.35136818764617583355e-01) (99, 7.39285449760478802217e-02) (100, 6.60671329899732984181e-02) (101, -3.33388896970285356081e-02) (102, 9.33881766108896615997e-02) (103, -2.70771153339277592664e-01) (104, -2.75871307468478488278e-01) (105, 2.72571997468829922695e-02) (106, 9.78275356739554680097e-02) (107, 7.42292171165232606000e-01) (108, -6.73278296788810681761e-02) (109, -1.55713194089036111034e-01) (110, -3.81159945309403162816e-03) (111, 6.25659221077487070345e-03) (112, -6.69164482639076907411e-02) (113, 5.11405419648524484089e-01) (114, -1.79921531446615434735e-01) (115, -1.85618015403235747662e-01) (116, -5.63769438378409273871e-02) (117, -2.71153005910737709971e-01) (118, 2.68991463638427352745e-01) (119, 3.38040094038131844201e-01) (120, 1.21414570449141362429e-01) (121, -3.02624973192820834189e-01) (122, 9.73099527971375832802e-02) (123, -1.86173184195879165559e-01) (124, -3.69657648100205293851e-01) (125, -7.56559821657515202409e-02) (0, -8.85079788690728286316e-02) (1, -4.41582516671680004594e-03) (2, -1.18071955705877265630e-01) (3, 1.87346922610366686812e-02) (4, -1.13866771513080541900e-01) (5, -4.06760410634205982205e-02) (6, -5.82482143061412022123e-02) (7, -9.77821495086353409398e-02) (8, -8.67669953694917839293e-02) (9, 3.13520175738393955256e-02) (10, 2.31144263558068566167e-02) (11, -9.31258418254007902526e-02) (12, 8.34413553416073067170e-02) (13, -1.26869626578959088237e-01) (14, -3.77224803990396165276e-02) (15, -1.22074594806196937147e-01) (16, 5.01308291847593692769e-02) (17, 5.50426676976266057717e-03) (18, -9.78676778990583869089e-03) (19, 6.42191801256936506404e-02) (20, -1.06761862448425046135e-01) (21, -6.10509140044029410821e-02) (22, 1.86427990372123902896e-01) (23, 1.23337475252555256455e-01) (24, -1.17823083987098314873e-01) (25, -9.62989892012570264379e-02) (26, -1.73311053305736761931e-01) (27, -7.79517119354570381384e-02) (28, 1.57868489218109780969e-01) (29, -7.91641613747284950131e-02) (30, -2.17730631148238158723e-02) (31, 7.60457809960280034511e-02) (32, -4.29552667655835468397e-02) (33, -1.14835174855561494844e-01) (34, 8.18609942773132481797e-02) (35, -3.01837552360542993313e-01) (36, 9.93914348908805055094e-03) (37, -5.58936750463198753214e-02) (38, 2.44751834966482513523e-02) (39, -1.64969250664385475025e-01) (40, -4.41453579838926440937e-02) (41, -5.08161947808121960642e-05) (42, -1.91180630387185329644e-01) (43, 8.26042174118758604218e-02) (44, 1.35222779228958323201e-03) (45, -9.29947375746314891520e-02) (46, -9.68511348917854841822e-02) (47, -8.69478461104271072024e-02) (48, 6.83377808293081784319e-02) (49, 8.59283571402416762597e-02) (50, -1.40112554388309967779e-01) (51, -4.32674440123701070648e-02) (52, -2.00064121609489137255e-01) (53, 6.68676093489187078900e-02) (54, -1.30831589466815001455e-01) (55, 8.62004129230081184154e-02) (56, -8.04649105178551204975e-02) (57, -3.53492407050526244450e-02) (58, -6.92467436268440206248e-02) (59, 1.04784736250537607871e-01) (60, -2.83597581271146544080e-02) (61, 5.84934635606363800830e-02) (62, -9.85007374892794829169e-02) (63, -4.36546696212991511277e-02) (64, 1.17145482759250393889e-01) (65, -2.96272273811605882377e-02) (66, -1.76924646233618448887e-01) (67, -3.81897328803550220599e-02) (68, 4.97504567234311675938e-02) (69, 1.41245427198321716472e-02) (70, 8.62897655720894912745e-03) (71, -8.59309349267588784560e-02) (72, -8.06083403022760935919e-02) (73, 3.58333350758107630624e-03) (74, 1.09027881273163040898e-01) (75, -7.47539258286660790453e-02) (76, -1.10135313432672674039e-01) (77, 1.19874896764413221839e-01) (78, 1.11503189643220295552e-02) (79, 5.98771644269691580287e-02) (80, 7.12116385491847331268e-02) (81, 5.94818452332767644286e-02) (82, -6.03733823339356878712e-02) (83, -1.74937536570571976202e-02) (84, -9.36695334543070079469e-02) (85, -7.99294450083976038002e-02) (86, -2.65911705371503770401e-01) (87, 4.81094080673069857124e-02) (88, 7.58934982298409416268e-02) (89, -1.42527333356842079298e-02) (90, -1.67564232786276579024e-01) (91, -1.01197544195694238978e-01) (92, -8.29390517783329395129e-02) (93, -1.99217537509169484444e-01) (94, 3.73020631480492637078e-02) (95, -9.48773271572191378986e-02) (96, -1.41623764180726169348e-01) (97, 1.26372137173754006678e-01) (98, 2.60560286752159267487e-02) (99, 5.06446790881846103938e-02) (100, -1.69691735580910718628e-01) (101, 2.98594882504565686809e-02) (102, 8.85589484283171163304e-02) (103, 3.34973679442232422435e-03) (104, 5.58904916057053890999e-02) (105, 8.49325174050284820160e-02) (106, -5.98862382635145101828e-03) (107, -1.59040915679615396661e-01) (108, 6.96766066846924436717e-02) (109, 9.92782326924135788415e-02) (110, -7.00750808296854987844e-02) (111, 3.32134699425997853561e-02) (112, 1.83822096034484926130e-02) (113, -1.84685074935654440498e-02) (114, -6.03702817729675350611e-02) (115, -1.12660748504317342888e-01) (116, -2.08677345256201463020e-01) (117, -4.10944770321638938593e-02) (118, -2.35102034731243039745e-02) (119, -1.36276051719146112928e-01) (120, -1.47544490093062564962e-02) (121, 1.01629571359312265849e-02) (122, -1.01022916580860780411e-01) (123, 1.16274456215428451111e-01) (124, 1.36330343889051394668e-02) (125, -2.95747310040442079604e-01) (0, -2.73253752231460145250e-01) (1, -3.53219610181766327517e-02) (2, 1.24723386744710992846e-01) (3, 2.13994426509806101588e-01) (4, 6.12944861056830686552e-02) (5, 1.83110439108700034927e-01) (6, 4.33202287644242831077e-02) (7, -1.43573773747413896418e-01) (8, 1.54353664835946896572e-01) (9, 1.18684604144634442413e-01) (10, 1.47100438537355937552e-01) (11, -6.97532516717240591575e-01) (12, 4.64513817331922040932e-01) (13, 5.07307954670107377759e-02) (14, 2.60150580087963045894e-01) (15, -5.27024244126616636663e-01) (16, 3.01859860476464403334e-01) (17, 9.30426851576920954656e-02) (18, -2.92316848586424260503e-01) (19, 2.56464744964566671026e-01) (20, -1.51791551553730058588e-01) (21, 2.16731077537013844259e-01) (22, 1.21333617711804753192e+00) (23, 1.46501018790464576647e+00) (24, -1.54522765534545447608e+00) (25, -2.55675816114937892731e-01) (26, -1.48137901385402859233e+00) (27, -1.82718852024351230412e-01) (28, 2.29216643274058728963e+00) (29, -9.77892610925784055986e-01) (30, -3.52284136872947073460e-01) (31, -1.43678533465356195187e-02) (32, 1.13949428147814071921e-02) (33, 9.15327499004708750041e-02) (34, -3.38576403835064154713e-02) (35, -1.13088933916706735339e+00) (36, 1.18874993468180578660e+00) (37, 5.86757103342668631663e-02) (38, 1.17988708249886320445e+00) (39, -1.07698516760951235050e+00) (40, 3.19374338865300033685e-01) (41, 2.04389199804737492494e-01) (42, -8.89005014614510424842e-01) (43, 8.40830529935957110554e-02) (44, 3.74076362643052384716e-01) (45, -6.19174696140692426560e-01) (46, -2.04652946426357069953e-02) (47, 3.10668962687001504186e-01) (48, -1.42617596745894414934e-01) (49, 7.70644264908612042220e-02) (50, 1.72277867127588607543e-01) (51, 1.38240692298929410825e-02) (52, -4.70331146868134375438e-01) (53, 6.05501401726977306339e-01) (54, -1.42650022318289160239e+00) (55, 6.29015189375538352756e-01) (56, 3.37256382588392161770e-02) (57, 1.40813438222007342171e-01) (58, 3.94020222410860904150e-02) (59, 4.58802853475677951955e-01) (60, 3.10977563264012935029e-01) (61, 2.04666405456921079997e-01) (62, -9.55990167664571788286e-01) (63, 6.40351283629654433049e-01) (64, 6.11251568132844091963e-01) (65, -7.19421520964392158248e-01) (66, -3.30268844880523479435e-02) (67, 7.48011170180536560936e-02) (68, 2.54537494580493406371e-01) (69, -1.33591463632085988289e-01) (70, -2.48389818987388572014e-01) (71, 2.16629091728896688851e-01) (72, 7.67717828471742302909e-02) (73, -1.05534401114880257988e-01) (74, 2.46320258465248465019e-01) (75, -3.26415699618739160726e-02) (76, -2.68417989869181861096e-02) (77, 2.67050632618570815691e-01) (78, -1.08087740196530127101e-01) (79, -1.53679462603463573567e-01) (80, 2.74896314935218710751e-01) (81, 4.58181825939558626248e-02) (82, -5.38191997263960664188e-02) (83, 8.22196104837162600187e-02) (84, -1.19492045913819525116e-01) (85, -3.23945674701767105663e-01) (86, -1.32231596592961055114e-02) (87, 3.55889717763509041970e-02) (88, 1.09358029767615189121e-01) (89, 1.75078272462788619990e-01) (90, -8.01769760310645923651e-02) (91, -1.01219782599902385911e-01) (92, -2.52286532488554537945e-01) (93, 2.03863363274540465575e-01) (94, 1.20865550483343214827e-01) (95, -5.25920538617976468521e-03) (96, -3.68663405423464707322e-01) (97, 9.79910412295452948328e-01) (98, -2.33995081552887784770e-01) (99, -1.27757109769084609141e-01) (100, -1.67622576167159809124e-01) (101, 5.91580735952864991689e-02) (102, 3.65867712398882313773e-02) (103, 6.57380833730819902350e-01) (104, 7.54938941067344382319e-01) (105, 1.13407926383589957586e-01) (106, -2.89123753102753344724e-01) (107, -2.04905172089164455684e+00) (108, 9.24735334281524129496e-02) (109, 7.31721822947816735727e-01) (110, 2.13933464816311674772e-01) (111, 1.98031104526629718465e-02) (112, 1.72931361730771865348e-01) (113, -5.04413841685183883534e-01) (114, 4.48757895907118786738e-01) (115, -6.51266859101712336511e-02) (116, -5.07353630117685305834e-01) (117, 8.08422718655197103388e-01) (118, -6.92394856024711735643e-01) (119, 1.93086078898094148926e-01) (120, -2.50600739316814868918e-01) (121, 5.40458567443061976832e-01) (122, -1.71837407078586218434e-01) (123, 4.18661976554617620838e-01) (124, -7.81927633398862981240e-02) (125, 1.02273540083628308728e-01) (0, 9.34838861405450777253e-02) (1, 2.05972932592574063670e-02) (2, -1.91241593287972022619e-01) (3, -6.24252138122262240083e-02) (4, -8.37447361422270081244e-02) (5, -1.41964850518718127548e-01) (6, -4.45266502615127082731e-02) (7, 2.04345062338661259682e-01) (8, 1.17604607844565431374e-01) (9, -1.76449289207200682439e-01) (10, -1.98331066805898459382e-01) (11, 2.24895778785585087611e-01) (12, -2.34853711904393303023e-01) (13, -7.27315681199172253679e-02) (14, -1.17244005349264115989e-01) (15, 1.85160285644928507276e-01) (16, 2.69041279720944950804e-02) (17, 7.74409543666834815356e-02) (18, 2.86850887818041855315e-01) (19, 8.32927772104317780399e-03) (20, 1.93751508946742617701e-01) (21, -2.23377873110904651144e-01) (22, -3.26063324727128345248e-01) (23, -2.94676099034235361440e-01) (24, 2.99329438641478040584e-01) (25, 7.08975855851825265130e-02) (26, 2.52056426296406843601e-01) (27, 1.41468370078079413998e-01) (28, -3.83005426399759596467e-01) (29, 1.35976349228823789606e-01) (30, 1.37749796996667228655e-01) (31, -6.62307929708879500330e-02) (32, -2.52281147089319576771e-02) (33, -1.14027695317475530334e-01) (34, -3.07603012697443486956e-02) (35, 1.24247558162784710323e-01) (36, -2.52431440821189179147e-01) (37, -5.74536287405137402473e-02) (38, -4.30762970037248005273e-01) (39, 2.62154624461776064592e-01) (40, -9.97625120278013838293e-02) (41, -5.99956896201730774387e-02) (42, 2.92027573046948707436e-01) (43, -5.35996429426977422095e-02) (44, -9.36989577103083948195e-02) (45, 6.87917489658358832783e-02) (46, -3.95767800932422877946e-02) (47, -2.03795608299077085634e-01) (48, -1.09189508286142475391e-01) (49, -1.18834203666458970705e-01) (50, 9.25544338035110131235e-02) (51, 5.39656555291961673171e-02) (52, 1.90990715025967983109e-01) (53, -2.28569029217952496280e-01) (54, 4.13519305289893390754e-01) (55, -9.85270814102684605595e-02) (56, 6.64387421338072658994e-02) (57, -6.57905281725043311614e-02) (58, -6.39175712342198165672e-02) (59, -1.36971087782685879697e-01) (60, -1.60366974023021052753e-01) (61, 1.18857440044632889364e-01) (62, 2.40447742769428957077e-01) (63, -2.03628734003498318428e-01) (64, -1.31496670640161961163e-01) (65, 1.35614095613022178632e-01) (66, -3.10241013699158081629e-02) (67, -9.95739526612984954257e-02) (68, -7.63444848842166345904e-02) (69, 1.06274992202069207270e-01) (70, -2.37555947319040144938e-02) (71, -4.63940366407917456626e-02) (72, -5.67878261335715180114e-03) (73, -8.17470427239961744403e-02) (74, -1.46955695046054185537e-01) (75, 2.82727260805794890219e-02) (76, 4.89425771676274615207e-02) (77, -2.14352358054992697678e-01) (78, -5.25910045587687016710e-02) (79, 8.11644801154106504404e-03) (80, -9.04819352013352673492e-02) (81, 2.52179996045147139516e-02) (82, 1.01048261801783140212e-01) (83, -1.20022720234367621939e-01) (84, 1.89383465368093105441e-02) (85, 8.62522732086268284490e-02) (86, -7.61726463594068481378e-02) (87, -7.68592656867096435391e-02) (88, -3.64434076524050793236e-03) (89, -1.49619348418513174737e-02) (90, -9.79971020256082819833e-02) (91, 5.30112552869393613419e-02) (92, 4.25925604476882838090e-02) (93, -5.27763589781233069531e-02) (94, -1.51061894085917358677e-01) (95, -1.65339066316769478515e-02) (96, -5.51689412274643728451e-02) (97, -2.21946693120030680291e-01) (98, 7.69601304392510815466e-02) (99, 7.87935094192123292034e-02) (100, 1.39804555196238050607e-01) (101, 1.88667902740357815161e-02) (102, -5.60087015816375724531e-02) (103, -2.53982928567864807423e-01) (104, -2.67365608064293047708e-01) (105, -7.58268753199379946794e-02) (106, -4.10767177855953045246e-03) (107, 6.52859880645863532855e-01) (108, 3.04088445101696469575e-02) (109, -2.04447551220209633449e-01) (110, -1.61411804062309531538e-02) (111, -9.29849330736115531337e-02) (112, -7.89320656577282425692e-02) (113, 5.37014021008246356104e-01) (114, -1.57573362909660563691e-01) (115, -1.09754795182637837625e-01) (116, -1.29807059085588594183e-01) (117, -1.61130099592133563258e-01) (118, 1.22792150097106186890e-01) (119, 2.94239827779863682977e-01) (120, 7.68887225838715548942e-02) (121, -2.38441571475874913855e-01) (122, 1.21395636450832025699e-01) (123, -1.44210517381155312044e-01) (124, -2.11370144753874888988e-01) (125, -1.20565633150882978164e-01) (0, 8.94575293218904249448e-02) (1, 2.19044939933760757222e-01) (2, -1.85369551946535621179e-01) (3, -3.34334467933450410482e-02) (4, -6.62395914023450466113e-02) (5, -9.10427207760176604445e-02) (6, -2.32241755311543590645e-01) (7, 2.69602353965417540493e-01) (8, 7.57483745917069892228e-03) (9, -8.86512314251427235856e-02) (10, -2.62249063457325848336e-01) (11, 2.92316118060977847559e-01) (12, -2.87025035705548270393e-01) (13, 4.95291270599222091704e-04) (14, -1.52781537323385757654e-01) (15, 2.58309850589125755693e-01) (16, -6.19386845096407817612e-02) (17, 1.92367120126077408016e-02) (18, 4.26573741933998495934e-01) (19, -2.30019936384112638761e-01) (20, 2.23786120164900820262e-01) (21, -3.58174186850452269670e-01) (22, -7.09830548138212114040e-01) (23, -8.12316724560605885053e-01) (24, 7.08814234346794802555e-01) (25, 2.35450835696941973563e-01) (26, 6.20046062691111177223e-01) (27, 8.20701403290806097424e-02) (28, -9.09866092824554884011e-01) (29, 4.45171380164229968379e-01) (30, 1.60838002664658613616e-01) (31, 6.33256895167620247750e-03) (32, 7.25081173331754841316e-03) (33, -1.41824685317670368123e-01) (34, -5.67764979865625074584e-02) (35, 3.66042348497278013930e-01) (36, -3.21401848475479701150e-01) (37, -2.50632696794460610445e-02) (38, -6.32667380558284087044e-01) (39, 5.97482277477551004807e-01) (40, -1.68269932620293077852e-01) (41, -1.56455089438214289821e-01) (42, 2.76763052429178757485e-01) (43, -2.74236734648292297678e-02) (44, -1.31225633028656529788e-01) (45, 3.14949736593218287961e-01) (46, -4.92521461222538564639e-02) (47, -1.97343467082767787257e-01) (48, 4.58554022014003113267e-03) (49, -1.61838060582877613092e-01) (50, 3.44516891737374278404e-02) (51, 1.46387104500648762562e-01) (52, 3.68197042788098116706e-01) (53, -4.48611993713217194202e-01) (54, 9.31684505016311392822e-01) (55, -1.98367690912845173745e-01) (56, 4.19867473391703771579e-03) (57, -1.54294644086412718886e-01) (58, -1.94037149757700366770e-04) (59, -3.33508743357504688909e-01) (60, -2.56366562950009202471e-01) (61, -6.91153682671907937385e-02) (62, 3.98879567994897210603e-01) (63, -2.42101619007819179874e-01) (64, -4.16767649526064709598e-01) (65, 4.64958533340077195817e-01) (66, -1.41344050702554430154e-01) (67, -3.07151131817916117628e-02) (68, -1.11418466236388527535e-01) (69, -5.16239295992689944947e-02) (70, 6.91766237528870925333e-02) (71, -1.13974229008844310518e-01) (72, -5.59364889444290483422e-02) (73, -7.02338040701212893563e-03) (74, -1.61923382236302565440e-01) (75, -4.11650469451142891897e-02) (76, 7.88249194561093380340e-02) (77, -3.88624282758167294283e-01) (78, 1.09138048060845357923e-01) (79, 1.34340995558739295657e-01) (80, -1.32110051973244102541e-01) (81, -4.32532799098787265613e-02) (82, 3.30527337121416034393e-02) (83, -1.27923660726628890538e-01) (84, 1.09296270191537869820e-01) (85, 2.30321613841663636046e-01) (86, -1.50905106785754389298e-01) (87, 6.78766243029627625027e-02) (88, -3.07136506348992116555e-02) (89, 4.84124891136154394955e-02) (90, -1.42811942045999867856e-01) (91, 1.24932140886011969205e-01) (92, 1.17468669523583865016e-02) (93, -6.94319437042985737607e-02) (94, -1.25274667790828547753e-01) (95, -1.41690896141393393726e-02) (96, -1.24425153445001296371e-01) (97, -6.19308903070684202419e-01) (98, 1.97579579064771637675e-01) (99, 2.02164009021953527956e-01) (100, 1.85512063165477608662e-01) (101, -7.65549803384390353811e-02) (102, -1.41763146285163524341e-02) (103, -3.33706915743805954122e-01) (104, -4.62929143444451296485e-01) (105, -1.62569720359419522815e-02) (106, 1.14841793692476143440e-01) (107, 1.17792352268212940913e+00) (108, -5.66213842516053375564e-02) (109, -4.58970706239067993693e-01) (110, -1.56722932835350825531e-01) (111, 4.44278177241193700242e-02) (112, 3.78886074928311625265e-02) (113, 7.55824162469773241924e-01) (114, -2.68555396089583675590e-01) (115, -1.36579651024053810859e-01) (116, -2.17668525607251944765e-01) (117, -3.23424811588146510211e-01) (118, 2.30644977946396628754e-01) (119, 3.14224307072001329821e-01) (120, 2.60692027847205243241e-01) (121, -4.60669241525397676895e-01) (122, 1.75495893934789592983e-01) (123, -3.00965767974569808896e-01) (124, -3.03428561236818994384e-01) (125, -1.27804977857925911033e-01) (0, 1.74571210491196976422e-01) (1, 1.07396061512193691234e-01) (2, -1.00724393155441654946e-01) (3, -4.39583984834050547907e-02) (4, -5.99385865088867889061e-02) (5, -1.26066738590442928292e-01) (6, -2.48505980789922920060e-01) (7, 2.68269722200365878795e-01) (8, -7.57002190425125343065e-02) (9, -4.63532476952837058093e-02) (10, -2.58872643764958720869e-01) (11, 5.67392471360574801587e-01) (12, -4.35664486910727455360e-01) (13, -4.82951937113167556470e-02) (14, -3.10995799891617075161e-01) (15, 2.83980537665354249022e-01) (16, -1.52971074728550787691e-01) (17, -1.09769436947991752551e-01) (18, 3.48594330418877329514e-01) (19, -1.76052646152196012874e-01) (20, 1.67578983826801336532e-01) (21, -3.03744960715740031088e-01) (22, -9.87311229625653763442e-01) (23, -1.03885331168286909609e+00) (24, 1.09130987174245297489e+00) (25, 1.83747230347351769852e-01) (26, 1.01929747329844788695e+00) (27, 2.23230939691649477030e-01) (28, -1.37251119764485007835e+00) (29, 5.52608616311555667089e-01) (30, 2.66988886107958456329e-01) (31, 7.01452905148377270361e-02) (32, -5.16557542853914725134e-03) (33, -1.18157926447158417860e-01) (34, 8.21957512899599979095e-02) (35, 7.21776878693453305402e-01) (36, -6.76388932239210816100e-01) (37, 9.86814373907660830065e-02) (38, -8.91723046350473169674e-01) (39, 7.45284745502626355673e-01) (40, -1.14994334367043635203e-01) (41, -1.75190423002796358265e-01) (42, 6.87315943910350224400e-01) (43, -4.51659096687088146282e-02) (44, -1.81298869324780342893e-01) (45, 4.70824536854263842045e-01) (46, -9.41599921477175860751e-02) (47, -2.65717360604050267803e-01) (48, 1.02888598306643541669e-01) (49, -1.24899952229018132432e-01) (50, -2.36010648299492045710e-02) (51, 3.62571560689690028378e-02) (52, 4.00815567551613238795e-01) (53, -3.46913293787132648305e-01) (54, 1.13931850536827861120e+00) (55, -2.48273793814728110929e-01) (56, -9.23852789943706564912e-02) (57, -1.56214462024577255272e-01) (58, -5.08114736648123399565e-02) (59, -2.71808404562239980251e-01) (60, -3.37058280231498419433e-01) (61, 9.53262723636089104318e-03) (62, 6.79657209809123363797e-01) (63, -2.88955267894458134315e-01) (64, -4.54799822530931319164e-01) (65, 5.92305279806899953599e-01) (66, -7.13873089314972925079e-02) (67, -3.92199162257276107146e-02) (68, -7.64024787716151843053e-02) (69, 1.57249344067315971474e-01) (70, 1.50876643136215377039e-01) (71, -1.82687066190063834847e-01) (72, -4.46861070898902992821e-02) (73, 3.91379380914508995248e-02) (74, -2.20370739940036114435e-01) (75, -8.04571091436640239980e-02) (76, 1.27403066082239502244e-01) (77, -4.32764481331183670232e-01) (78, -4.84827327949134950086e-03) (79, 1.14194372774251401426e-01) (80, -1.96628326096209893326e-01) (81, -8.58733448136169141840e-02) (82, 1.23038953060590358635e-01) (83, -1.99229439786725748274e-01) (84, 1.13627940966652227206e-01) (85, 2.72181230297469656243e-01) (86, -3.15141988145589066472e-02) (87, 1.28337255728799906618e-02) (88, -4.94194100724893378707e-02) (89, -5.22764267520482717178e-03) (90, -1.31715046261403651018e-01) (91, 2.18495322126720376010e-01) (92, 1.57776965117531031702e-01) (93, -1.42544508273106176888e-02) (94, -2.48903749676387342493e-01) (95, -6.01455080903397082404e-02) (96, 1.77408341983471773418e-01) (97, -7.92514782141718332475e-01) (98, 2.10236173728589437193e-01) (99, 1.81576344828374869333e-01) (100, 1.18665595242199647941e-01) (101, -8.65315454867712219311e-02) (102, 7.81903243167746536679e-02) (103, -4.39609684513669995987e-01) (104, -5.93883274925895210394e-01) (105, 3.13825107602888273006e-02) (106, 1.65339982885186725925e-01) (107, 1.54747820791988299760e+00) (108, -6.48474344019232679104e-02) (109, -6.68981198716235292423e-01) (110, 2.56733771639722462010e-02) (111, 2.79315279957747485129e-02) (112, -4.33241666305399231174e-02) (113, 7.01596346307193363678e-01) (114, -2.12091911031894786444e-01) (115, -1.41878396687373703466e-01) (116, 2.26349915692205833073e-01) (117, -4.64764909388833413750e-01) (118, 5.10056549529921965380e-01) (119, 1.80600681169186316755e-01) (120, 2.25111895603137768251e-01) (121, -5.05155080333789419100e-01) (122, 2.27515376362692089973e-01) (123, -3.87300515543743562041e-01) (124, -2.87544144397689438453e-01) (125, -5.68457476071532949446e-02) (0, -9.68628697676208044731e-02) (1, -1.21303082168946682606e-02) (2, -1.17351093548794901955e-01) (3, -1.15914440526519371818e-04) (4, 5.38659399395027618795e-02) (5, -1.91714226979520230287e-02) (6, -5.89824360144680162610e-02) (7, 1.05841968824528634419e-01) (8, -5.14213824883899134344e-02) (9, -1.67520724810503784941e-01) (10, -8.23518914241354593742e-02) (11, 3.04663884743062232663e-02) (12, -2.35842089148526820597e-02) (13, 3.43058879141505679300e-02) (14, -4.71225983117742608375e-02) (15, 9.02171079653990432012e-02) (16, 2.12313735660552560525e-02) (17, -7.95750367081680121117e-02) (18, 2.13516325455141925752e-03) (19, 2.74005145935279498248e-02) (20, -7.03554105251636974216e-02) (21, -3.24128466431679376769e-02) (22, -2.08715093136919660477e-01) (23, -2.41196931472036329991e-01) (24, 7.09256899623049164028e-02) (25, 2.60848384629435887938e-02) (26, 6.03567426475171003863e-02) (27, -5.54780510714342964262e-02) (28, -3.09964824180163522893e-01) (29, 9.25852296480085545927e-02) (30, 3.12274203101069215693e-02) (31, -5.10158980017474672497e-02) (32, 6.75029587746107245794e-02) (33, -2.30447252734516910833e-01) (34, 9.02821081173733885894e-02) (35, -1.52129212989960387742e-02) (36, -8.37789838918033963333e-02) (37, 2.87279713523085553084e-02) (38, -2.62673179331126216418e-01) (39, 1.88143175599601641945e-01) (40, 1.91059913109258155961e-02) (41, -1.16652376243788102883e-01) (42, 1.05834864198388160783e-02) (43, -2.35847336669279851462e-02) (44, -9.35506406956644331885e-02) (45, 9.49121461289161028052e-02) (46, -8.56191920987918880792e-02) (47, -1.21049423171943476563e-02) (48, 5.89538475121998209461e-02) (49, -4.42459409403626532931e-02) (50, -1.16431528139997898103e-02) (51, -5.83474007592840390735e-02) (52, -2.26377867431632774642e-02) (53, -1.17590501133035110759e-01) (54, 8.52510816045216196501e-03) (55, -6.45246154260430745259e-03) (56, -4.60258054886133194383e-02) (57, -6.84552233488754657831e-02) (58, 7.48248605031499175455e-03) (59, -4.05165540448541583451e-02) (60, 3.35316001360351284219e-03) (61, -6.05671991437301063255e-02) (62, 1.54793378421849509019e-01) (63, -1.24748509700828638658e-01) (64, -1.84733544249988362873e-01) (65, 1.84420977943888175776e-01) (66, -5.38410815700754788460e-02) (67, -8.68606260664235296787e-02) (68, -2.35343138975164234417e-02) (69, 1.02739250693625536193e-01) (70, 3.34284986118765156671e-02) (71, -9.21385658708430699271e-02) (72, -9.95414394203528729577e-02) (73, 3.27739636267079387233e-02) (74, 1.95336190566104787869e-02) (75, -1.39251531245946830184e-01) (76, 5.81140650061746991129e-02) (77, -4.95577770603326372284e-03) (78, -4.47833652302191617678e-02) (79, -8.26724077950609891052e-03) (80, -1.13901074699535947987e-01) (81, 3.03599315244952837334e-02) (82, -2.32359565014830619922e-02) (83, -2.10105089331275689257e-02) (84, -6.16087344709588674574e-02) (85, 8.83246017906091085425e-02) (86, -6.42999501766013670245e-02) (87, 6.81363345963706679154e-02) (88, 6.23907437884518648041e-02) (89, -1.95294951875519644247e-02) (90, -1.90101860644658698929e-01) (91, 1.14668986540905487592e-01) (92, 3.54008866517394465978e-02) (93, -1.31982569697242063667e-01) (94, -7.11945160507077984269e-02) (95, 2.77820428316599490892e-02) (96, -6.70110725448047200858e-02) (97, -1.67117875820128949926e-02) (98, -1.75893658125105302459e-02) (99, 6.91652559161985841518e-02) (100, 2.55717774698345978387e-03) (101, 6.24040367998784165082e-02) (102, 8.92304468226499114536e-02) (103, -1.89820831276971829782e-01) (104, -1.09050271242178808961e-01) (105, 1.80531411433197883087e-02) (106, -1.98818176461737668170e-02) (107, 1.17203934219514332993e-01) (108, 3.67082192948033493151e-04) (109, -5.48191756466232388290e-02) (110, -8.89664743217717050167e-04) (111, 2.50563594577020050391e-02) (112, -2.36283954039574056738e-02) (113, 2.44307380075543728593e-01) (114, -1.13136803713135267180e-01) (115, -1.48805255629361005143e-01) (116, -1.08483720376300191157e-01) (117, -1.82926456935293857420e-01) (118, 5.75612546853783921263e-02) (119, 3.37686799845670418407e-02) (120, 6.24011908245138205431e-02) (121, -1.03694749634841598684e-01) (122, -7.75198615313521799397e-02) (123, -1.35736192651751436111e-01) (124, -9.45624104381482810666e-02) (125, -1.17382426778834786374e-01) (0, 1.61405133417126984974e-02) (1, 1.88977782735846901174e-02) (2, 4.05719686280180333315e-02) (3, -1.24146487338082187057e-01) (4, -2.71818831617605879969e-02) (5, 6.77845783147991987061e-02) (6, 1.36782660705919018040e-01) (7, -7.55030622065571144219e-02) (8, -9.97915144541240139997e-02) (9, 4.44316506821472376187e-02) (10, -5.05737663461930178621e-02) (11, -2.18919979168793826796e-01) (12, 1.30559767475514676427e-01) (13, 3.38167385403011569456e-02) (14, 1.03985423865948833910e-01) (15, -1.70792492046221017210e-01) (16, 1.01027481965561792554e-02) (17, -4.10181347378061333941e-02) (18, -5.72207230967315266801e-02) (19, 9.26430336845843194205e-03) (20, -1.89327013172135349972e-01) (21, 2.30016730032317224391e-03) (22, 3.27561523895385675598e-01) (23, 1.74356712464440261057e-01) (24, -2.41940966868894158370e-01) (25, -1.11007587606253926849e-01) (26, -3.62136368149059639787e-01) (27, 1.88368108555925228842e-02) (28, 3.82982673255674754831e-01) (29, -1.59602654526920295641e-01) (30, -8.85227832555246924029e-02) (31, -6.94057474160989784639e-02) (32, 4.37295442444018064854e-02) (33, -1.47339994900136939115e-01) (34, -4.76123110966728685378e-02) (35, -2.99287950123411417014e-01) (36, 2.09623538145015830825e-01) (37, -7.29886658189991821555e-02) (38, 3.45050227631252426352e-01) (39, -4.05087734181375558329e-01) (40, 9.56670636088214898507e-02) (41, 1.48468090280758774346e-01) (42, -1.82197820512017161221e-01) (43, -2.94417251146079882174e-02) (44, 6.15796616474035135580e-02) (45, -1.73294076625272547298e-01) (46, -3.82930884144333863461e-02) (47, 1.25012930628282309398e-01) (48, -3.78004519818833165101e-02) (49, -1.95784135912455241335e-02) (50, -4.83885723759361827123e-02) (51, -5.96928958348609955964e-02) (52, -1.87904735873813455438e-01) (53, 3.90740395739287565968e-02) (54, -3.82387940110703594687e-01) (55, 1.78124293862323875015e-02) (56, -2.93317631532514500048e-02) (57, 5.94719493940179047553e-02) (58, -4.80440952523662825890e-02) (59, 1.50782774519706896932e-01) (60, 1.31038794714297135435e-01) (61, 1.20161131525924232133e-02) (62, -1.06332497956889163171e-01) (63, 3.91169626117248980801e-02) (64, 2.60089802151183269174e-01) (65, -2.45195691778979540931e-01) (66, 9.16941428847207530041e-04) (67, 1.97886907853556566483e-02) (68, -1.81583969574656174661e-02) (69, -3.62028608274002489109e-02) (70, -1.12415633121144178941e-01) (71, 1.33003666544114357295e-01) (72, -2.43076500352820655537e-02) (73, -1.08817105832745872167e-03) (74, -9.76314825144046841143e-03) (75, 7.09882929506482213133e-02) (76, -1.46397203994294636265e-02) (77, 1.21544689839452005331e-01) (78, -1.17740846579446924169e-02) (79, -9.43364038731385884384e-02) (80, 1.07592069766507786310e-01) (81, -6.70309521906173322314e-02) (82, 2.51875443940900410611e-02) (83, 3.28838736913388968164e-02) (84, -1.23474693048383959981e-01) (85, -1.72903079379222474055e-01) (86, -2.67468732398817368723e-02) (87, -3.11748865049315398990e-03) (88, -7.63486551762101034457e-02) (89, -5.69534672061894828299e-02) (90, -6.39155605865401460486e-02) (91, -4.43375384059720503704e-02) (92, 2.57718420190619496024e-02) (93, -1.72550902128906169519e-01) (94, 1.74340540793654595608e-02) (95, 8.00886666229168320275e-02) (96, -4.40475923577666600428e-02) (97, 2.54213278038870227338e-01) (98, -4.52066105951750563108e-02) (99, 1.03472250612392582814e-02) (100, -1.56918082214367288207e-01) (101, 7.73471988156020362482e-02) (102, 6.39827408117464163650e-02) (103, 1.33542298570679424108e-01) (104, 2.02625497108531088530e-01) (105, -7.20020631640382463567e-02) (106, -1.53360466476002210712e-01) (107, -3.95122733743180354349e-01) (108, 2.18162637837736352042e-02) (109, 2.34127781811391100231e-01) (110, 1.96369249322180423889e-02) (111, -2.13695895847227923525e-02) (112, 1.48078992258510733215e-01) (113, -2.34999254326938633586e-01) (114, 1.78961537986201069117e-01) (115, -6.44275357892187816589e-02) (116, 